-0.006,-0.000,0.130,0.002,0.183,0.110,0.002,0.076,0.025,-0.075,0.090,0.036,0.042,0.121,-0.016,0.030,-0.022,-0.027,0.183,-0.165,0.165,0.109,-0.027,0.003,-0.001,-0.070,0.144,-0.188,-0.092,0.123,0.098,-0.041,0.025,0.080,-0.184,-0.023,-0.031,-0.035,-0.034,-0.059,-0.105,0.088,-0.042,0.033,-0.045,0.100,-0.177,-0.013,-0.126,0.052,0.041,-0.057,-0.068,-0.091,-0.018,-0.082,-0.026,-0.081,-0.018,-0.090,-0.015,0.064,-0.001,-0.075,0.089,-0.077,-0.021,0.027,0.029,0.255,-0.136,-0.099,-0.032,0.040,-0.195,0.028,-0.103,-0.174,-0.080,0.055,-0.013,-0.049,-0.122,-0.016,-0.038,-0.072,-0.080,0.049,-0.077,0.140,-0.116,-0.181,0.114,0.088,-0.023,-0.139,0.053,0.037,-0.057,-0.024,-0.226,0.013,0.015,-0.047,-0.137,0.107,0.007,-0.092,0.041,-0.007,-0.048,0.112,0.065,0.162,0.013,0.016,-0.109,-0.032,0.077,0.177,0.172,0.023,-0.079,0.001,0.031,-0.090,-0.011,-0.001,0.034,-0.046,-0.292,-0.087,-0.044,0.040,-0.171,0.013,0.076,-0.121,0.045,-0.090,-0.144,0.057,0.001,-0.178,-0.027,-0.064,0.062,-0.007,0.009,0.034,0.195,0.007,-0.076,-0.089,-0.025,-0.144,-0.054,-0.264,-0.149,-0.149,-0.062,-0.087,-0.086,0.005,0.155,-0.010,0.113,0.142,0.051,0.154,0.085,-0.158,0.101,-0.096,-0.006,0.016,0.030,0.023,0.077,0.165,-0.005,0.085,-0.209,0.052,0.020,-0.054,-0.105,-0.133,-0.115,-0.116,-0.098,-0.151,-0.066,0.046,-0.027,-0.043,0.072,-0.014,0.060,-0.058,-0.027,0.080,-0.029,-0.220,-0.081,-0.017,-0.046,0.113,0.023,0.087,-0.041,-0.080,-0.039,-0.056,0.089,-0.147,-0.160,-0.121,-0.192,-0.009,-0.052,0.212,-0.001,0.013,0.035,-0.031,-0.011,-0.069,-0.139,-0.030,-0.152,-0.015,0.077,-0.049,-0.029,0.001,-0.014,-0.053,0.027,-0.105,-0.024,-0.143,0.011,-0.057,-0.018,0.002,-0.056,-0.013,-0.096,0.030,0.012,-0.007,-0.037,-0.005,-0.141,-0.033,-0.126,-0.024,-0.111,-0.301,-0.078,0.094,0.198,-0.070,0.171,0.028,0.029,0.031,-0.188,-0.120,-0.194,-0.102,-0.013,-0.083,-0.112,-0.051,-0.004,0.004,-0.004,-0.023,-0.034,-0.077,0.058,-0.050,-0.089,-0.098,0.035,-0.181,0.026,0.053,-0.040,-0.064,0.109,0.165,0.167,0.319,0.040,-0.027,-0.067,-0.180,-0.260,-0.005,-0.021,-0.042,-0.138,0.064,-0.036,0.046,-0.119,-0.115,0.067,-0.048,-0.017,-0.042,-0.118,-0.051,0.066,0.130,0.028,0.045,-0.039,0.164,0.122,0.268,0.241,0.409,-0.125,-0.279,-0.119,-0.128,-0.096,0.062,0.010,-0.019,-0.035,-0.045,0.032,-0.114,0.161,0.069,-0.117,-0.090,0.009,0.073,-0.050,-0.051,0.033,-0.133,-0.001,0.011,0.175,0.414,0.246,-0.011,-0.073,-0.151,-0.097,-0.048,-0.132,-0.236,0.002,-0.040,0.012,0.038,-0.063,0.120,0.086,-0.170,0.068,-0.054,-0.159,0.001,-0.146,0.039,-0.054,-0.082,-0.002,0.036,0.288,0.197,0.112,0.019,-0.167,-0.487,-0.208,-0.148,0.040,-0.084,-0.035,-0.073,-0.003,0.029,0.052,0.048,-0.029,-0.005,-0.003,-0.192,-0.040,-0.163,-0.024,-0.139,0.036,-0.030,-0.066,0.031,0.092,0.246,0.319,0.198,-0.325,-0.238,-0.250,-0.105,-0.012,-0.185,-0.025,0.104,0.025,0.029,0.091,-0.029,0.003,-0.015,-0.104,-0.017,-0.145,0.045,0.063,0.114,0.084,0.098,0.059,-0.047,0.201,0.259,0.400,-0.067,-0.306,-0.211,-0.169,0.065,-0.118,0.184,-0.013,-0.162,-0.010,-0.005,-0.044,-0.010,-0.084,0.009,-0.091,-0.002,0.002,-0.049,-0.050,-0.032,0.022,0.055,0.040,0.069,0.219,0.283,0.065,-0.336,-0.411,-0.335,-0.078,-0.061,0.124,0.100,0.108,-0.160,0.084,0.004,0.002,0.079,-0.001,0.005,0.036,-0.022,-0.166,-0.152,-0.080,-0.110,0.010,0.011,0.070,0.164,0.269,0.160,-0.166,-0.444,-0.293,-0.227,-0.339,0.022,-0.125,0.141,-0.005,0.107,0.010,-0.042,0.059,0.046,-0.008,0.194,-0.075,-0.093,-0.165,-0.316,0.137,0.082,0.095,0.107,0.241,0.321,0.250,0.023,-0.348,-0.419,-0.366,-0.112,-0.113,0.054,0.091,-0.062,-0.084,0.109,0.050,0.121,0.054,0.037,0.167,0.019,-0.137,0.031,0.009,0.072,-0.134,-0.064,0.033,0.297,0.045,0.058,-0.080,-0.177,-0.304,-0.190,-0.257,-0.324,-0.202,-0.225,0.037,-0.011,-0.002,-0.068,0.003,-0.162,-0.004,-0.058,-0.010,-0.022,0.119,-0.059,-0.138,-0.059,0.020,0.116,-0.042,0.187,0.022,-0.076,-0.161,-0.265,-0.190,0.057,-0.044,-0.016,-0.086,-0.037,0.003,-0.083,0.037,-0.046,0.084,-0.055,-0.119,-0.158,0.001,-0.021,0.128,-0.060,0.011,-0.013,-0.042,-0.052,-0.109,-0.144,-0.188,-0.175,-0.249,-0.115,-0.233,-0.098,-0.080,-0.144,-0.067,-0.033,0.027,-0.011,0.106,-0.068,-0.026,-0.044,-0.065,0.051,0.102,0.179,0.125,-0.072,0.144,0.079,-0.162,-0.013,-0.187,-0.227,-0.239,-0.213,-0.030,-0.211,-0.203,-0.083,-0.109,-0.013,-0.050,-0.079,-0.133,0.160,-0.008,-0.150,0.096,0.047,-0.025,0.110,0.030,0.125,-0.062,0.287,0.126,-0.085,-0.030,-0.148,-0.135,-0.072,-0.155,-0.210,-0.185,-0.181,-0.055,-0.056,-0.095,0.002,-0.032,0.041,-0.055,-0.042,-0.067,-0.089,0.028,-0.052,-0.048,0.013,-0.150,-0.056,0.085,0.136,0.134,-0.008,0.041,-0.167,-0.260,-0.196,-0.091,-0.168,-0.069,-0.273,-0.135,-0.031,-0.173,0.048,0.044,0.106,-0.012,0.076,-0.085,0.077,0.002,-0.091,-0.092,-0.074,-0.176,-0.165,-0.052,0.043,0.048,0.007,0.177,-0.036,-0.031,-0.049,-0.097,-0.173,-0.122,-0.141,0.060,-0.078,-0.035,0.008,0.058,-0.036,0.099,0.104,0.065,-0.068,0.093,-0.062,0.090,0.017,0.076,0.135,-0.045,0.006,0.128,-0.044,-0.074,0.105,0.069,-0.086,0.048,0.181,0.135,0.051,0.114,0.108,0.154,-0.008,0.024,0.124,0.065,-0.032,-0.176,-0.007,0.051,0.065,-0.071,0.026,-0.006,-0.071,0.047,0.012,0.087,-0.075,0.053,0.149,0.158,-0.026,-0.013,0.015,0.124,-0.034,-0.048,-0.012,0.055,-0.215,-0.163,0.084,0.099,0.177,0.221,-0.041,0.028,0.030
0.075,-0.020,0.068,-0.080,0.083,0.084,-0.028,-0.132,0.107,0.114,-0.105,0.070,-0.178,-0.071,0.010,-0.040,0.034,0.154,-0.016,0.037,-0.024,-0.110,0.209,0.056,0.074,0.030,0.091,-0.084,-0.147,-0.092,-0.034,0.069,-0.168,-0.058,-0.070,-0.076,-0.032,-0.111,-0.092,-0.050,-0.198,-0.082,-0.088,-0.107,-0.006,0.066,-0.090,-0.020,-0.097,-0.088,-0.000,0.026,0.012,0.021,0.093,-0.117,0.053,-0.034,0.024,0.153,-0.060,-0.041,0.075,-0.022,-0.008,-0.123,-0.001,0.098,0.019,0.023,0.008,0.056,0.116,0.005,0.071,0.036,-0.005,0.056,-0.035,-0.023,0.064,-0.116,-0.052,0.072,0.058,0.207,-0.070,0.115,0.096,0.125,0.091,-0.020,-0.105,-0.048,-0.033,0.037,-0.070,0.124,0.004,0.118,-0.015,0.071,-0.074,0.005,0.092,-0.096,0.171,-0.141,0.026,-0.076,0.056,0.011,0.009,-0.010,0.027,-0.134,0.024,0.152,-0.202,-0.148,-0.142,0.054,-0.066,-0.009,-0.264,0.042,0.005,0.090,-0.026,0.018,-0.063,-0.073,0.056,0.080,0.169,-0.065,-0.079,-0.045,-0.038,-0.011,0.034,0.112,0.054,0.004,0.081,0.038,0.021,-0.053,-0.108,-0.192,-0.073,0.120,0.015,0.088,0.026,0.210,0.019,0.167,-0.068,-0.004,0.156,0.129,-0.039,0.100,-0.030,-0.032,-0.080,0.078,0.133,0.089,0.167,0.060,-0.055,-0.002,-0.049,-0.080,-0.095,-0.158,-0.053,0.048,0.065,0.141,0.158,-0.112,0.183,0.043,0.158,0.321,-0.004,-0.021,-0.027,0.071,0.098,-0.018,0.060,-0.084,0.020,0.015,-0.077,-0.062,0.011,-0.029,0.006,-0.032,0.022,-0.104,-0.021,0.021,0.116,0.231,0.064,0.462,0.328,0.302,0.287,0.238,0.105,0.067,-0.055,-0.019,-0.007,0.038,0.117,0.061,0.103,-0.078,-0.009,0.020,0.009,-0.029,0.103,-0.034,-0.117,-0.068,0.076,0.021,0.030,0.249,0.141,0.305,0.293,0.172,0.283,0.118,0.170,0.126,0.073,0.058,0.075,-0.027,0.083,-0.062,-0.088,-0.029,0.027,0.010,0.008,-0.005,-0.021,0.009,-0.038,0.049,-0.063,0.163,0.164,0.154,0.141,0.134,0.021,0.030,0.035,-0.007,0.158,-0.101,0.046,0.163,0.133,-0.037,-0.135,-0.005,0.075,-0.128,-0.071,-0.010,-0.059,-0.169,-0.115,-0.278,-0.077,-0.112,0.096,-0.054,0.020,-0.066,0.047,-0.067,-0.191,-0.114,-0.333,-0.274,-0.120,-0.234,0.029,-0.017,-0.072,-0.219,0.058,-0.061,0.045,0.047,0.071,0.077,0.028,-0.129,0.035,-0.010,-0.037,0.018,0.013,0.106,-0.021,-0.220,0.036,-0.152,-0.090,-0.359,-0.348,-0.323,-0.162,-0.120,-0.226,0.070,-0.056,-0.026,-0.092,-0.058,0.066,0.083,0.017,0.010,-0.194,0.070,-0.045,-0.056,-0.074,-0.112,0.018,-0.123,0.010,-0.046,-0.014,-0.136,-0.049,-0.051,-0.157,-0.303,-0.345,0.020,-0.210,-0.072,0.162,0.094,-0.136,0.127,-0.004,0.158,-0.146,0.031,-0.050,-0.048,-0.151,0.057,-0.085,-0.080,0.045,0.015,0.301,0.078,-0.032,0.091,-0.147,-0.167,0.052,-0.265,-0.213,-0.207,0.003,-0.025,0.141,-0.091,0.079,-0.002,0.161,0.133,0.003,-0.082,0.154,-0.032,0.165,-0.049,-0.005,-0.016,0.057,0.132,0.115,0.144,0.119,0.146,-0.073,-0.042,0.030,-0.194,-0.091,-0.195,-0.237,-0.050,0.058,-0.068,-0.048,0.100,-0.012,-0.062,0.086,-0.110,-0.085,-0.057,-0.044,-0.134,0.169,0.207,0.261,0.093,0.085,0.128,0.134,0.041,0.068,0.151,0.181,-0.185,-0.107,-0.116,-0.176,-0.013,0.036,0.015,0.069,0.151,-0.118,-0.032,-0.001,-0.105,-0.180,-0.250,-0.093,-0.119,-0.106,-0.050,0.154,-0.039,0.029,-0.075,0.112,0.039,0.294,0.312,0.234,-0.037,-0.138,-0.137,-0.120,-0.207,-0.012,0.026,0.101,0.006,-0.074,-0.015,-0.196,0.093,-0.082,-0.166,-0.035,-0.245,-0.160,0.000,-0.001,0.088,0.097,0.160,0.189,0.177,0.103,0.256,0.204,0.129,-0.127,-0.103,-0.246,-0.120,-0.097,0.134,-0.159,-0.072,-0.007,-0.246,-0.087,0.076,0.118,0.134,-0.029,-0.029,-0.267,-0.209,-0.131,-0.115,0.162,0.197,0.044,0.172,0.243,0.248,0.052,-0.160,-0.272,-0.120,-0.193,-0.178,-0.009,0.002,0.076,0.069,-0.171,-0.041,0.017,-0.033,0.124,0.197,0.056,-0.055,-0.120,-0.170,-0.024,-0.026,-0.157,0.081,0.123,0.197,0.157,0.191,-0.140,-0.195,-0.166,0.009,0.000,-0.004,-0.052,0.132,0.075,-0.141,0.066,0.055,0.085,0.021,0.044,-0.061,0.006,0.168,0.070,0.009,-0.088,0.050,0.179,0.088,-0.012,0.048,0.140,0.066,-0.139,-0.126,0.034,-0.111,-0.069,0.023,-0.051,-0.000,-0.029,-0.063,0.013,0.053,0.063,-0.064,-0.151,0.092,-0.027,-0.083,-0.033,-0.011,0.142,-0.098,0.159,0.161,0.244,-0.071,0.119,0.062,-0.136,-0.102,-0.150,-0.089,0.010,-0.003,0.089,0.018,0.049,-0.025,-0.031,-0.085,0.114,0.081,0.013,-0.012,0.122,0.149,0.052,0.245,0.222,0.012,0.168,0.093,-0.034,0.141,-0.053,-0.127,-0.026,-0.156,-0.050,-0.054,0.021,0.010,-0.262,0.180,0.197,-0.061,0.016,-0.021,-0.090,-0.079,-0.124,-0.116,0.066,-0.089,-0.010,0.280,0.262,-0.051,0.193,0.211,0.150,0.125,0.084,-0.015,-0.025,0.162,0.099,0.058,0.025,-0.064,-0.113,0.040,-0.028,-0.180,0.061,0.090,0.124,0.056,-0.147,-0.043,0.031,0.132,0.015,-0.100,0.028,-0.091,-0.049,-0.050,0.121,0.170,-0.038,-0.010,-0.009,0.185,0.084,-0.062,-0.016,-0.072,0.040,0.012,0.023,-0.134,0.067,-0.006,0.217,-0.036,0.044,0.215,-0.034,-0.079,0.020,0.003,0.118,0.023,0.104,0.213,-0.068,0.062,-0.048,0.053,0.006,-0.072,0.135,-0.158,-0.124,0.016,-0.003,-0.004,-0.038,0.022,0.115,-0.114,0.074,-0.083,0.084,0.083,-0.019,-0.080,0.042,0.124,-0.032,0.120,-0.038,-0.012,0.026,0.034,0.026,-0.193,0.132,-0.098,0.008,0.053,-0.125,0.131,0.016,0.053,-0.067,-0.155,0.093,-0.017,-0.214,0.075,-0.065,-0.072,0.029,-0.131,0.104,-0.067,0.089,-0.024,-0.018,-0.040,0.087,0.068,0.031,0.118,0.109,0.102,0.179,-0.112,-0.012,-0.111,0.031,0.037,-0.078,-0.014
0.085,-0.012,0.058,0.072,0.063,-0.170,0.129,0.137,-0.055,-0.150,-0.043,-0.089,-0.124,-0.070,-0.048,0.163,-0.112,-0.066,0.015,0.014,0.066,-0.054,-0.106,-0.052,-0.064,-0.040,0.092,0.090,-0.003,0.121,0.096,-0.086,0.022,-0.031,0.047,-0.042,-0.107,0.061,0.184,0.050,0.027,-0.005,0.062,-0.040,0.144,-0.078,0.086,0.033,-0.049,-0.117,-0.140,-0.026,0.008,0.174,-0.018,0.105,0.101,-0.070,-0.020,-0.021,0.141,0.077,-0.056,0.126,-0.179,-0.078,0.037,0.128,-0.067,0.018,-0.066,-0.101,-0.054,0.056,0.137,0.030,0.037,0.135,-0.018,-0.024,0.140,0.006,-0.033,0.026,-0.194,-0.042,0.020,-0.055,0.123,-0.161,-0.009,-0.030,0.154,0.094,0.071,0.167,0.046,0.090,0.112,0.112,0.260,-0.001,0.043,-0.073,0.057,-0.030,-0.107,-0.044,-0.106,0.082,0.041,0.095,-0.045,0.125,0.036,0.020,-0.007,0.064,0.196,-0.039,-0.082,-0.093,0.043,-0.056,0.005,0.036,-0.027,0.170,0.055,0.218,0.058,-0.050,0.045,-0.277,0.034,-0.122,0.047,-0.035,0.042,-0.093,0.204,0.167,0.095,-0.162,0.051,-0.002,-0.009,-0.166,0.008,-0.091,-0.246,-0.143,0.065,0.035,0.114,0.063,0.049,0.267,0.023,0.036,0.082,-0.113,-0.047,-0.118,-0.057,-0.012,-0.055,-0.030,0.074,0.062,-0.090,-0.067,-0.206,-0.093,-0.120,-0.035,-0.201,-0.234,-0.260,-0.079,-0.147,0.080,-0.028,0.247,0.108,-0.009,0.246,0.054,-0.204,-0.095,-0.089,-0.143,-0.060,0.048,0.003,0.053,0.044,0.077,-0.059,0.076,-0.139,-0.186,-0.108,-0.227,-0.321,-0.310,-0.067,-0.192,-0.248,0.068,0.034,0.094,0.011,-0.015,0.079,-0.046,0.092,-0.044,-0.007,-0.175,-0.171,-0.029,0.019,-0.090,-0.073,0.060,0.019,-0.064,0.122,-0.107,-0.019,-0.008,-0.135,-0.226,-0.114,-0.089,-0.217,-0.123,0.158,0.054,0.033,0.029,-0.039,-0.067,-0.098,-0.151,-0.123,-0.179,-0.106,-0.138,-0.224,-0.020,-0.026,0.087,-0.090,-0.043,0.043,-0.232,-0.083,-0.235,-0.015,-0.089,-0.086,-0.157,-0.066,-0.038,-0.123,0.009,0.038,0.142,0.154,-0.195,0.000,-0.041,-0.159,-0.057,-0.178,-0.144,-0.010,0.061,-0.047,0.018,-0.030,-0.032,0.024,0.065,-0.051,-0.064,-0.030,0.035,-0.315,-0.184,-0.028,-0.197,-0.125,-0.172,-0.102,-0.124,-0.042,0.047,-0.052,-0.279,-0.164,-0.081,-0.141,-0.284,-0.199,-0.115,0.072,0.003,-0.060,-0.119,-0.108,-0.078,-0.097,-0.069,-0.092,-0.195,-0.182,-0.102,-0.243,-0.215,-0.274,-0.560,-0.322,-0.098,-0.055,-0.073,-0.126,0.028,0.064,-0.019,-0.045,-0.213,-0.058,0.191,-0.015,-0.115,-0.075,0.016,-0.017,0.046,-0.012,-0.148,-0.084,-0.214,-0.227,-0.276,0.002,0.073,-0.444,-0.472,-0.488,-0.247,0.027,0.060,-0.065,0.051,0.039,0.034,-0.035,-0.118,0.035,-0.076,0.062,-0.037,0.039,0.042,-0.110,0.003,0.286,0.079,0.044,-0.126,-0.133,-0.211,-0.099,-0.103,-0.543,-0.538,-0.506,-0.128,-0.191,0.079,-0.121,0.083,0.138,0.177,0.178,0.026,-0.146,-0.060,-0.039,-0.200,0.033,-0.054,0.100,0.142,0.100,0.243,0.110,0.053,-0.030,0.129,0.036,-0.166,-0.357,-0.519,-0.348,-0.243,-0.174,-0.043,0.101,0.163,-0.037,0.014,0.002,0.057,-0.017,-0.150,0.097,-0.004,-0.192,0.010,0.090,0.067,0.286,0.360,0.243,0.212,0.116,0.108,0.044,-0.212,-0.208,-0.393,-0.196,0.075,-0.042,0.302,0.170,0.079,0.058,0.206,0.264,0.224,0.023,0.056,0.198,0.080,-0.026,0.212,0.009,0.045,0.260,0.248,0.264,0.385,0.254,0.369,-0.038,-0.193,-0.196,-0.055,-0.134,0.270,0.104,0.221,0.117,0.237,0.093,0.094,0.185,-0.083,-0.089,0.065,-0.096,-0.015,0.039,-0.095,-0.050,0.150,0.220,0.252,0.340,0.281,0.439,0.484,-0.006,-0.167,-0.277,0.045,0.226,0.258,0.199,0.310,0.114,0.130,0.075,0.032,0.082,0.080,-0.035,0.090,-0.198,-0.094,-0.063,0.064,0.177,0.074,0.103,0.303,0.175,0.257,0.199,0.315,-0.048,-0.197,-0.090,0.233,0.131,0.222,0.193,0.106,0.155,0.078,0.309,0.092,0.066,-0.021,-0.016,0.075,-0.001,0.020,-0.027,-0.124,0.117,-0.007,0.037,0.200,0.215,0.282,0.340,0.270,0.106,0.036,-0.103,0.178,0.144,0.125,0.128,0.119,0.188,0.067,0.220,-0.081,-0.044,0.001,0.038,-0.125,-0.021,0.051,0.105,0.067,0.095,0.047,0.120,0.106,0.030,0.196,0.224,0.145,0.011,0.059,-0.206,0.025,0.091,0.127,0.015,0.014,-0.008,-0.133,0.055,-0.045,0.126,0.074,-0.217,-0.120,-0.053,-0.102,0.117,0.062,-0.035,0.038,0.138,0.067,0.041,0.080,0.084,0.240,0.055,-0.020,-0.031,-0.141,0.118,-0.134,-0.007,-0.094,-0.085,-0.013,0.134,0.013,0.146,-0.098,-0.027,0.032,-0.048,-0.082,0.037,-0.032,-0.085,0.082,-0.173,0.111,0.147,-0.002,-0.119,-0.230,0.116,-0.054,-0.012,-0.021,-0.175,-0.006,0.161,0.054,0.008,0.024,0.118,0.012,0.045,-0.052,-0.068,0.125,0.055,-0.060,-0.036,0.156,0.119,-0.174,-0.058,0.055,-0.078,0.060,0.019,-0.136,-0.086,-0.136,-0.186,0.043,-0.117,-0.029,-0.105,-0.042,-0.112,-0.169,0.228,0.014,-0.149,-0.002,0.070,0.020,0.256,-0.092,0.007,-0.018,-0.044,-0.025,0.073,-0.161,-0.033,-0.052,0.021,-0.149,0.003,-0.213,-0.077,-0.183,-0.049,-0.050,-0.180,0.082,-0.116,0.057,0.002,0.165,0.020,-0.094,-0.022,0.036,-0.098,-0.119,-0.083,0.040,0.001,-0.066,-0.054,0.089,-0.011,-0.025,-0.173,-0.136,-0.239,-0.125,-0.173,-0.287,-0.267,-0.231,-0.056,-0.064,-0.033,0.057,-0.060,-0.005,0.004,-0.041,-0.053,-0.031,-0.024,-0.067,0.016,-0.073,-0.011,0.224,-0.011,0.061,-0.006,0.051,0.068,-0.078,-0.110,-0.035,-0.063,0.019,0.143,-0.085,0.000,0.067,-0.071,0.222,0.105,-0.053,0.091,-0.032,-0.069,-0.014,-0.012,0.105,-0.102,-0.151,0.046,0.055,-0.000,0.046,0.172,0.017,0.021,0.095,0.003,0.107,-0.090,-0.019,0.107,-0.132,0.034,0.040,0.015,-0.003,0.095,0.114,-0.229,-0.011,-0.022,-0.120
-0.172,-0.175,-0.040,-0.083,-0.061,0.224,-0.099,0.093,0.033,0.017,0.010,-0.114,0.110,0.076,-0.056,-0.147,0.098,0.073,0.036,-0.101,0.005,-0.185,0.026,-0.009,0.006,0.024,-0.101,-0.081,-0.167,0.027,0.039,-0.103,-0.070,0.035,-0.164,-0.046,-0.037,-0.016,-0.086,-0.076,0.142,-0.078,0.082,-0.062,0.071,0.075,0.128,0.005,0.139,0.010,0.054,-0.007,-0.043,-0.075,-0.095,-0.039,0.085,0.011,0.117,0.076,-0.013,-0.043,0.002,0.064,-0.097,-0.082,-0.087,-0.004,-0.035,0.017,-0.169,-0.090,-0.181,0.164,-0.102,0.169,-0.011,0.014,0.119,0.019,0.154,-0.103,0.205,-0.037,0.050,-0.028,0.047,-0.099,-0.013,0.165,-0.195,0.112,-0.070,-0.025,-0.045,-0.093,-0.041,-0.128,0.065,-0.012,-0.176,0.160,-0.013,0.177,0.078,0.055,0.061,0.036,-0.041,-0.004,0.035,-0.036,-0.001,0.188,-0.026,-0.078,0.033,-0.085,-0.009,-0.031,-0.044,-0.120,-0.193,-0.086,-0.014,-0.062,-0.118,0.171,0.114,0.079,-0.045,-0.052,0.151,0.064,-0.034,0.094,0.130,-0.083,-0.057,-0.005,-0.104,0.030,-0.149,-0.116,-0.058,0.027,0.001,0.006,-0.122,0.043,-0.028,0.057,0.103,-0.025,-0.060,-0.181,-0.130,-0.052,0.104,0.096,-0.164,0.055,0.170,0.146,0.095,0.125,-0.106,0.085,0.037,0.041,0.016,-0.008,-0.077,-0.056,-0.015,-0.014,0.120,0.098,0.244,-0.020,-0.080,-0.256,-0.392,-0.163,-0.248,0.235,0.167,-0.071,0.042,0.112,0.208,0.045,0.113,0.145,0.008,-0.118,0.108,-0.087,-0.064,-0.079,0.115,0.078,-0.068,0.008,0.082,0.168,0.061,0.084,-0.054,-0.305,-0.248,-0.174,0.006,0.111,0.096,0.059,0.162,0.072,-0.014,0.236,0.046,0.084,-0.018,-0.134,0.068,0.036,0.043,-0.096,0.116,0.073,0.024,0.147,0.055,0.143,0.263,0.212,-0.145,-0.359,-0.164,-0.271,0.058,0.021,0.063,0.105,0.004,0.108,0.039,0.293,0.131,0.084,0.087,-0.045,-0.113,0.026,0.148,0.065,-0.118,0.026,0.057,0.017,0.113,0.123,0.317,0.160,-0.106,-0.244,-0.340,-0.359,-0.251,-0.073,-0.080,0.055,-0.165,-0.064,-0.057,0.184,0.076,0.159,0.143,-0.033,0.021,-0.087,0.290,0.038,0.102,-0.009,0.027,0.096,0.182,0.403,0.470,0.356,-0.191,-0.443,-0.512,-0.466,-0.335,-0.102,-0.019,-0.028,-0.123,-0.078,-0.137,-0.070,0.107,0.024,-0.066,-0.013,0.145,-0.033,-0.019,0.023,-0.066,-0.141,0.100,0.119,0.163,0.290,0.435,0.239,-0.048,-0.229,-0.256,-0.427,-0.202,0.101,-0.069,-0.127,-0.050,-0.108,0.049,-0.196,0.033,0.107,-0.002,0.068,-0.075,0.060,-0.089,-0.052,-0.045,0.107,0.064,0.160,0.041,0.048,0.339,0.139,0.157,-0.037,-0.191,-0.256,-0.287,0.086,0.010,0.118,0.041,-0.102,-0.007,0.069,0.112,-0.002,-0.055,0.117,0.099,-0.020,0.223,0.131,0.097,0.219,0.160,0.105,0.097,0.118,0.202,-0.010,0.030,-0.264,-0.459,-0.253,-0.215,0.049,-0.099,0.064,-0.030,-0.017,0.125,-0.095,-0.070,0.028,0.190,-0.074,0.040,-0.158,-0.036,0.009,0.082,-0.062,-0.061,0.006,0.271,0.150,0.051,0.149,0.047,-0.210,-0.386,-0.242,-0.133,-0.141,0.128,-0.070,-0.065,-0.029,-0.052,0.009,0.016,0.039,-0.062,0.110,-0.017,-0.031,0.089,-0.036,0.087,0.131,0.064,-0.137,-0.013,0.128,0.083,-0.172,0.098,-0.425,-0.408,-0.401,-0.178,-0.079,-0.151,-0.177,0.023,-0.160,0.145,-0.050,-0.076,-0.008,-0.149,0.092,-0.004,0.043,-0.139,-0.081,0.045,0.034,-0.085,0.036,0.016,0.120,0.071,-0.173,-0.354,-0.485,-0.357,-0.176,-0.286,0.135,-0.195,0.080,-0.028,0.081,-0.008,0.037,-0.038,-0.045,-0.015,-0.130,-0.050,-0.122,-0.091,-0.117,-0.053,0.066,-0.136,0.017,-0.012,-0.011,-0.136,-0.017,-0.162,-0.334,-0.353,-0.161,-0.156,-0.036,0.122,0.133,0.233,0.145,0.039,0.022,0.035,-0.102,0.001,0.041,-0.139,-0.074,-0.100,-0.092,-0.015,0.146,0.112,0.028,-0.078,-0.166,-0.028,-0.262,-0.190,-0.125,-0.179,-0.006,-0.077,0.132,0.108,0.121,0.003,-0.031,0.050,-0.049,-0.019,-0.094,-0.081,-0.047,0.032,0.014,-0.075,0.057,0.064,0.072,0.023,-0.007,-0.244,-0.121,-0.075,-0.163,-0.222,-0.092,-0.197,-0.086,-0.035,-0.009,0.016,0.050,0.012,0.090,0.001,0.011,-0.002,0.047,-0.089,0.058,0.003,-0.008,-0.168,0.051,0.069,0.151,-0.193,-0.047,0.062,-0.115,-0.048,-0.074,-0.205,-0.125,-0.097,-0.016,-0.021,-0.069,0.216,0.094,-0.066,0.047,-0.019,-0.001,-0.002,-0.057,0.098,0.057,-0.131,0.107,0.103,-0.049,-0.034,0.080,0.139,-0.153,-0.082,-0.083,-0.039,0.109,0.037,-0.070,0.094,0.111,0.040,0.019,0.015,0.031,0.130,0.024,0.052,0.018,0.055,-0.043,-0.012,-0.081,0.084,-0.129,-0.087,0.151,-0.045,0.045,0.081,-0.033,-0.024,-0.166,-0.019,-0.109,-0.041,0.050,0.049,0.003,-0.078,0.045,0.095,-0.007,-0.104,0.041,-0.118,-0.012,-0.098,0.002,-0.045,0.119,-0.055,0.054,-0.025,0.006,-0.115,-0.048,-0.130,0.009,-0.017,0.041,-0.047,0.008,-0.097,0.087,0.091,0.185,0.217,-0.080,0.031,0.008,0.121,0.089,-0.086,-0.020,-0.172,-0.014,0.036,0.063,-0.055,-0.166,0.080,-0.034,0.037,-0.041,-0.074,-0.107,-0.057,-0.088,0.160,-0.013,-0.068,0.069,0.088,0.036,0.155,0.232,0.028,-0.034,-0.090,0.097,-0.193,-0.095,0.088,-0.043,0.008,-0.200,0.085,0.092,-0.027,0.021,0.084,0.041,0.012,-0.037,-0.145,-0.240,0.094,-0.004,-0.032,0.075,0.091,0.035,-0.037,0.024,0.045,0.051,-0.027,-0.044,0.022,-0.039,0.058,0.103,0.114,0.052,0.058,-0.047,0.091,0.040,-0.054,0.080,-0.021,0.013,0.007,-0.042,0.044,0.039,-0.018,-0.107,0.065,-0.046,-0.026,-0.204,-0.032,-0.079,0.146,0.041,0.019,0.013,0.009,0.087,0.011,0.146,0.012,-0.091,0.043,-0.081,-0.081,-0.068,0.053,-0.055,0.013,-0.098,0.051,0.102,0.019,-0.185,-0.011,0.026,0.007,0.052,-0.155,-0.011,-0.047,0.010,-0.005,0.163,-0.123,0.001,0.077,-0.017
0.033,-0.002,0.012,0.182,-0.002,-0.004,-0.139,0.012,-0.115,-0.183,0.040,-0.001,0.066,0.011,-0.026,0.062,0.034,-0.002,-0.065,-0.059,0.208,0.070,0.024,0.133,0.104,-0.044,0.062,0.035,-0.030,0.018,-0.141,0.017,-0.088,0.054,-0.119,-0.020,0.070,0.053,-0.011,-0.075,0.039,0.081,0.013,0.128,0.199,0.143,0.141,0.030,0.142,-0.049,-0.027,0.043,-0.015,0.005,-0.091,-0.087,-0.066,-0.011,0.078,-0.090,-0.101,0.110,-0.081,0.015,0.030,0.066,0.031,-0.110,0.052,-0.033,-0.018,0.037,0.029,0.131,-0.016,-0.050,-0.045,-0.012,0.039,0.258,-0.168,-0.049,-0.116,-0.030,-0.004,0.014,0.035,-0.034,-0.167,0.039,0.096,-0.077,-0.151,-0.056,-0.062,-0.119,-0.130,0.014,-0.080,0.092,0.062,-0.080,0.140,-0.004,0.099,0.067,-0.056,0.004,0.043,0.000,0.145,0.040,-0.084,0.051,-0.054,-0.021,-0.045,0.102,0.015,0.049,0.050,-0.053,-0.063,-0.085,-0.105,-0.102,-0.101,-0.095,-0.078,-0.070,-0.026,0.091,-0.030,0.132,0.129,0.038,-0.116,-0.045,0.093,0.044,0.048,-0.018,0.013,-0.072,-0.097,-0.035,-0.006,-0.077,0.005,-0.028,-0.099,-0.075,0.044,-0.132,-0.035,-0.054,-0.072,0.023,-0.057,-0.029,0.084,0.036,0.132,0.094,0.005,0.002,0.109,0.052,-0.022,-0.025,0.012,-0.193,-0.128,-0.179,-0.043,0.001,-0.052,0.028,-0.071,-0.119,-0.039,-0.049,-0.144,-0.106,-0.032,0.047,-0.105,-0.028,0.091,-0.047,0.026,-0.004,-0.032,-0.037,-0.109,0.077,0.028,-0.015,0.087,0.035,0.073,-0.089,0.026,-0.061,0.031,0.018,-0.005,0.038,-0.121,0.087,0.029,0.165,0.177,0.140,0.260,0.051,-0.120,-0.046,-0.046,-0.098,-0.059,0.011,-0.065,0.036,-0.010,-0.004,0.145,0.088,-0.016,-0.157,-0.063,-0.144,-0.018,0.022,0.016,0.012,-0.063,0.062,-0.051,0.016,0.121,0.129,-0.029,0.223,0.023,0.153,0.077,0.093,0.113,0.155,0.045,-0.055,-0.025,-0.135,0.014,0.170,-0.061,-0.091,0.052,0.018,-0.026,0.005,-0.048,-0.061,0.060,0.034,0.202,0.053,0.054,0.161,0.110,0.069,0.073,0.075,0.087,-0.111,-0.028,-0.103,0.021,-0.115,0.110,0.008,-0.158,0.009,0.117,-0.033,0.124,-0.018,-0.078,-0.191,0.023,0.022,-0.141,-0.152,-0.094,0.023,-0.099,0.035,-0.048,0.080,0.033,0.020,0.115,0.053,-0.032,-0.016,0.010,0.184,-0.028,-0.121,-0.049,0.072,0.005,0.065,-0.018,0.245,-0.112,0.018,0.032,-0.002,-0.131,0.053,0.165,-0.007,-0.119,-0.071,0.086,-0.016,0.041,-0.100,0.108,0.074,0.053,-0.009,0.054,-0.011,0.043,0.038,-0.097,-0.032,0.128,0.059,0.048,0.139,-0.110,0.091,0.057,-0.082,-0.131,0.005,-0.008,-0.105,-0.197,-0.199,-0.025,0.045,0.036,0.166,0.008,0.187,0.069,-0.027,-0.022,0.021,0.081,0.162,0.043,0.154,0.040,0.301,0.221,-0.088,-0.161,-0.050,0.124,-0.032,-0.135,-0.223,-0.110,-0.205,-0.259,-0.060,0.057,0.095,0.081,0.000,0.031,0.088,0.058,-0.092,-0.166,-0.076,0.034,-0.039,-0.169,0.022,-0.092,0.211,0.090,0.126,-0.051,-0.037,0.066,-0.062,-0.348,-0.093,-0.002,0.008,-0.139,-0.051,-0.127,-0.021,0.114,0.145,0.205,0.034,-0.026,-0.063,-0.021,-0.060,0.076,0.092,-0.031,0.042,-0.102,0.001,0.054,0.062,0.348,0.031,0.125,-0.019,-0.145,-0.061,-0.034,-0.168,-0.245,-0.011,-0.106,-0.094,0.077,0.101,0.093,-0.051,0.095,-0.038,-0.065,0.018,0.020,0.091,-0.035,-0.172,-0.265,-0.021,0.094,0.114,0.131,0.071,0.082,0.010,-0.111,-0.185,-0.105,-0.056,-0.110,-0.049,-0.120,0.131,0.062,0.005,-0.132,0.028,-0.192,-0.171,-0.008,0.006,-0.009,-0.105,-0.074,-0.218,0.037,0.033,0.066,-0.098,-0.065,0.161,0.140,-0.004,-0.032,-0.017,-0.057,0.053,-0.197,-0.105,-0.116,-0.045,0.032,0.031,-0.001,-0.143,-0.141,-0.041,0.111,0.019,-0.024,0.099,-0.155,-0.206,-0.094,-0.079,0.035,0.181,0.117,0.052,0.120,0.146,0.064,-0.071,0.153,-0.076,-0.071,-0.216,-0.219,-0.202,0.051,-0.035,0.028,-0.007,-0.070,-0.017,0.001,-0.034,-0.062,-0.099,-0.121,-0.084,-0.084,0.044,0.082,-0.056,0.044,-0.057,0.149,-0.008,0.055,0.067,0.160,-0.102,-0.178,-0.040,0.007,-0.144,-0.030,-0.064,-0.047,-0.132,-0.105,-0.036,0.000,-0.016,-0.039,0.148,-0.017,-0.052,-0.195,-0.156,0.052,-0.184,0.042,0.075,0.157,0.052,0.039,0.152,0.129,0.032,-0.184,-0.241,-0.240,-0.080,-0.020,-0.011,0.074,-0.183,-0.059,-0.056,0.090,0.175,-0.079,-0.199,-0.036,0.032,-0.128,-0.061,-0.006,0.070,0.007,-0.107,0.012,0.079,0.120,0.058,0.056,0.008,-0.213,-0.183,-0.300,-0.254,-0.116,0.008,-0.095,-0.037,-0.121,0.062,-0.082,0.148,0.116,-0.039,-0.052,-0.111,0.002,-0.067,0.003,0.001,-0.039,-0.045,-0.026,-0.147,-0.042,-0.063,0.090,-0.077,-0.108,-0.330,-0.007,-0.157,-0.134,-0.200,-0.094,0.059,-0.105,-0.115,0.134,-0.008,0.036,-0.104,-0.075,0.006,-0.034,0.103,-0.090,0.081,0.008,0.047,0.057,0.194,0.056,-0.018,-0.066,-0.110,-0.141,-0.237,-0.187,-0.209,0.024,-0.085,0.074,0.017,-0.112,0.131,0.158,-0.195,0.050,0.091,0.027,0.146,0.087,0.084,0.062,0.154,0.054,0.072,-0.005,-0.063,0.041,0.028,0.024,-0.120,-0.001,-0.241,-0.189,-0.155,-0.037,0.086,-0.027,-0.067,-0.018,-0.135,0.006,0.080,-0.016,0.031,-0.046,0.195,0.081,-0.004,0.115,0.076,-0.161,0.189,0.058,0.206,-0.027,-0.003,0.046,0.045,0.047,-0.062,-0.078,-0.033,-0.056,-0.034,-0.084,-0.043,-0.215,-0.025,0.020,-0.002,-0.092,0.001,0.151,-0.042,0.147,0.016,0.048,-0.095,-0.041,0.101,0.094,0.024,-0.140,0.039,0.023,0.037,-0.038,0.005,-0.049,-0.007,0.031,0.138,-0.057,0.070,0.063,0.158,0.084,-0.014,0.039,-0.002,-0.058,0.008,-0.128,-0.108,-0.013,-0.143,-0.014,-0.166,-0.084,-0.081,0.216,-0.039,-0.065,0.007,-0.040,0.051,0.188,0.145,-0.027,-0.020,0.054,0.004,-0.104,0.200,0.003,-0.050
-0.147,0.127,0.025,-0.063,0.060,0.069,-0.010,0.127,-0.053,0.053,-0.113,0.008,-0.106,-0.014,-0.004,0.000,-0.090,0.010,-0.085,-0.072,0.086,0.032,-0.016,-0.108,0.035,-0.135,-0.012,-0.010,-0.044,-0.041,-0.018,-0.035,0.076,-0.091,-0.074,0.112,-0.045,-0.109,-0.063,-0.060,0.064,-0.009,-0.012,0.119,-0.085,-0.044,0.046,-0.029,-0.116,0.038,-0.031,0.096,-0.140,0.016,-0.015,0.051,0.063,-0.122,0.092,-0.076,0.090,0.059,-0.028,0.047,0.127,-0.005,-0.087,-0.052,-0.007,0.055,-0.086,0.126,0.111,0.163,0.006,-0.023,0.010,-0.161,0.041,-0.243,0.038,-0.060,-0.066,0.090,0.076,0.030,-0.042,-0.072,0.059,0.044,-0.058,-0.024,0.077,-0.091,-0.040,0.047,-0.005,-0.130,0.012,0.269,0.014,0.041,-0.060,-0.036,0.120,0.140,0.001,0.100,0.021,-0.049,0.065,-0.038,0.037,0.028,0.142,-0.010,0.029,0.047,-0.028,-0.063,-0.074,-0.037,0.002,-0.057,-0.154,-0.111,-0.072,0.017,-0.139,-0.119,0.106,0.108,0.103,0.044,0.295,-0.185,0.057,-0.013,0.042,0.064,-0.016,0.125,0.171,-0.015,0.033,0.067,0.056,-0.105,-0.065,0.009,-0.037,-0.115,-0.170,-0.016,-0.060,-0.148,0.072,-0.034,0.237,0.040,0.158,0.079,0.152,0.054,0.044,0.059,0.067,-0.017,0.081,-0.077,-0.041,0.043,-0.015,0.081,0.016,0.073,-0.066,-0.052,-0.235,-0.426,-0.239,-0.304,-0.266,-0.101,0.123,-0.084,0.140,0.121,0.022,0.017,0.069,0.077,0.008,-0.008,-0.011,-0.043,0.089,-0.117,-0.025,-0.088,-0.042,0.223,0.195,0.131,0.038,-0.139,-0.241,-0.371,-0.464,-0.525,-0.249,-0.077,-0.017,0.112,0.051,-0.021,-0.192,-0.041,0.006,0.169,0.096,0.085,0.050,0.004,0.020,0.089,-0.123,0.089,0.101,0.058,0.052,0.147,-0.008,-0.202,0.013,0.001,-0.061,-0.346,-0.271,-0.059,-0.063,-0.062,-0.173,-0.146,-0.032,-0.164,-0.138,0.112,0.214,-0.043,0.155,-0.061,0.104,-0.010,0.012,0.025,0.045,-0.056,0.117,0.199,0.118,0.006,0.047,0.096,-0.003,-0.071,-0.115,-0.260,0.017,-0.206,-0.092,-0.433,-0.195,-0.134,-0.083,-0.114,-0.012,-0.027,0.147,-0.022,-0.059,-0.171,-0.009,-0.020,0.066,0.017,0.036,0.100,0.180,0.159,0.200,0.123,0.012,0.049,-0.117,-0.050,0.091,-0.143,-0.129,-0.143,-0.242,-0.157,-0.188,-0.116,-0.105,0.112,0.104,-0.078,0.021,0.072,-0.007,0.119,0.036,0.084,-0.001,0.261,0.200,0.207,0.187,0.251,0.102,-0.260,-0.213,-0.065,-0.146,-0.175,-0.260,-0.219,0.071,-0.063,-0.070,-0.159,-0.037,-0.060,-0.092,-0.039,-0.013,0.077,0.021,0.094,-0.090,0.096,0.083,0.073,0.220,0.146,0.195,0.125,0.076,-0.199,-0.072,-0.118,-0.045,0.036,0.012,-0.103,0.030,-0.255,0.017,-0.117,-0.082,0.128,0.050,-0.148,0.031,-0.068,0.119,0.030,0.003,0.062,-0.016,0.145,0.137,0.170,0.110,0.008,-0.268,-0.263,-0.495,-0.074,0.106,0.022,0.094,0.141,-0.142,0.092,-0.042,-0.028,-0.031,0.186,-0.074,-0.177,0.046,-0.090,0.101,0.022,-0.010,0.128,0.020,0.007,0.177,0.013,0.145,-0.027,-0.262,-0.213,-0.029,-0.138,-0.047,0.109,0.106,0.166,0.015,0.058,0.095,0.096,-0.114,-0.224,-0.126,0.047,-0.187,-0.013,-0.020,-0.125,-0.086,0.145,0.114,0.137,-0.033,0.141,-0.094,-0.260,-0.356,-0.340,-0.005,-0.044,0.012,0.015,0.008,-0.008,-0.081,0.072,-0.099,-0.125,-0.168,0.165,-0.112,0.103,-0.022,-0.123,0.097,-0.091,-0.047,-0.090,0.120,0.077,0.015,0.059,-0.259,-0.517,-0.413,-0.181,0.098,0.085,0.168,0.005,-0.055,0.123,-0.009,0.216,0.009,-0.049,-0.007,0.091,0.129,-0.122,0.065,-0.111,0.185,-0.121,-0.149,-0.225,0.049,0.135,0.005,0.089,-0.333,-0.434,-0.447,-0.117,0.228,0.276,0.049,-0.065,0.165,-0.023,0.140,0.030,-0.147,-0.072,0.012,-0.038,-0.185,-0.098,-0.009,0.064,-0.030,-0.130,0.110,-0.037,-0.067,-0.078,-0.021,-0.156,-0.430,-0.427,-0.534,0.075,0.393,0.316,0.134,0.124,-0.054,0.042,0.142,0.117,-0.113,-0.142,-0.090,-0.025,0.016,0.039,0.008,0.040,0.022,-0.071,-0.048,-0.115,-0.073,-0.189,-0.082,-0.309,-0.394,-0.549,-0.318,0.027,0.360,0.261,0.185,0.137,-0.008,0.139,-0.009,-0.083,-0.058,-0.238,-0.047,0.032,-0.044,-0.003,-0.000,0.161,0.060,-0.020,-0.036,-0.233,-0.166,-0.096,-0.283,-0.157,-0.161,-0.270,-0.187,0.119,0.282,0.186,0.098,0.146,0.194,0.293,-0.061,0.020,0.089,-0.160,-0.126,-0.212,0.052,0.071,-0.073,0.060,-0.198,-0.176,-0.074,0.001,-0.281,-0.199,-0.177,-0.179,-0.173,-0.078,-0.258,0.200,0.284,0.294,0.215,0.263,0.101,0.147,0.058,0.096,-0.097,-0.031,-0.060,0.056,0.084,0.167,0.054,-0.077,0.031,0.024,0.004,-0.042,-0.111,-0.051,-0.073,-0.244,-0.372,-0.217,-0.388,-0.100,-0.023,0.073,0.208,0.062,0.126,0.069,-0.014,-0.055,-0.004,0.034,-0.124,-0.108,-0.044,-0.010,-0.039,-0.072,-0.128,0.083,-0.032,-0.036,-0.037,-0.010,-0.123,-0.106,-0.318,-0.147,-0.266,-0.122,-0.071,0.033,0.125,0.296,0.347,0.197,0.134,0.112,-0.030,-0.102,0.033,-0.196,-0.039,0.038,-0.041,0.126,0.089,0.003,0.012,-0.046,-0.224,-0.190,-0.182,-0.071,-0.032,-0.071,-0.178,-0.115,-0.168,0.030,0.090,0.043,0.217,0.086,-0.043,-0.154,-0.007,-0.068,0.041,-0.105,-0.105,-0.032,-0.147,-0.061,0.130,-0.004,-0.177,-0.073,0.000,-0.003,0.076,0.031,0.044,-0.216,-0.105,-0.074,-0.048,0.085,0.054,-0.049,-0.031,0.020,0.006,-0.014,0.028,-0.044,-0.001,-0.113,0.030,0.109,0.038,-0.091,0.109,0.179,0.008,-0.035,-0.131,0.080,0.030,-0.015,0.001,0.009,-0.105,-0.057,-0.101,-0.237,-0.195,-0.036,-0.197,-0.076,-0.151,-0.107,0.076,-0.091,-0.107,-0.046,-0.051,-0.094,0.087,0.081,-0.143,0.013,-0.031,-0.067,0.028,0.011,0.099,-0.011,0.176,0.104,0.011,0.075,-0.050,0.125,-0.046,-0.056,0.004,-0.126,-0.214,-0.025,-0.019,-0.096,-0.134,0.041,0.033,0.073
-0.029,-0.035,0.068,0.016,-0.125,0.030,-0.028,0.081,-0.036,0.126,-0.056,-0.034,0.115,0.086,-0.018,-0.133,-0.075,-0.095,-0.098,0.028,-0.019,-0.064,-0.064,0.152,0.097,0.045,-0.021,-0.022,-0.123,0.033,0.106,-0.034,0.049,0.049,0.001,-0.003,-0.003,-0.026,-0.019,-0.026,0.226,0.061,0.024,-0.163,0.012,0.055,-0.188,-0.055,0.113,0.173,0.130,-0.018,0.081,-0.160,0.079,-0.005,-0.015,-0.158,-0.061,0.025,-0.022,-0.043,0.198,0.030,-0.024,0.120,0.049,-0.051,0.070,-0.086,0.121,0.108,0.270,0.063,0.039,-0.032,0.024,-0.054,-0.108,0.126,-0.024,0.072,-0.033,0.156,-0.082,0.077,0.100,-0.037,0.033,-0.033,0.138,0.182,-0.105,-0.033,-0.223,0.069,-0.027,0.003,-0.124,-0.136,0.086,0.024,-0.032,0.091,0.117,0.037,0.116,0.031,-0.001,0.074,-0.061,-0.072,-0.015,-0.002,0.023,0.021,0.160,0.087,-0.107,0.041,-0.035,-0.037,-0.014,0.056,0.058,-0.055,0.031,0.087,0.042,0.076,-0.110,-0.016,0.043,0.214,0.041,0.206,-0.108,0.078,-0.038,-0.152,-0.009,0.033,-0.154,0.030,0.048,-0.211,-0.115,-0.009,-0.019,-0.004,-0.124,-0.011,-0.154,-0.037,-0.119,0.043,0.004,0.213,0.136,-0.078,0.115,0.029,0.234,0.034,0.201,0.153,0.019,0.042,-0.036,-0.098,0.037,-0.014,-0.056,-0.102,-0.050,0.073,-0.004,0.081,0.006,0.001,-0.086,-0.270,-0.104,0.071,0.024,0.074,0.055,0.203,0.208,0.065,-0.044,0.002,0.128,-0.004,-0.009,0.081,0.083,0.045,0.123,-0.203,0.142,-0.109,0.086,0.056,0.038,0.031,-0.055,-0.318,-0.330,-0.188,-0.050,-0.071,0.059,0.136,0.123,0.053,-0.003,0.034,0.016,-0.117,0.093,0.060,0.060,0.006,-0.030,-0.066,0.176,0.055,-0.007,-0.122,0.084,-0.099,0.078,-0.074,-0.072,-0.170,-0.269,-0.243,0.013,-0.006,0.227,0.163,-0.012,-0.044,0.006,-0.132,-0.044,-0.113,0.200,0.115,0.106,0.091,-0.121,0.186,0.021,0.007,-0.007,-0.031,-0.007,-0.022,-0.048,0.107,0.044,-0.159,-0.275,-0.428,-0.324,-0.201,-0.163,-0.162,-0.347,-0.478,-0.311,-0.249,-0.232,-0.186,0.022,0.035,0.012,0.128,-0.016,-0.082,0.019,-0.055,-0.061,-0.049,0.022,-0.133,-0.091,0.031,0.037,-0.023,-0.193,-0.266,-0.433,-0.193,-0.088,-0.351,-0.215,-0.390,-0.224,-0.322,-0.276,-0.163,-0.064,0.053,0.097,-0.085,-0.208,0.107,-0.096,-0.018,-0.064,-0.041,0.098,0.036,-0.114,0.001,0.102,0.065,-0.015,-0.143,-0.158,0.075,-0.232,-0.099,-0.188,-0.236,-0.313,-0.304,-0.051,-0.161,-0.073,0.048,-0.080,-0.006,0.101,-0.058,0.078,0.152,0.028,-0.024,0.067,0.116,0.087,0.062,0.169,-0.046,0.068,0.025,-0.127,0.016,-0.092,-0.117,-0.075,-0.121,0.121,-0.065,-0.102,-0.066,-0.263,-0.182,-0.007,-0.087,-0.006,0.017,-0.049,0.038,0.081,0.214,0.064,0.024,0.020,-0.112,-0.089,0.107,0.106,-0.047,-0.156,0.021,-0.104,-0.007,-0.055,0.036,-0.035,-0.005,0.126,0.126,-0.098,-0.060,0.079,0.074,-0.078,-0.063,-0.076,-0.022,0.182,0.025,0.107,0.257,0.201,0.153,0.023,0.062,0.196,-0.106,-0.120,-0.102,0.013,0.049,0.119,0.128,0.039,0.103,-0.026,0.073,0.061,0.064,-0.071,0.120,-0.062,0.077,0.037,0.001,-0.071,0.088,0.124,0.058,0.234,0.102,0.289,0.129,0.343,0.130,-0.102,0.194,0.048,-0.005,0.022,-0.015,-0.113,0.014,0.101,0.156,0.029,-0.130,-0.044,0.061,-0.118,0.027,-0.100,-0.099,-0.026,-0.030,-0.099,-0.005,0.092,0.388,0.140,0.209,0.221,0.204,0.132,0.081,-0.273,-0.125,0.012,-0.101,-0.069,0.003,0.075,0.149,0.081,-0.094,0.027,0.049,0.060,0.124,0.204,-0.020,-0.150,-0.257,-0.312,-0.160,-0.101,-0.052,0.103,-0.052,0.112,-0.014,-0.053,-0.058,-0.050,-0.157,-0.001,-0.033,0.092,0.137,0.053,0.137,0.146,-0.265,0.028,0.112,0.038,0.053,0.018,-0.141,-0.008,-0.137,-0.364,-0.271,-0.216,-0.314,-0.110,-0.142,-0.044,-0.116,-0.296,-0.151,-0.143,-0.174,0.169,-0.127,0.071,-0.002,-0.062,0.022,-0.033,0.038,-0.136,-0.033,0.079,0.041,-0.018,0.018,0.074,-0.235,-0.217,-0.243,-0.326,-0.346,-0.359,-0.456,-0.339,-0.255,-0.242,-0.064,0.099,-0.097,-0.083,0.035,0.067,0.092,0.099,0.004,0.030,-0.027,0.002,0.135,-0.175,0.000,-0.071,0.128,-0.012,-0.065,-0.146,-0.202,-0.267,-0.226,-0.408,-0.289,-0.103,-0.174,-0.149,0.067,-0.071,0.079,0.135,0.036,0.083,0.095,0.006,0.064,-0.070,0.012,0.100,0.122,-0.084,-0.010,-0.091,-0.055,0.047,-0.065,0.065,-0.074,-0.100,-0.003,-0.030,-0.104,-0.036,0.020,0.005,0.124,0.041,0.067,0.031,-0.030,0.066,0.161,0.003,0.121,-0.028,-0.074,0.188,0.001,0.076,0.190,0.076,-0.002,0.074,0.008,0.067,0.228,0.104,-0.100,-0.192,0.081,-0.158,0.121,0.000,0.019,0.086,-0.043,0.108,0.169,-0.001,0.159,-0.015,0.143,-0.085,-0.080,-0.003,-0.149,0.070,-0.066,-0.003,-0.088,0.095,0.016,0.033,0.033,0.075,0.145,0.158,0.122,0.053,0.070,0.198,0.025,0.197,0.131,-0.149,0.100,-0.002,-0.062,0.042,-0.011,0.102,-0.004,-0.120,0.009,0.115,-0.136,-0.074,0.103,0.107,-0.124,0.023,0.014,0.037,0.196,-0.070,0.072,0.202,0.098,0.054,-0.017,0.123,0.142,0.070,0.136,0.137,0.010,-0.042,-0.046,0.052,0.059,0.064,-0.008,-0.012,-0.065,0.006,-0.040,0.053,-0.093,-0.014,0.099,0.081,-0.046,0.127,0.216,-0.076,0.073,0.070,0.158,-0.029,-0.030,-0.027,-0.190,-0.077,-0.074,-0.012,0.023,-0.164,0.020,0.098,-0.064,-0.012,-0.113,0.060,-0.035,0.028,-0.073,-0.045,-0.025,-0.052,-0.062,0.026,-0.055,-0.036,-0.076,-0.174,-0.052,-0.253,-0.110,-0.066,-0.121,0.305,0.029,0.014,0.043,-0.193,-0.062,0.075,0.016,-0.070,-0.123,0.085,-0.195,-0.198,0.226,-0.074,-0.031,-0.080,-0.132,-0.001,0.034,0.015,-0.035,-0.135,-0.079,-0.085,0.019,-0.034,-0.150,0.050,-0.041,-0.152,-0.105,0.028,0.007,0.021,0.002
0.328,0.035,-0.009,-0.133,-0.078,0.129,-0.043,-0.219,0.255,0.084,0.004,-0.042,0.066,0.087,0.034,0.045,-0.030,-0.037,0.098,0.022,-0.115,0.023,0.029,0.128,0.022,-0.005,-0.115,0.065,0.034,-0.020,0.024,0.009,0.032,-0.017,-0.032,0.118,-0.055,-0.038,-0.028,-0.031,-0.027,0.003,0.089,-0.027,0.085,0.053,-0.089,0.037,0.014,-0.155,-0.050,-0.094,-0.089,-0.063,-0.028,0.014,-0.019,-0.103,0.020,-0.097,0.040,0.044,0.092,0.075,0.064,-0.025,-0.089,-0.031,-0.022,0.130,0.018,0.151,-0.064,-0.039,-0.104,0.243,-0.092,-0.096,0.066,0.044,0.055,-0.029,-0.056,-0.075,-0.143,-0.022,-0.106,-0.075,-0.203,0.054,-0.073,-0.024,-0.028,-0.033,0.084,0.110,-0.063,0.105,0.223,0.117,0.286,0.157,-0.043,-0.019,0.054,0.161,0.124,-0.084,-0.036,-0.176,-0.044,-0.136,0.018,0.044,0.099,-0.076,0.007,0.012,0.007,-0.009,0.070,0.020,-0.019,-0.009,-0.031,-0.048,0.008,-0.106,-0.014,0.004,-0.014,0.027,0.014,-0.182,0.055,-0.007,-0.215,0.086,-0.069,0.027,-0.085,0.059,0.083,0.059,-0.030,0.029,0.003,0.239,0.069,0.157,0.017,-0.035,0.025,-0.123,-0.296,-0.113,-0.086,-0.107,-0.072,-0.073,0.076,0.038,0.172,0.060,-0.086,0.055,0.174,-0.038,-0.073,-0.066,0.153,-0.051,-0.136,0.115,0.073,-0.065,0.107,0.020,-0.129,0.059,-0.042,0.015,0.093,0.084,0.091,-0.026,0.031,-0.064,-0.060,-0.060,-0.037,-0.012,0.136,-0.165,0.034,0.066,0.022,0.025,0.046,-0.071,-0.022,-0.004,0.002,0.082,0.027,0.054,-0.134,0.097,-0.072,-0.037,0.067,-0.123,0.058,0.066,-0.022,0.069,-0.040,-0.031,0.022,0.106,0.099,-0.037,0.048,-0.082,0.154,-0.025,0.068,-0.052,0.089,-0.029,0.102,0.001,0.014,-0.049,-0.081,-0.087,0.010,-0.013,-0.143,0.045,0.129,-0.058,-0.138,-0.096,-0.097,0.077,0.101,0.207,-0.074,0.039,-0.072,-0.107,-0.041,-0.045,0.110,-0.047,-0.099,-0.012,0.169,-0.110,-0.008,-0.060,-0.062,0.048,0.025,-0.012,-0.093,-0.035,0.019,-0.022,0.029,0.004,-0.026,-0.153,-0.006,0.102,0.143,-0.163,0.035,0.020,-0.149,0.117,0.047,0.035,0.058,-0.078,0.098,-0.092,-0.109,0.017,-0.000,0.163,0.042,0.063,0.016,0.222,0.112,0.137,0.060,0.060,-0.080,0.091,-0.019,0.140,0.072,0.063,0.048,0.062,0.245,-0.077,0.079,-0.091,-0.132,0.350,0.153,0.005,0.052,-0.063,0.113,-0.022,-0.158,-0.090,-0.204,-0.137,0.220,0.191,-0.022,-0.080,-0.120,0.066,-0.248,0.089,0.229,0.109,-0.163,0.124,-0.092,0.055,0.052,0.158,0.023,0.125,0.001,0.043,-0.131,-0.189,0.046,-0.164,-0.381,-0.402,-0.324,-0.408,0.045,-0.094,-0.051,0.017,-0.065,0.070,0.169,0.004,0.117,0.048,0.025,-0.281,0.085,0.222,0.054,-0.037,0.203,0.108,0.047,0.155,-0.165,-0.065,0.005,-0.107,-0.198,-0.334,-0.322,-0.442,-0.182,-0.051,-0.162,-0.069,-0.040,0.108,0.097,0.253,0.062,-0.046,0.185,0.038,-0.108,0.100,0.110,0.256,0.174,0.121,0.337,0.034,0.205,-0.056,-0.080,-0.141,-0.234,-0.333,-0.587,-0.341,-0.338,-0.240,0.083,-0.043,0.089,0.003,0.127,0.098,0.059,0.068,-0.058,-0.132,-0.210,0.058,0.149,-0.006,0.052,0.281,0.377,0.343,0.192,0.069,-0.032,-0.090,-0.473,-0.335,-0.372,-0.288,-0.255,0.101,0.142,0.209,0.320,0.210,0.220,0.240,0.052,0.020,0.014,-0.080,0.036,-0.054,-0.065,-0.093,0.129,0.277,0.465,0.369,0.395,0.328,0.270,0.015,-0.055,-0.345,-0.176,0.157,0.115,0.129,0.269,0.308,0.233,0.072,0.078,0.139,-0.014,-0.040,0.114,-0.166,0.003,-0.190,-0.119,-0.188,0.222,0.032,0.304,0.177,0.273,0.537,0.561,0.366,0.200,0.040,0.115,0.175,0.218,0.158,0.210,0.118,0.026,0.115,0.071,0.049,0.118,0.083,0.013,0.028,0.078,-0.037,0.117,-0.010,-0.119,0.128,0.160,0.048,0.246,0.430,0.402,0.526,0.468,0.284,0.183,0.204,0.051,0.102,0.084,0.003,0.066,0.112,-0.051,0.157,0.144,-0.079,0.185,0.015,0.050,-0.117,-0.101,-0.172,-0.006,-0.122,-0.050,0.146,0.142,0.161,0.176,0.345,0.386,0.441,0.144,0.169,0.074,0.131,-0.046,0.107,0.128,-0.186,0.066,0.000,0.143,0.190,-0.098,-0.049,0.025,0.029,-0.056,-0.047,-0.027,-0.132,-0.042,0.096,0.082,0.042,0.146,0.075,0.151,0.125,0.101,0.080,0.092,0.014,-0.090,0.014,0.009,-0.070,-0.018,0.016,0.068,0.101,-0.053,-0.089,-0.023,-0.100,0.088,0.011,-0.129,-0.263,0.073,-0.241,0.020,-0.277,-0.047,-0.015,0.186,-0.043,0.191,-0.061,-0.039,-0.006,0.076,-0.168,-0.028,0.062,0.125,0.188,0.213,0.053,0.011,-0.080,0.091,-0.102,0.013,-0.211,0.120,-0.051,-0.033,-0.132,-0.090,-0.085,-0.148,-0.066,-0.066,0.002,0.075,0.058,-0.034,-0.042,-0.012,-0.195,0.041,0.015,0.041,0.118,0.012,0.028,-0.007,0.064,-0.042,-0.037,-0.002,0.063,0.073,0.091,-0.052,0.044,-0.205,-0.066,-0.016,-0.186,-0.149,-0.069,-0.241,-0.184,-0.171,-0.146,-0.144,0.175,0.174,0.052,0.070,0.209,0.199,-0.137,-0.060,0.082,0.076,0.051,-0.015,-0.123,0.137,0.088,0.200,-0.073,0.201,-0.088,0.027,-0.145,-0.074,-0.099,-0.095,0.071,-0.048,0.101,0.017,0.047,0.048,0.190,0.136,0.010,0.136,-0.038,-0.210,0.031,-0.086,0.064,0.072,-0.012,-0.071,0.032,-0.223,0.003,-0.035,-0.052,-0.114,0.011,0.127,-0.003,-0.021,0.083,0.114,0.072,0.243,0.093,-0.003,0.119,0.079,-0.064,-0.028,0.131,0.134,-0.136,0.013,0.059,0.004,-0.090,0.171,-0.004,0.029,0.107,-0.098,-0.015,0.208,-0.129,0.022,-0.024,0.033,0.120,-0.088,-0.004,0.101,-0.044,-0.023,0.033,-0.086,0.024,-0.077,-0.001,-0.094,-0.067,0.140,0.001,-0.057,-0.016,0.009,0.095,-0.206,-0.009,0.014,0.009,-0.152,0.142,0.066,0.039,0.061,-0.155,0.003,0.087,0.060,0.115,0.060,-0.042,-0.181,-0.139,0.039,0.072,-0.090,0.158
0.009,0.008,-0.052,0.121,0.085,0.141,-0.197,0.032,-0.051,-0.005,0.105,-0.085,-0.011,0.027,0.051,0.081,0.087,-0.042,-0.178,0.032,0.045,-0.073,-0.054,0.133,0.058,-0.065,-0.010,-0.143,-0.031,-0.072,0.102,0.048,-0.045,-0.161,0.030,0.057,0.047,0.201,-0.028,-0.123,0.098,0.037,-0.006,0.033,0.091,0.071,-0.018,0.129,0.088,-0.080,0.022,-0.055,-0.009,-0.132,-0.087,-0.108,-0.000,0.030,-0.036,-0.003,0.047,0.058,0.121,0.082,0.078,-0.003,-0.020,-0.059,0.151,0.109,0.119,-0.000,0.100,0.101,-0.081,-0.000,0.075,-0.130,-0.047,0.003,-0.169,-0.093,0.069,-0.059,-0.055,-0.124,-0.006,-0.078,0.002,0.022,-0.147,0.076,0.028,0.137,0.170,0.137,0.210,0.123,0.153,0.090,0.050,0.082,-0.080,0.018,0.072,-0.020,0.093,-0.013,0.074,-0.034,-0.086,0.004,-0.075,-0.023,0.145,0.019,0.165,-0.016,-0.048,-0.016,0.056,0.195,-0.007,0.214,-0.102,0.055,0.026,0.089,0.045,0.106,-0.059,-0.113,-0.068,0.058,-0.110,-0.056,0.012,0.034,0.098,-0.045,-0.072,0.054,0.198,-0.120,0.066,0.161,-0.026,-0.061,0.062,-0.102,-0.141,-0.179,-0.039,0.347,0.156,0.262,0.088,0.111,-0.089,-0.211,-0.182,-0.076,-0.083,-0.231,0.089,-0.056,-0.029,0.020,-0.199,0.049,-0.004,-0.144,0.024,-0.007,0.122,-0.099,-0.054,-0.250,0.018,-0.071,0.084,0.228,0.490,0.366,0.186,0.094,-0.031,-0.098,-0.088,-0.124,-0.222,-0.031,0.209,-0.048,-0.017,-0.195,0.005,0.043,-0.121,-0.091,-0.120,-0.066,0.037,-0.091,-0.042,-0.128,0.047,-0.109,0.151,0.296,0.428,0.257,0.185,-0.128,-0.059,-0.112,-0.170,-0.220,-0.017,-0.091,-0.051,-0.135,0.077,-0.161,0.161,0.037,0.025,-0.002,-0.108,0.059,-0.071,-0.089,-0.090,0.028,-0.124,-0.044,-0.132,0.318,0.479,0.269,0.067,-0.121,-0.273,-0.133,-0.024,-0.225,-0.001,-0.180,-0.037,-0.118,-0.129,0.223,-0.057,0.283,0.141,-0.038,-0.169,-0.020,-0.049,-0.015,0.135,0.109,0.046,0.009,0.087,0.398,0.460,0.299,0.006,-0.187,-0.129,-0.199,-0.074,-0.017,0.107,0.047,-0.127,-0.065,-0.036,-0.123,-0.063,0.055,-0.077,-0.103,-0.021,-0.018,0.020,-0.027,0.152,0.049,-0.061,-0.014,0.126,0.300,0.556,0.217,0.075,0.035,0.085,-0.058,0.010,0.146,0.039,-0.017,-0.123,-0.084,-0.201,-0.204,0.103,-0.028,0.019,0.091,0.110,-0.042,-0.080,0.003,0.087,-0.050,-0.185,0.123,0.037,0.319,0.250,0.127,-0.031,0.043,-0.136,0.168,0.030,0.012,0.165,0.145,0.045,0.042,-0.059,0.185,-0.038,0.030,-0.113,-0.103,-0.052,-0.078,-0.045,-0.096,0.014,-0.092,-0.234,0.076,0.060,0.133,0.154,-0.082,0.087,-0.040,0.103,0.091,0.154,0.273,0.403,0.299,0.110,0.034,0.019,-0.046,-0.073,-0.049,0.004,-0.073,0.014,-0.031,-0.101,-0.101,-0.096,-0.093,-0.046,-0.167,-0.238,0.032,-0.008,0.067,0.158,0.014,0.110,0.213,0.418,-0.036,0.008,0.253,0.042,0.039,0.075,-0.048,-0.066,0.111,-0.002,-0.067,0.041,-0.003,-0.200,-0.181,-0.044,-0.078,-0.042,-0.020,-0.176,-0.011,0.017,-0.199,0.005,0.151,0.308,-0.018,0.110,-0.061,-0.090,-0.065,0.050,0.040,0.215,0.077,0.054,0.067,-0.085,0.172,0.037,-0.019,-0.101,-0.115,-0.054,-0.220,-0.132,-0.098,-0.250,-0.224,-0.158,-0.030,-0.089,0.105,0.165,-0.201,0.007,-0.160,-0.127,0.017,-0.004,0.046,-0.039,0.106,0.010,0.029,-0.115,0.263,0.217,-0.046,-0.021,0.029,-0.121,-0.238,-0.106,-0.118,-0.114,-0.138,-0.040,-0.240,-0.094,0.053,0.017,0.004,-0.081,-0.084,-0.070,0.090,-0.066,-0.098,0.009,0.105,0.114,0.019,0.145,0.074,0.176,0.058,0.125,0.130,0.050,0.049,-0.254,0.056,0.024,-0.168,0.065,0.021,-0.053,-0.064,-0.020,0.070,0.112,-0.114,0.016,0.073,-0.021,0.015,0.005,0.062,-0.080,0.048,0.052,0.068,0.162,0.240,0.123,0.170,0.122,0.202,0.061,-0.012,0.142,0.111,0.082,0.212,0.086,0.098,0.000,-0.222,0.045,-0.049,-0.038,-0.065,0.081,0.204,-0.085,0.006,-0.067,0.028,-0.004,-0.045,-0.039,0.023,0.145,0.127,0.128,0.109,0.080,0.068,0.070,0.231,0.190,0.105,0.330,0.140,0.140,0.027,0.035,-0.037,-0.037,-0.171,0.032,-0.012,-0.065,0.023,0.014,0.049,-0.047,-0.112,0.067,0.010,0.203,0.172,0.134,0.139,0.224,0.146,0.042,0.126,0.138,-0.060,0.179,0.126,0.118,-0.040,-0.130,-0.038,-0.066,-0.008,0.024,0.019,-0.046,0.022,-0.041,-0.125,0.162,-0.065,0.103,-0.085,0.109,0.200,0.125,0.170,0.281,0.043,0.136,0.155,0.121,0.105,-0.008,-0.006,0.078,-0.019,-0.196,-0.233,-0.152,-0.041,-0.016,-0.146,0.026,0.125,-0.099,0.260,0.077,0.080,-0.002,-0.005,-0.268,-0.019,0.025,-0.108,0.059,-0.042,0.021,-0.024,-0.056,-0.012,0.020,-0.061,-0.169,-0.044,-0.257,-0.002,-0.131,0.063,-0.021,0.004,-0.078,0.017,-0.072,0.074,0.070,0.008,-0.065,0.050,0.090,-0.056,-0.064,0.035,-0.048,-0.050,-0.028,-0.017,-0.185,-0.113,-0.048,-0.142,-0.040,0.130,-0.188,-0.017,0.003,0.123,-0.130,-0.050,0.056,-0.072,0.049,0.047,0.002,0.141,-0.124,-0.008,0.111,-0.067,-0.056,-0.048,-0.054,-0.226,-0.155,-0.335,-0.037,-0.167,-0.168,-0.147,-0.060,-0.026,0.116,0.109,-0.058,-0.133,-0.041,-0.187,0.034,0.048,0.155,0.054,0.069,0.019,-0.094,-0.072,-0.165,0.027,-0.209,0.223,0.111,0.053,0.081,-0.099,0.004,0.040,0.051,-0.008,0.045,0.176,0.085,0.013,0.165,0.134,-0.019,-0.056,0.087,0.132,0.100,0.088,0.087,0.110,-0.089,-0.180,-0.023,0.039,-0.034,0.031,0.117,0.044,0.163,0.307,0.170,0.136,0.123,0.137,0.159,0.098,-0.058,0.054,0.058,-0.146,0.113,-0.035,0.074,0.085,-0.131,0.031,0.031,-0.030,0.034,-0.024,0.002,-0.072,-0.054,-0.212,0.016,-0.108,-0.057,-0.123,0.108,-0.003,0.016,0.014,0.029,-0.013,-0.000,-0.033,0.128,-0.082,0.103,0.047,0.084,-0.043
-0.081,0.025,-0.138,-0.011,0.056,-0.003,-0.034,-0.005,-0.083,0.081,-0.000,0.083,-0.070,-0.148,-0.019,-0.079,-0.020,0.087,0.259,0.072,-0.142,-0.009,-0.080,0.201,-0.123,0.131,-0.018,0.024,0.162,0.052,-0.094,0.054,-0.066,0.163,-0.041,-0.075,-0.062,-0.022,-0.019,0.011,0.065,0.030,-0.035,-0.075,0.002,0.013,0.027,0.214,-0.041,0.030,0.101,0.090,-0.013,-0.023,-0.015,-0.089,0.170,-0.098,-0.107,-0.042,-0.151,0.164,-0.081,-0.096,-0.017,-0.106,-0.009,-0.007,-0.039,0.015,0.027,-0.092,0.162,0.094,0.093,0.018,0.036,-0.116,0.021,-0.139,-0.077,0.144,-0.002,-0.073,-0.083,0.021,0.116,0.033,0.051,-0.073,0.017,-0.027,0.106,0.064,-0.042,-0.017,-0.044,-0.065,-0.007,0.065,-0.144,-0.097,0.020,-0.013,0.092,0.086,0.023,0.187,0.091,-0.016,0.001,-0.117,-0.051,-0.101,0.126,-0.007,-0.029,0.050,-0.048,-0.102,0.044,0.040,-0.221,0.081,0.062,-0.084,-0.171,-0.131,-0.114,-0.084,-0.062,-0.118,0.064,-0.112,-0.048,-0.028,0.061,-0.127,-0.115,0.001,-0.057,0.046,0.041,-0.031,-0.021,-0.037,-0.042,-0.184,-0.080,-0.067,0.063,0.095,0.110,0.072,-0.020,-0.009,-0.010,0.008,0.023,-0.019,0.002,-0.099,0.089,0.047,0.012,-0.169,0.024,0.081,-0.205,0.011,-0.046,0.045,0.067,-0.014,-0.272,-0.072,-0.090,-0.164,-0.033,-0.013,-0.017,-0.109,0.011,-0.023,0.046,0.032,0.177,0.098,0.102,0.106,0.082,0.087,0.052,0.039,-0.020,0.039,0.038,0.028,-0.093,0.003,-0.041,-0.096,-0.072,-0.066,0.060,-0.180,0.075,-0.050,0.107,-0.095,-0.018,-0.010,0.323,0.009,0.175,0.203,0.181,0.255,0.155,0.141,0.158,0.102,0.116,-0.067,0.055,0.023,0.037,-0.020,-0.106,0.001,-0.244,-0.245,-0.113,-0.117,-0.061,0.033,0.014,-0.042,0.105,-0.029,0.114,0.281,0.240,0.218,0.284,0.129,0.151,0.112,0.051,0.018,-0.045,0.032,-0.064,0.006,0.190,-0.064,-0.068,-0.177,-0.177,-0.163,-0.036,-0.126,0.099,-0.117,0.129,0.204,-0.102,0.021,-0.138,0.070,0.203,0.142,0.198,0.187,0.072,0.107,0.113,0.264,-0.077,-0.048,0.006,-0.139,-0.136,0.009,-0.116,0.155,-0.036,-0.071,-0.132,-0.051,-0.085,-0.154,0.038,-0.074,-0.076,-0.226,-0.258,-0.491,-0.392,-0.323,-0.191,-0.045,-0.285,-0.181,-0.038,0.274,-0.056,0.119,0.001,0.101,-0.006,0.060,-0.092,-0.074,-0.163,-0.075,-0.079,-0.071,-0.052,-0.117,-0.134,-0.264,-0.480,-0.363,-0.300,-0.567,-0.654,-0.519,-0.448,-0.418,-0.242,-0.306,-0.185,-0.055,0.005,0.203,-0.201,-0.077,-0.006,0.183,0.064,-0.096,-0.084,-0.154,-0.094,-0.349,-0.095,-0.076,-0.138,-0.004,-0.104,-0.117,-0.228,-0.207,-0.297,-0.444,-0.512,-0.364,-0.308,-0.290,-0.209,-0.156,0.166,0.032,-0.117,-0.041,0.061,-0.050,0.052,0.001,-0.014,-0.114,-0.030,-0.064,-0.089,-0.045,-0.070,0.038,0.071,-0.104,0.033,0.101,-0.010,0.026,-0.252,-0.270,-0.248,-0.179,-0.290,-0.068,-0.068,0.054,-0.120,0.105,-0.069,0.018,0.068,-0.254,-0.018,-0.001,-0.187,0.038,0.009,0.017,-0.005,0.020,0.202,0.006,0.059,-0.027,0.117,0.179,0.045,-0.370,-0.343,-0.315,-0.271,0.082,0.155,0.124,-0.031,0.002,0.078,-0.186,0.053,0.116,0.015,-0.010,-0.016,-0.170,-0.064,-0.213,0.110,0.048,-0.095,0.097,0.006,0.129,0.113,0.102,0.031,-0.193,-0.237,-0.155,-0.094,0.000,-0.082,0.077,-0.034,0.011,-0.077,0.104,0.096,0.064,0.233,0.202,-0.078,-0.042,-0.028,-0.046,-0.073,0.121,-0.072,0.097,-0.046,0.043,0.068,0.042,0.003,0.016,-0.081,-0.302,-0.094,0.014,0.067,0.118,-0.075,-0.065,-0.082,0.137,-0.037,0.041,-0.100,0.136,0.086,-0.034,0.153,0.055,-0.019,-0.052,0.091,0.179,-0.011,-0.121,0.076,0.109,-0.021,-0.108,0.083,-0.052,-0.025,0.242,-0.137,-0.085,0.049,0.025,-0.154,0.125,-0.050,0.078,0.148,0.140,0.058,0.009,-0.012,-0.098,-0.003,0.171,-0.146,0.121,0.017,0.002,0.130,-0.067,0.263,0.036,-0.107,-0.045,0.242,-0.151,0.011,-0.112,-0.130,-0.146,0.081,0.026,-0.002,0.067,-0.061,0.137,0.077,-0.060,0.223,0.010,0.090,-0.066,0.057,0.061,-0.033,0.098,0.105,0.127,0.089,0.140,-0.061,0.139,0.127,0.019,0.011,0.080,-0.049,-0.025,0.054,0.049,-0.052,-0.110,-0.002,0.094,-0.015,0.178,0.021,-0.145,0.043,-0.282,-0.012,-0.032,-0.178,0.313,0.054,0.087,0.125,-0.018,0.087,0.229,-0.054,0.092,-0.039,-0.024,0.175,0.092,0.094,-0.024,-0.001,0.058,0.006,0.020,0.073,0.017,0.030,-0.141,0.196,-0.167,-0.096,0.043,0.046,0.075,0.084,0.117,0.090,-0.028,0.158,0.193,0.061,-0.002,0.015,0.237,0.136,-0.066,-0.113,0.064,-0.070,-0.025,-0.189,0.028,-0.009,-0.098,-0.129,-0.024,-0.132,0.006,-0.209,-0.157,-0.092,-0.042,0.144,0.069,0.121,-0.030,0.008,-0.066,-0.090,0.026,-0.098,-0.107,0.048,-0.072,-0.136,0.080,-0.059,0.173,0.013,-0.047,-0.114,-0.039,-0.056,0.138,-0.011,-0.016,0.032,-0.043,-0.006,-0.062,0.080,-0.043,0.067,0.038,-0.034,-0.110,-0.015,0.079,-0.010,-0.257,-0.060,0.059,-0.017,0.040,-0.274,-0.120,0.027,0.069,-0.057,-0.045,-0.235,-0.015,-0.131,-0.165,-0.142,-0.059,0.062,-0.059,-0.120,0.117,0.087,-0.101,0.111,0.012,0.159,-0.091,0.077,-0.016,0.007,-0.136,0.043,0.010,0.019,-0.145,0.042,-0.003,0.045,0.120,0.038,-0.009,-0.182,0.061,-0.078,-0.082,-0.033,-0.025,-0.020,0.057,0.167,0.143,-0.038,0.118,-0.065,0.087,0.101,-0.032,-0.141,-0.034,0.031,-0.107,-0.024,-0.207,-0.045,-0.020,-0.127,0.068,-0.067,-0.060,0.071,-0.006,-0.031,0.086,0.058,-0.135,0.108,-0.059,-0.053,0.032,0.014,-0.095,-0.031,0.183,0.045,-0.016,-0.001,0.044,0.072,0.141,0.040,0.015,0.223,-0.058,-0.109,-0.236,0.080,-0.028,0.037,-0.242,-0.075,-0.141,0.083,0.078,0.079,0.033,-0.065,-0.140,0.009,-0.053,0.026,-0.150,-0.191,0.063
0.052,-0.332,-0.081,-0.010,-0.066,-0.074,-0.055,-0.045,0.018,-0.274,0.055,-0.129,0.045,-0.076,0.078,-0.240,-0.011,0.161,0.015,-0.029,0.050,0.107,0.005,-0.041,-0.055,0.056,0.033,-0.085,0.159,-0.065,-0.032,0.028,-0.067,-0.048,0.048,0.005,-0.116,0.079,0.104,0.035,0.061,0.013,-0.016,-0.102,0.032,0.036,-0.167,-0.089,0.108,-0.007,-0.100,-0.105,0.062,-0.045,0.041,-0.008,0.035,-0.019,-0.028,0.020,0.035,-0.015,0.135,0.190,0.099,-0.164,-0.039,-0.029,0.063,-0.122,0.040,0.002,0.062,0.006,-0.122,-0.118,-0.038,-0.136,0.006,-0.029,-0.025,-0.054,-0.235,-0.063,0.091,-0.111,0.082,0.015,-0.188,-0.054,-0.040,-0.001,-0.098,-0.013,0.018,-0.231,0.281,0.082,-0.043,0.014,0.155,0.012,0.117,-0.022,0.116,-0.053,0.107,-0.078,0.026,-0.104,0.021,0.032,0.138,-0.083,0.094,-0.035,0.015,0.043,-0.165,0.055,0.046,0.023,-0.079,0.139,-0.049,0.006,-0.038,-0.148,0.160,0.208,0.080,0.064,-0.053,0.102,-0.016,-0.162,-0.040,0.051,-0.096,0.068,-0.020,-0.233,0.136,0.185,0.064,-0.044,0.112,-0.029,-0.069,-0.061,-0.189,-0.097,-0.091,-0.009,0.025,0.045,0.209,0.200,0.246,0.049,0.055,-0.030,0.063,-0.017,-0.094,0.044,0.178,-0.018,0.003,0.053,-0.156,0.015,-0.074,-0.128,-0.030,-0.006,-0.094,-0.077,-0.076,-0.219,-0.241,-0.145,-0.081,0.049,0.048,0.323,0.171,0.132,0.052,-0.146,-0.179,-0.148,-0.008,-0.185,-0.081,0.039,0.046,0.178,0.112,-0.050,-0.080,-0.109,0.053,-0.095,0.061,-0.152,-0.076,0.084,-0.272,-0.225,-0.081,-0.018,0.036,0.220,0.080,0.136,0.157,-0.034,0.014,0.046,-0.061,-0.054,-0.039,0.036,0.103,-0.098,0.075,0.047,-0.109,-0.145,0.088,-0.053,-0.039,-0.018,-0.081,0.007,-0.204,-0.173,-0.445,0.023,0.123,0.068,0.029,0.151,0.047,-0.034,-0.061,-0.093,0.014,-0.115,-0.155,-0.130,-0.040,-0.207,0.134,-0.051,0.141,-0.010,-0.108,-0.174,0.048,-0.019,-0.066,0.014,0.073,-0.221,-0.240,-0.086,0.140,0.169,0.133,-0.072,0.068,-0.056,0.086,-0.039,-0.213,0.032,0.106,0.135,-0.012,0.010,0.014,0.024,-0.063,-0.016,-0.033,-0.178,-0.186,-0.026,0.067,0.094,-0.037,-0.224,-0.387,0.116,0.286,0.181,0.253,0.105,0.091,0.035,0.048,-0.080,-0.171,0.154,0.065,-0.050,0.013,-0.041,0.002,-0.013,0.040,-0.201,-0.118,-0.367,0.107,-0.187,0.001,-0.124,-0.161,-0.518,-0.390,0.062,0.358,0.210,0.087,0.123,0.086,-0.004,0.141,-0.133,-0.004,-0.035,0.049,-0.138,-0.008,0.013,0.047,-0.030,-0.037,-0.042,-0.282,-0.098,0.011,-0.055,-0.097,-0.255,-0.352,-0.375,-0.380,-0.092,0.011,0.115,0.083,0.064,-0.081,-0.020,-0.029,-0.090,0.015,0.030,-0.038,0.110,0.094,0.051,0.028,0.164,0.057,-0.158,-0.008,0.012,-0.152,-0.227,-0.275,-0.187,-0.202,-0.167,-0.254,-0.030,-0.056,-0.047,0.161,-0.083,0.011,-0.039,-0.258,-0.158,-0.198,-0.000,0.064,0.016,0.018,-0.058,-0.078,0.046,-0.075,-0.053,0.019,-0.049,-0.130,-0.169,-0.248,-0.176,-0.083,-0.229,-0.177,0.014,-0.070,-0.015,-0.078,-0.150,-0.009,-0.233,-0.012,-0.008,0.000,-0.053,0.031,0.007,0.018,0.045,-0.037,-0.177,-0.083,0.051,0.057,-0.189,0.013,0.037,-0.138,-0.238,0.001,-0.064,-0.214,-0.090,-0.108,-0.037,-0.158,-0.159,-0.161,-0.041,-0.039,-0.142,-0.054,0.061,0.082,-0.052,0.008,0.052,0.003,0.034,-0.150,0.069,0.057,-0.076,0.070,0.123,-0.046,-0.053,0.151,0.065,-0.104,-0.057,-0.094,-0.202,-0.292,-0.111,0.029,0.051,0.001,-0.152,0.065,0.025,0.077,0.055,-0.072,-0.173,-0.111,-0.022,0.018,-0.105,0.103,-0.024,0.229,0.240,0.243,0.278,0.281,0.152,0.026,-0.100,-0.296,-0.146,-0.057,-0.189,-0.184,-0.008,-0.009,-0.094,0.000,0.116,0.024,0.083,0.011,0.007,0.010,0.087,-0.038,0.048,0.240,0.156,0.129,0.120,0.134,0.350,0.379,0.108,-0.165,-0.446,-0.294,-0.182,-0.113,-0.057,-0.150,0.070,-0.078,-0.080,0.067,0.040,-0.071,0.075,-0.040,-0.023,0.139,0.113,0.060,0.145,0.186,0.169,0.175,0.293,0.432,0.276,0.332,0.008,-0.151,-0.336,-0.146,0.099,0.077,-0.104,0.064,0.069,-0.095,-0.005,-0.079,0.115,0.047,-0.075,0.020,0.117,-0.037,-0.029,0.099,0.133,0.080,0.054,0.016,0.101,0.147,0.110,0.176,-0.225,-0.335,-0.315,-0.146,-0.082,-0.045,0.187,0.123,0.014,0.263,-0.063,0.165,0.052,0.030,0.153,0.039,0.083,-0.078,0.026,0.221,0.032,-0.034,-0.008,-0.016,0.033,-0.103,-0.009,-0.050,-0.270,-0.303,0.035,-0.061,-0.063,0.084,0.047,0.221,-0.003,0.042,0.146,0.148,-0.214,-0.091,-0.007,-0.122,-0.209,0.002,0.017,0.245,0.113,0.170,-0.189,-0.039,-0.150,0.001,-0.111,-0.243,-0.050,-0.319,-0.137,-0.037,0.230,0.052,0.277,0.180,0.049,0.041,0.092,-0.099,-0.136,-0.108,-0.011,0.129,-0.138,0.040,0.114,-0.136,-0.054,0.142,0.043,-0.050,0.003,-0.062,-0.053,-0.084,-0.202,-0.322,-0.074,0.004,-0.017,0.081,0.129,0.041,0.236,-0.061,-0.040,-0.023,0.002,0.125,-0.034,-0.086,-0.060,0.012,-0.041,0.035,0.005,0.048,-0.053,-0.107,-0.123,-0.012,-0.111,-0.241,-0.166,-0.390,-0.140,0.059,-0.007,0.225,0.073,-0.103,0.177,0.102,0.004,-0.132,-0.048,-0.051,0.095,0.057,0.174,-0.036,-0.003,0.059,-0.019,0.036,0.012,-0.041,-0.050,-0.006,-0.006,-0.164,-0.038,-0.083,-0.065,-0.373,0.083,0.162,-0.114,0.261,0.106,-0.090,-0.088,0.038,-0.044,0.069,0.091,-0.039,-0.034,-0.154,0.032,0.032,-0.001,0.141,-0.011,0.027,-0.037,-0.017,-0.057,-0.113,0.063,-0.039,-0.117,0.155,-0.030,-0.101,0.034,-0.028,-0.081,0.030,-0.055,0.189,0.065,-0.030,0.043,-0.007,0.023,-0.005,0.027,-0.008,-0.212,0.031,-0.091,0.016,0.048,-0.170,-0.134,-0.080,-0.001,-0.156,0.067,-0.062,0.137,-0.026,0.133,-0.016,-0.125,0.036,-0.142,-0.214,0.218,-0.054,0.123
-0.040,0.094,0.099,-0.156,-0.116,0.084,0.070,0.085,0.063,0.018,0.176,0.122,-0.025,-0.255,-0.028,0.050,-0.021,-0.094,-0.017,-0.005,-0.127,-0.066,-0.087,-0.017,-0.074,0.041,0.038,0.028,0.101,-0.161,-0.097,-0.030,-0.039,0.043,-0.082,-0.030,0.023,0.133,-0.044,-0.146,-0.092,-0.031,0.059,0.052,0.025,0.178,0.050,0.107,-0.097,-0.086,0.082,0.018,0.023,0.111,0.062,-0.021,0.110,0.064,0.009,-0.098,0.090,-0.069,0.093,0.044,-0.016,-0.082,0.032,-0.137,0.087,0.024,-0.039,0.022,0.185,-0.018,-0.177,0.007,-0.017,-0.068,-0.104,-0.039,0.159,-0.088,-0.124,0.016,-0.020,0.029,0.070,0.037,0.131,0.023,0.110,0.002,-0.015,0.117,-0.107,-0.098,0.002,0.102,0.199,0.132,-0.026,0.009,0.026,0.076,-0.034,-0.018,-0.029,-0.020,0.063,-0.054,-0.069,0.012,-0.176,-0.077,-0.125,-0.028,0.157,-0.115,-0.093,-0.128,-0.002,0.025,-0.148,0.029,-0.117,-0.163,-0.051,-0.058,-0.031,0.145,0.038,0.182,-0.035,-0.043,-0.001,-0.055,-0.188,0.111,-0.245,-0.076,0.044,0.108,-0.017,-0.206,-0.022,0.080,0.068,-0.036,-0.169,-0.059,-0.040,-0.182,-0.123,-0.252,-0.069,-0.005,0.252,0.031,0.065,0.122,-0.092,-0.022,-0.073,-0.170,0.036,0.049,-0.035,0.044,-0.143,-0.146,0.080,-0.001,-0.069,0.005,-0.074,-0.081,0.108,-0.140,-0.165,-0.041,-0.296,-0.290,-0.133,0.009,0.192,0.165,0.116,0.137,0.056,-0.066,-0.028,0.028,-0.185,-0.060,-0.003,0.026,-0.178,0.045,0.017,-0.000,-0.131,-0.083,-0.014,-0.052,-0.065,0.242,0.160,-0.025,0.133,-0.001,-0.005,0.287,0.194,0.172,0.133,0.123,-0.140,0.025,0.021,-0.074,0.030,-0.035,-0.106,0.197,0.020,-0.029,0.002,0.157,0.030,0.035,0.110,0.009,0.227,0.227,0.272,0.354,0.011,-0.038,-0.075,0.166,0.128,0.349,0.033,0.174,-0.060,0.083,-0.092,0.053,0.116,-0.127,0.021,-0.075,-0.007,0.001,0.033,0.046,-0.003,-0.033,0.134,0.007,0.032,0.223,0.000,0.154,-0.006,-0.214,-0.293,0.098,0.037,0.143,0.104,-0.021,-0.154,-0.059,0.153,-0.078,0.037,-0.102,0.124,0.092,0.029,0.103,-0.045,0.046,-0.046,0.085,-0.042,0.180,-0.021,-0.003,0.034,-0.280,-0.388,-0.433,-0.362,-0.066,0.124,0.013,0.056,-0.104,0.018,-0.188,-0.140,-0.056,0.034,-0.040,-0.025,-0.086,-0.180,-0.077,0.076,0.004,0.132,0.031,-0.082,-0.097,-0.041,-0.251,-0.414,-0.525,-0.594,-0.467,-0.210,0.031,0.032,-0.030,0.011,-0.157,-0.114,-0.043,-0.149,-0.115,-0.125,0.041,0.082,0.025,0.105,0.058,-0.050,-0.007,0.042,-0.146,-0.268,-0.280,-0.456,-0.481,-0.354,-0.549,-0.257,-0.143,0.022,-0.019,0.122,-0.036,-0.009,-0.135,-0.053,-0.000,-0.065,-0.020,0.126,-0.033,0.133,0.000,-0.102,0.058,-0.072,-0.011,-0.148,-0.162,-0.226,-0.349,-0.324,-0.159,-0.236,-0.148,0.112,0.065,0.086,0.034,-0.023,0.088,0.133,0.032,0.018,-0.140,-0.033,0.017,0.004,-0.112,0.005,-0.050,0.022,-0.071,0.033,-0.041,-0.077,-0.193,-0.156,-0.132,-0.194,-0.076,-0.116,0.129,0.159,0.055,0.186,0.081,0.133,0.103,0.001,0.029,0.156,0.139,-0.026,-0.047,-0.091,0.066,0.022,0.057,-0.026,-0.078,-0.074,0.040,0.142,-0.073,-0.091,-0.017,0.196,-0.070,0.185,0.235,0.061,0.246,0.052,0.044,0.065,-0.043,-0.012,0.092,-0.030,0.176,0.026,-0.007,0.002,-0.056,-0.076,-0.017,0.071,-0.035,0.002,0.048,-0.105,-0.034,-0.103,-0.011,-0.014,0.394,0.135,0.188,0.382,0.164,0.080,-0.092,-0.131,-0.150,-0.141,0.005,0.063,-0.026,-0.097,0.137,0.107,0.063,-0.013,-0.125,-0.002,0.016,0.016,0.073,-0.111,0.118,-0.047,-0.026,-0.043,0.011,-0.119,0.178,0.209,-0.040,0.106,0.009,-0.021,-0.053,0.139,-0.034,-0.178,0.080,0.087,-0.058,0.113,-0.021,-0.032,0.176,-0.142,0.112,-0.008,-0.008,0.059,0.193,-0.078,-0.169,0.063,-0.151,0.016,-0.016,0.133,0.040,-0.211,-0.245,-0.196,-0.177,0.008,-0.029,-0.056,0.087,0.227,-0.141,0.076,-0.075,-0.141,0.055,-0.078,-0.006,0.085,0.028,-0.092,-0.074,-0.150,0.024,-0.123,-0.167,-0.164,-0.251,-0.142,-0.200,-0.408,-0.189,-0.058,-0.212,0.084,-0.028,0.185,-0.054,-0.174,0.065,0.011,-0.135,-0.107,-0.193,-0.058,0.063,0.005,0.039,0.022,-0.180,-0.073,-0.223,-0.011,-0.241,-0.061,-0.230,-0.340,-0.299,-0.179,-0.406,-0.242,-0.029,-0.145,-0.037,0.004,0.022,-0.121,-0.082,-0.038,0.074,-0.095,-0.208,-0.013,0.103,-0.050,0.145,0.112,0.065,0.018,-0.003,-0.086,-0.221,-0.374,-0.157,-0.226,-0.068,-0.232,-0.134,-0.002,-0.048,-0.044,-0.122,-0.042,-0.050,-0.088,0.008,-0.109,0.155,-0.226,-0.056,0.018,0.062,0.049,0.031,0.111,0.227,-0.085,0.213,0.003,-0.134,-0.102,-0.143,0.011,-0.058,0.128,-0.127,-0.156,-0.010,0.158,0.101,-0.036,-0.065,-0.050,-0.093,-0.161,0.094,0.019,0.077,-0.006,-0.023,0.245,0.010,-0.030,-0.001,0.155,-0.038,-0.052,0.119,-0.020,-0.040,0.063,-0.061,-0.005,-0.082,-0.136,0.080,0.181,-0.010,-0.026,-0.152,-0.109,-0.203,-0.060,-0.120,0.144,-0.154,-0.092,0.082,0.056,-0.087,0.080,0.016,-0.005,-0.013,0.057,0.019,0.097,-0.009,0.087,-0.063,0.168,-0.016,0.041,-0.021,-0.117,-0.071,0.042,-0.135,0.029,-0.129,0.153,-0.105,-0.016,0.054,0.056,-0.074,0.094,0.030,-0.066,0.067,-0.044,-0.005,0.272,-0.003,0.118,-0.039,0.111,-0.062,-0.037,0.009,-0.090,-0.053,-0.121,-0.010,-0.196,0.123,0.159,-0.117,0.025,-0.071,0.022,0.002,-0.100,-0.134,-0.109,0.082,-0.003,-0.138,-0.015,0.088,-0.107,-0.019,-0.014,-0.005,0.016,-0.031,-0.053,-0.173,0.060,0.040,-0.026,-0.144,-0.000,-0.209,0.012,0.045,-0.053,-0.097,0.131,0.193,0.006,0.011,0.011,0.145,-0.100,-0.048,-0.024,0.029,-0.094,-0.041,0.086,-0.127,-0.121,0.105,0.035,-0.068,-0.004,-0.080,-0.049,0.083,-0.093,0.098,0.000,-0.088,0.038,0.085,0.094,0.001
-0.154,-0.018,0.059,0.008,-0.079,-0.028,0.063,-0.164,0.002,0.111,-0.061,-0.152,-0.044,0.105,-0.043,0.148,0.101,0.108,-0.098,-0.033,-0.044,0.025,0.138,-0.081,-0.108,-0.052,-0.137,-0.053,-0.038,0.024,0.024,0.011,0.045,0.004,-0.096,0.037,-0.010,-0.082,-0.004,0.014,-0.092,0.044,-0.068,0.039,0.040,0.132,-0.029,0.125,0.084,0.005,-0.089,0.012,0.048,0.105,0.113,0.080,-0.054,-0.047,-0.058,0.030,-0.048,0.044,-0.013,-0.039,0.105,-0.224,-0.026,0.019,-0.249,-0.013,0.008,0.075,0.023,0.050,0.013,0.098,0.098,0.074,-0.006,0.043,-0.039,0.052,0.118,0.002,-0.033,-0.137,0.058,0.029,-0.096,0.090,0.087,0.108,0.107,-0.079,0.020,0.034,0.183,0.078,-0.008,0.120,0.228,0.000,0.161,-0.014,0.086,0.023,0.165,0.052,-0.002,0.091,-0.012,0.065,-0.058,-0.071,-0.152,0.156,0.032,0.075,-0.090,-0.047,0.067,-0.013,-0.011,0.056,0.049,0.107,0.399,0.145,0.337,0.141,0.029,0.038,0.097,-0.083,-0.060,0.130,0.028,-0.099,-0.008,-0.016,-0.044,0.086,-0.101,0.042,-0.000,0.063,-0.043,0.136,-0.006,0.062,0.073,-0.088,-0.018,-0.032,0.031,0.268,0.333,0.198,0.196,0.064,-0.107,-0.118,0.039,-0.175,0.094,0.090,-0.064,0.134,0.072,-0.173,0.039,-0.006,0.065,-0.106,-0.121,0.044,0.219,0.031,-0.025,-0.198,-0.279,-0.332,-0.007,-0.081,0.131,0.187,0.311,0.219,-0.046,0.032,-0.111,-0.019,-0.008,-0.069,0.179,-0.037,0.053,-0.059,0.180,-0.031,-0.049,0.058,0.096,-0.053,-0.038,-0.261,-0.221,-0.428,-0.341,-0.315,-0.017,0.173,0.340,0.494,0.344,0.246,0.082,-0.037,0.065,-0.066,-0.012,0.099,-0.061,0.081,0.013,0.131,-0.055,-0.015,0.065,-0.007,0.043,0.148,-0.141,-0.075,-0.057,-0.298,-0.134,-0.067,0.000,0.310,0.160,0.265,0.323,0.316,0.177,0.067,-0.128,0.167,-0.038,-0.122,0.007,0.020,-0.019,-0.142,-0.104,-0.125,-0.063,0.080,0.044,-0.232,-0.008,-0.145,-0.197,-0.006,-0.102,0.066,0.139,0.341,0.013,-0.233,-0.022,0.065,0.172,0.106,0.132,0.009,0.071,0.045,0.057,0.050,0.256,0.018,-0.005,0.090,0.074,-0.088,-0.069,-0.146,-0.263,-0.034,-0.078,0.265,0.059,-0.027,0.009,0.083,-0.155,-0.139,-0.472,-0.060,0.059,0.075,0.073,-0.071,0.229,0.052,-0.102,-0.053,0.030,-0.196,0.031,0.053,-0.053,-0.055,-0.100,-0.069,0.114,0.206,0.047,0.230,0.158,0.093,-0.075,-0.062,-0.324,-0.118,-0.157,0.160,0.119,0.064,0.109,0.235,0.051,0.003,0.083,0.190,-0.070,0.014,-0.031,0.031,-0.097,-0.114,0.038,0.066,0.147,0.085,0.064,0.110,-0.117,-0.028,-0.299,0.139,-0.120,-0.072,-0.096,0.201,0.022,0.148,0.134,0.088,-0.009,-0.062,0.133,0.066,-0.005,0.054,0.000,-0.094,-0.036,-0.024,-0.026,0.079,-0.089,-0.042,-0.006,0.006,0.060,-0.156,-0.076,-0.003,-0.186,0.236,0.082,0.180,0.211,0.177,0.206,-0.027,0.032,0.135,-0.027,-0.107,0.043,-0.130,0.077,-0.114,0.092,0.071,0.009,-0.194,-0.124,0.048,0.062,-0.088,-0.092,-0.092,0.109,0.181,-0.126,0.123,-0.033,0.268,0.163,0.011,0.019,0.250,0.154,-0.077,0.044,-0.025,-0.199,-0.137,0.102,-0.177,0.181,-0.037,-0.013,0.088,0.187,0.030,0.026,0.266,0.081,0.037,0.075,0.058,0.204,0.045,0.223,0.079,-0.047,-0.031,0.019,-0.127,0.033,-0.212,0.021,-0.112,0.116,0.009,0.041,-0.005,0.062,-0.014,0.081,0.099,0.026,0.117,-0.082,-0.040,-0.196,-0.019,-0.086,0.030,0.130,0.050,0.018,0.069,-0.031,-0.134,-0.136,0.055,-0.164,0.066,0.044,-0.052,0.140,-0.113,0.006,0.078,0.102,0.149,-0.125,0.011,-0.119,0.074,-0.224,-0.092,-0.144,0.038,-0.051,0.071,0.060,-0.068,0.001,0.054,0.131,-0.048,0.002,-0.048,-0.114,-0.053,0.118,-0.002,-0.216,-0.067,0.022,-0.070,0.121,-0.189,-0.036,0.064,0.042,-0.004,0.051,0.120,0.169,0.116,0.102,0.185,0.125,0.105,-0.059,-0.002,-0.006,-0.160,-0.117,0.058,0.067,0.159,-0.049,-0.072,0.147,0.006,0.057,0.007,0.195,-0.043,-0.012,0.151,0.090,0.209,0.114,0.038,0.249,0.186,0.095,-0.039,-0.064,0.016,-0.086,-0.208,-0.011,-0.169,-0.081,-0.174,-0.050,-0.184,-0.121,-0.126,-0.116,0.046,0.025,-0.009,-0.111,-0.065,-0.056,0.080,-0.023,0.142,-0.004,0.312,0.230,0.129,0.148,0.116,-0.145,-0.053,-0.103,0.188,0.096,-0.060,0.025,0.008,0.073,-0.135,0.021,-0.204,0.032,-0.046,0.063,-0.111,-0.120,-0.017,-0.134,-0.160,-0.080,0.041,0.147,0.218,0.252,0.214,0.206,0.097,-0.027,-0.058,0.050,-0.147,-0.200,-0.051,0.031,-0.141,-0.078,-0.037,-0.098,0.030,0.044,-0.041,-0.057,0.026,-0.122,-0.057,0.026,-0.033,-0.025,0.139,0.322,-0.010,0.065,0.250,0.023,0.009,-0.052,0.023,0.058,0.016,-0.010,-0.042,-0.007,0.044,-0.018,-0.041,0.066,-0.188,-0.056,-0.105,-0.095,-0.077,0.011,0.022,-0.017,-0.002,-0.141,0.076,0.157,0.053,0.104,0.030,-0.110,0.033,-0.116,-0.166,0.052,0.092,0.017,0.075,-0.110,0.076,-0.009,0.135,-0.042,-0.062,-0.135,0.050,-0.070,-0.017,-0.028,0.044,-0.197,-0.018,-0.017,0.192,0.061,0.177,0.118,-0.035,0.040,0.029,0.054,-0.009,0.014,0.077,-0.068,0.068,-0.160,-0.044,-0.047,0.040,0.134,0.147,0.105,-0.002,-0.008,0.073,0.062,0.080,0.067,-0.021,0.114,0.074,0.068,0.261,0.066,0.033,0.018,0.259,0.069,0.174,-0.010,-0.080,-0.022,0.202,-0.002,-0.018,0.111,-0.031,-0.050,-0.015,0.065,0.129,0.034,-0.212,0.032,0.025,0.164,-0.122,-0.050,0.042,0.037,-0.042,0.100,-0.121,-0.002,-0.097,0.121,-0.047,-0.130,0.108,0.011,-0.092,-0.238,0.131,-0.131,0.081,0.045,-0.272,-0.056,-0.010,-0.083,-0.032,0.152,0.045,0.028,-0.081,-0.037,0.123,0.031,0.026,-0.021,0.094,0.137,-0.099,-0.047,-0.017,-0.181,0.015,0.044,-0.038,-0.030,0.138,-0.037,-0.093,0.017,-0.108
-0.173,0.022,-0.061,-0.162,0.027,0.035,-0.047,-0.087,0.022,0.115,-0.024,0.161,0.099,-0.134,0.007,-0.178,-0.114,0.121,-0.021,-0.011,0.012,0.114,-0.125,-0.055,-0.024,-0.052,-0.099,-0.151,0.099,0.045,0.029,-0.076,0.102,0.017,0.025,-0.088,0.009,-0.092,-0.018,-0.020,-0.052,-0.129,-0.037,0.094,0.100,0.151,-0.104,-0.056,-0.198,-0.010,0.107,-0.042,0.054,0.119,0.174,0.014,-0.023,-0.170,-0.172,0.042,-0.020,0.014,0.044,0.174,0.054,0.059,0.059,-0.015,-0.172,-0.009,-0.090,-0.046,-0.052,0.055,-0.045,0.063,0.004,0.018,-0.017,-0.116,-0.014,0.007,0.200,-0.081,-0.015,0.006,0.151,0.004,0.105,-0.100,-0.056,0.150,0.061,-0.024,0.132,-0.011,-0.047,0.101,-0.050,0.018,0.047,0.180,0.104,0.104,-0.005,0.107,0.116,0.045,0.115,0.050,-0.080,-0.051,0.048,0.161,-0.029,0.077,0.107,0.150,0.179,-0.014,0.145,0.188,0.158,0.071,-0.010,0.197,0.133,0.193,0.252,-0.014,-0.070,-0.077,-0.056,-0.148,0.076,-0.008,-0.103,0.091,-0.009,-0.010,0.018,-0.103,-0.078,-0.067,-0.077,-0.032,0.075,0.004,0.215,0.068,0.055,0.158,0.066,0.181,0.019,0.104,0.135,-0.048,0.009,-0.060,-0.067,-0.071,-0.045,-0.148,0.129,-0.028,-0.101,0.019,0.050,-0.018,-0.020,0.157,0.036,0.053,0.206,0.023,0.070,0.057,0.023,0.025,0.017,0.009,0.134,0.173,-0.103,-0.123,-0.050,-0.029,-0.013,0.034,-0.000,-0.084,-0.083,0.148,0.104,0.112,0.170,-0.123,0.010,0.020,0.017,0.156,0.171,0.085,0.044,-0.096,-0.119,0.030,-0.179,-0.002,-0.080,0.045,0.059,-0.009,0.084,-0.063,-0.060,-0.103,-0.171,-0.059,0.086,-0.005,0.162,0.041,0.068,0.069,0.032,0.071,0.025,0.223,0.092,0.173,-0.031,-0.101,-0.249,-0.058,0.113,-0.151,-0.014,-0.222,-0.055,0.090,0.010,0.086,-0.022,-0.047,-0.044,-0.117,0.112,-0.014,-0.030,-0.176,-0.009,0.044,0.142,0.123,0.009,0.017,0.170,-0.019,-0.143,-0.070,-0.062,-0.006,-0.005,-0.035,-0.208,-0.207,0.139,0.047,0.094,-0.042,0.070,-0.016,0.196,-0.131,0.029,0.045,0.040,0.019,-0.096,-0.047,0.030,0.062,0.085,0.140,0.005,-0.147,0.034,0.047,-0.139,-0.020,0.042,-0.033,-0.075,-0.200,-0.159,0.091,0.068,0.215,0.098,-0.119,-0.078,-0.182,-0.199,0.033,0.019,0.006,-0.027,-0.062,0.006,-0.014,0.119,-0.087,-0.015,-0.100,-0.018,-0.113,-0.123,-0.041,-0.216,-0.057,-0.176,-0.152,-0.022,-0.036,0.433,-0.058,0.131,0.215,0.130,-0.205,0.087,-0.106,-0.087,-0.091,-0.095,0.070,-0.000,0.007,0.080,-0.096,0.049,0.004,0.052,0.090,-0.083,-0.102,-0.111,-0.276,-0.033,0.007,0.094,0.174,0.115,0.202,-0.124,0.013,0.098,-0.084,-0.166,-0.088,-0.043,-0.135,-0.051,-0.064,0.066,-0.225,0.110,0.040,0.030,0.020,0.104,0.169,-0.160,-0.057,-0.231,-0.044,0.080,0.014,0.015,0.142,-0.011,0.109,0.010,-0.157,-0.116,-0.184,0.048,-0.012,0.156,0.132,-0.063,-0.150,-0.029,-0.095,-0.226,-0.118,0.120,0.014,0.054,0.120,-0.150,-0.087,0.071,0.006,0.127,-0.007,0.002,0.039,-0.004,-0.039,-0.070,-0.055,0.017,-0.099,0.180,0.095,-0.038,0.173,0.018,0.020,-0.012,0.106,-0.013,-0.070,-0.010,0.071,0.160,-0.037,-0.127,-0.113,0.124,0.207,0.094,-0.147,0.085,0.071,-0.068,0.070,0.053,0.016,0.092,-0.080,0.186,-0.017,0.190,0.070,-0.056,0.065,-0.023,0.054,-0.073,0.047,0.043,0.094,-0.060,-0.013,0.011,0.108,0.072,0.164,0.102,-0.126,-0.055,0.103,0.148,0.041,-0.172,0.016,-0.065,0.016,0.011,-0.083,-0.066,-0.144,0.156,-0.113,0.094,-0.092,0.050,-0.037,-0.174,0.072,0.083,0.108,-0.076,0.130,0.231,0.183,-0.179,-0.049,-0.085,-0.027,-0.121,-0.058,0.123,0.088,0.073,-0.009,0.047,-0.108,0.041,-0.100,-0.129,0.002,0.165,0.072,0.026,0.065,0.154,-0.042,0.010,0.023,0.191,0.015,0.152,-0.115,-0.105,-0.171,-0.121,0.057,0.105,-0.052,-0.120,-0.055,0.147,-0.115,-0.075,-0.086,-0.002,0.195,0.027,0.027,0.135,0.034,-0.016,-0.052,-0.012,-0.138,-0.019,0.138,0.045,0.112,0.012,-0.053,0.134,0.104,0.020,-0.067,0.013,-0.097,0.023,0.074,0.043,-0.022,0.015,0.267,0.117,0.049,0.098,0.035,0.030,0.147,0.039,-0.006,-0.022,-0.002,0.090,0.164,0.017,0.077,-0.030,-0.053,0.078,-0.084,0.171,0.011,-0.040,-0.033,0.130,0.183,0.170,0.031,-0.005,0.010,0.091,0.065,0.033,-0.135,0.062,-0.176,0.036,0.019,-0.042,-0.028,0.143,0.161,0.126,0.069,-0.023,-0.118,-0.033,0.030,0.197,-0.011,-0.001,0.102,-0.021,0.135,0.182,-0.163,0.066,-0.052,-0.013,-0.037,-0.039,0.004,0.054,0.122,0.070,0.002,0.029,0.063,0.143,-0.090,-0.071,-0.037,-0.078,0.044,-0.143,0.041,0.026,-0.020,-0.023,0.144,-0.077,0.141,-0.037,-0.035,0.013,0.169,-0.016,-0.008,0.013,0.009,0.107,0.051,-0.060,-0.144,-0.022,0.006,-0.010,0.019,-0.083,0.003,-0.017,0.049,-0.064,0.042,0.060,-0.205,0.121,0.013,-0.042,-0.054,0.028,0.143,0.035,-0.065,-0.005,0.030,0.095,-0.054,0.058,0.186,0.092,0.006,-0.072,0.126,-0.047,0.023,0.014,-0.130,-0.166,-0.083,-0.056,-0.000,-0.071,-0.102,0.010,0.124,0.058,-0.052,-0.073,0.033,-0.047,0.037,-0.149,-0.074,0.011,-0.020,-0.029,-0.046,0.047,-0.043,-0.093,0.138,0.014,0.059,0.167,-0.091,-0.084,-0.126,0.148,0.147,-0.013,-0.050,-0.062,0.032,-0.006,0.104,0.137,-0.010,0.134,-0.002,0.053,-0.052,-0.034,0.004,-0.076,0.006,-0.017,-0.000,0.061,0.107,0.033,-0.106,0.025,-0.078,-0.075,0.058,-0.022,-0.018,0.066,0.030,-0.006,-0.040,0.032,-0.062,-0.064,-0.032,0.051,0.047,-0.108,-0.042,0.015,0.131,0.056,0.087,-0.014,-0.065,0.057,0.009,0.040,-0.110,0.025,0.027,-0.028,0.068,0.091,0.058,-0.065,-0.069,0.173,0.048,-0.062,0.044,-0.024,-0.068,-0.146,0.005,0.112,-0.164
-0.060,-0.015,-0.038,-0.009,0.096,-0.085,-0.039,0.180,-0.007,-0.014,-0.126,-0.095,-0.079,-0.020,0.205,-0.017,-0.132,-0.077,0.083,0.038,-0.069,-0.012,-0.165,0.040,-0.210,0.070,-0.046,-0.107,0.010,-0.080,-0.127,0.014,0.035,-0.001,-0.002,0.067,0.044,-0.113,-0.183,0.073,0.009,-0.037,-0.070,0.093,0.047,0.009,0.052,0.054,0.011,0.031,0.078,0.105,0.036,0.068,-0.091,-0.004,0.013,0.039,0.102,-0.074,-0.099,0.196,0.008,-0.121,0.033,0.087,-0.064,-0.007,-0.028,-0.016,-0.089,-0.151,-0.022,-0.021,-0.007,0.055,-0.089,-0.089,-0.163,0.046,-0.081,0.080,0.059,0.097,-0.026,0.072,0.048,0.091,0.126,0.092,-0.059,-0.030,-0.022,-0.079,-0.136,-0.080,-0.124,0.112,0.139,0.036,-0.179,-0.001,0.075,0.248,0.008,-0.192,0.104,-0.023,-0.038,-0.030,0.033,0.022,0.010,0.098,-0.006,0.044,-0.116,0.062,-0.030,-0.066,-0.084,-0.096,-0.049,-0.237,-0.087,-0.059,0.022,0.063,-0.083,-0.263,-0.177,0.077,0.003,-0.015,-0.005,-0.005,-0.017,0.030,-0.011,0.134,0.056,-0.033,-0.048,0.012,-0.052,-0.145,0.025,-0.131,-0.001,0.024,-0.016,-0.005,0.008,0.078,-0.053,0.022,-0.059,0.079,0.010,0.048,0.020,-0.007,0.005,-0.067,-0.057,0.057,0.027,-0.036,-0.004,0.011,-0.258,-0.040,0.003,0.065,-0.168,0.126,0.047,-0.168,-0.189,-0.050,0.070,-0.001,-0.006,0.054,-0.010,-0.111,-0.032,-0.015,-0.023,-0.064,0.018,0.028,-0.107,0.118,0.205,0.072,0.138,0.023,-0.057,-0.006,0.074,-0.156,-0.043,-0.237,-0.031,0.002,-0.125,0.055,-0.126,0.116,-0.190,-0.148,-0.059,-0.196,-0.139,-0.052,-0.074,0.045,0.058,0.113,-0.043,-0.069,0.211,0.084,-0.169,0.053,-0.102,-0.187,-0.036,-0.150,-0.015,-0.056,-0.144,-0.103,0.101,0.002,0.149,-0.005,-0.133,-0.025,-0.243,-0.069,-0.121,-0.045,-0.116,-0.044,0.036,-0.021,0.013,0.012,-0.107,-0.121,-0.255,-0.081,-0.195,-0.106,-0.165,-0.070,-0.156,0.078,-0.207,-0.136,0.065,0.069,0.207,0.085,0.237,0.072,-0.307,-0.174,-0.269,-0.058,-0.016,-0.047,-0.042,-0.054,-0.100,-0.139,-0.008,-0.105,-0.011,-0.117,-0.072,0.019,-0.023,-0.035,-0.133,-0.164,-0.127,-0.165,0.056,-0.004,0.114,0.109,0.181,0.225,0.078,-0.173,-0.111,-0.183,-0.170,-0.022,-0.141,-0.225,0.016,-0.188,-0.111,0.082,0.019,0.083,0.118,0.120,0.010,0.060,-0.062,-0.029,0.064,0.003,-0.029,0.065,0.121,0.017,0.045,0.309,0.091,0.045,-0.129,-0.092,-0.178,-0.214,-0.122,-0.124,-0.162,-0.301,-0.171,-0.087,0.007,0.011,0.016,0.041,-0.064,-0.116,-0.072,-0.029,-0.172,-0.210,-0.266,-0.074,0.161,-0.005,0.044,0.387,0.185,0.001,-0.063,-0.044,-0.094,-0.002,0.017,-0.073,-0.123,-0.237,-0.126,0.050,0.039,-0.036,0.004,-0.216,-0.116,-0.004,-0.222,-0.179,0.010,-0.069,0.060,-0.225,-0.059,0.079,0.249,0.463,0.454,0.157,-0.180,-0.217,-0.174,0.012,0.015,0.089,-0.114,-0.051,-0.095,0.027,0.026,-0.112,-0.058,-0.000,-0.167,-0.120,-0.271,-0.064,-0.174,-0.171,-0.086,-0.247,-0.009,0.053,0.146,0.085,0.172,-0.152,-0.427,0.001,-0.144,-0.224,-0.047,-0.088,0.071,0.052,-0.021,0.133,0.110,-0.066,0.130,0.013,0.062,0.089,-0.064,-0.093,-0.128,0.041,-0.124,0.036,0.054,0.175,0.346,0.035,0.079,-0.177,-0.303,-0.088,-0.222,-0.131,0.132,0.073,0.035,-0.144,-0.027,0.005,-0.052,-0.068,0.038,-0.142,-0.069,-0.264,-0.318,-0.129,-0.065,0.233,0.165,0.073,0.106,0.129,0.166,0.028,-0.176,-0.364,-0.239,-0.283,0.028,-0.149,-0.096,-0.025,0.198,0.051,-0.116,0.013,0.023,-0.021,-0.069,-0.099,-0.000,-0.252,-0.121,-0.156,0.099,0.163,0.133,0.185,0.121,0.105,0.066,-0.146,-0.301,-0.390,-0.357,-0.101,-0.179,0.016,-0.065,-0.127,0.087,0.066,0.154,-0.017,0.125,-0.034,0.054,-0.077,-0.007,-0.142,-0.153,-0.082,-0.015,0.169,0.184,0.181,0.150,0.197,-0.118,-0.210,-0.277,-0.260,-0.063,-0.086,-0.120,-0.143,-0.125,-0.148,0.093,0.031,-0.066,0.041,-0.202,0.052,0.059,-0.020,-0.265,-0.076,-0.123,-0.061,-0.000,0.053,0.292,0.072,0.183,-0.114,-0.095,-0.124,-0.236,-0.168,-0.216,-0.029,-0.092,-0.129,-0.057,-0.090,-0.073,0.143,-0.076,-0.124,0.035,0.082,-0.003,-0.059,0.100,0.007,-0.026,-0.023,0.071,0.029,0.076,0.229,0.069,0.043,-0.001,-0.159,-0.188,0.036,0.006,0.070,-0.150,0.087,-0.051,-0.061,0.068,-0.118,-0.012,-0.061,-0.158,0.103,0.130,-0.083,0.043,0.076,-0.140,-0.041,-0.094,0.130,0.011,-0.027,0.155,-0.008,0.097,-0.016,-0.063,0.046,0.140,0.198,0.058,-0.026,-0.000,-0.064,0.020,-0.126,0.003,0.012,-0.018,-0.171,-0.089,-0.050,-0.012,0.054,0.005,0.159,0.055,-0.032,0.011,0.144,-0.062,-0.049,-0.148,0.111,0.022,0.218,0.033,0.213,0.170,0.023,0.093,0.020,0.143,-0.136,0.142,0.078,-0.089,-0.039,-0.035,0.003,-0.006,-0.003,-0.080,0.136,-0.124,0.140,0.143,0.016,0.020,-0.057,-0.078,0.025,-0.236,0.072,-0.096,-0.121,0.123,0.016,0.135,-0.100,0.009,0.015,-0.023,-0.013,-0.092,-0.110,-0.173,0.004,0.023,-0.143,-0.074,-0.146,0.001,0.028,-0.043,-0.093,-0.098,-0.137,-0.102,-0.044,-0.097,-0.042,-0.135,0.012,0.102,-0.045,-0.109,-0.031,0.133,0.132,-0.021,0.015,-0.066,0.131,0.018,-0.066,0.006,-0.010,-0.042,-0.181,0.006,-0.107,-0.080,-0.190,-0.079,-0.248,-0.130,-0.056,-0.125,-0.183,-0.154,0.032,0.002,-0.283,-0.021,-0.010,0.027,-0.268,-0.057,-0.064,-0.092,0.028,-0.145,-0.081,0.020,-0.145,-0.116,0.067,-0.100,-0.029,-0.054,0.003,-0.182,0.077,-0.132,-0.126,0.020,-0.039,-0.086,-0.057,-0.059,-0.047,0.052,-0.054,-0.191,0.055,-0.031,0.045,0.106,-0.042,0.145,-0.150,0.005,-0.065,-0.039,0.096,-0.168,-0.039,-0.037,0.085,-0.060,0.043,-0.026,-0.018,-0.055,-0.143,-0.064,-0.043,-0.022,0.172,0.032,0.001,0.146,0.055,-0.098,-0.068
-0.083,0.060,0.135,0.013,0.152,-0.040,-0.039,-0.024,0.053,0.056,0.098,-0.146,-0.162,-0.093,0.043,0.082,-0.162,-0.172,-0.031,0.065,0.061,-0.090,-0.081,0.102,-0.128,0.205,-0.262,-0.031,0.021,0.088,-0.126,0.085,0.059,-0.038,0.008,0.303,-0.014,-0.098,-0.183,0.065,0.004,-0.064,0.051,0.052,-0.068,0.038,0.006,0.015,0.001,-0.045,-0.080,0.104,0.035,0.043,-0.009,0.072,-0.059,-0.040,0.171,0.107,-0.019,-0.044,0.023,0.101,-0.026,-0.139,-0.113,0.126,-0.014,0.145,0.099,-0.067,-0.039,0.127,0.167,0.086,0.084,0.086,0.043,0.070,-0.057,0.057,0.083,0.166,-0.002,0.045,0.104,-0.001,-0.044,-0.028,0.055,-0.033,0.105,-0.060,0.068,-0.022,0.204,-0.015,0.067,0.064,-0.092,-0.176,0.048,-0.095,0.167,-0.013,-0.025,0.022,0.007,-0.005,-0.014,-0.086,-0.074,0.080,0.118,-0.043,0.127,0.020,-0.045,0.054,-0.044,0.181,-0.076,-0.090,-0.014,0.017,0.170,-0.094,0.231,0.072,-0.032,0.156,0.005,0.155,0.007,-0.077,0.079,-0.012,0.092,-0.139,-0.075,-0.101,0.067,-0.037,-0.088,0.089,0.000,0.013,0.136,0.064,0.025,-0.024,0.144,0.170,-0.004,0.148,0.033,-0.088,0.084,0.053,-0.009,0.047,-0.103,0.016,0.037,0.038,0.108,0.055,-0.004,0.091,-0.056,-0.066,0.088,0.039,0.133,-0.158,0.098,0.297,0.055,0.235,0.020,0.238,0.204,0.078,0.217,0.070,-0.169,-0.023,0.086,0.143,0.133,-0.047,-0.138,0.040,-0.036,0.023,-0.096,-0.010,-0.014,-0.041,0.133,-0.058,-0.022,0.012,0.022,0.047,0.055,0.240,0.065,-0.031,0.006,0.137,0.071,-0.029,-0.018,0.027,-0.062,0.192,-0.105,0.050,-0.013,-0.002,0.024,0.086,-0.068,0.046,0.020,-0.166,0.047,0.182,0.174,0.138,-0.013,0.042,0.294,-0.013,0.158,-0.019,-0.027,0.018,-0.023,0.009,0.074,-0.015,-0.075,-0.028,0.232,0.104,0.029,-0.027,0.097,0.178,0.016,-0.139,0.082,0.026,0.189,0.023,-0.093,0.180,0.324,0.112,0.123,0.069,-0.126,-0.016,0.009,0.172,-0.055,0.041,-0.027,-0.026,-0.035,0.085,-0.024,0.146,-0.022,0.077,-0.108,0.091,0.146,0.048,0.052,0.055,0.031,0.136,0.086,0.090,0.019,0.017,-0.013,0.016,-0.091,0.001,0.002,-0.085,-0.051,-0.110,-0.083,-0.131,-0.010,0.212,-0.084,-0.051,-0.115,-0.048,0.160,0.039,0.023,0.109,-0.030,0.023,0.123,-0.038,-0.193,-0.054,0.041,0.103,0.216,0.231,0.038,0.022,-0.016,0.101,0.115,-0.009,0.063,-0.003,-0.101,0.030,-0.020,0.226,-0.027,-0.051,-0.013,0.136,-0.131,-0.126,0.088,-0.041,-0.046,-0.105,0.025,0.025,-0.112,0.139,0.072,0.104,0.285,0.116,-0.087,-0.033,-0.064,0.156,0.016,-0.133,-0.053,-0.060,0.165,-0.097,-0.027,0.007,-0.255,0.040,-0.158,0.090,-0.019,0.062,-0.186,-0.172,-0.093,-0.193,0.063,-0.125,0.038,0.227,0.340,0.063,0.019,-0.119,0.100,0.142,0.091,0.114,0.144,-0.079,-0.031,0.057,-0.157,0.032,0.023,-0.042,0.003,-0.044,-0.035,-0.071,0.024,-0.001,-0.190,-0.279,-0.147,-0.157,0.041,0.131,0.181,0.052,-0.179,0.022,0.086,0.162,-0.032,0.098,0.042,0.234,0.109,0.124,-0.093,0.080,0.102,0.205,0.039,-0.003,0.075,0.119,-0.019,0.002,-0.259,-0.164,-0.261,-0.175,0.004,-0.007,0.152,0.069,0.003,-0.084,-0.069,0.002,0.076,0.037,0.155,0.103,0.010,-0.104,0.072,-0.022,0.077,-0.054,0.071,0.018,0.033,-0.145,0.006,-0.040,-0.034,0.060,-0.386,-0.237,-0.245,-0.111,-0.156,-0.014,-0.103,0.003,-0.014,0.109,-0.022,0.205,0.057,0.195,-0.013,0.095,-0.119,-0.005,0.029,0.038,-0.032,0.088,0.051,0.151,0.134,0.047,0.055,-0.162,-0.283,-0.388,-0.353,-0.332,-0.125,-0.226,0.093,-0.132,0.067,0.158,0.123,0.252,0.091,0.111,0.057,0.069,0.052,-0.018,0.100,-0.082,0.074,-0.011,0.183,-0.062,-0.013,0.065,0.103,-0.110,-0.275,-0.236,-0.364,-0.372,-0.394,-0.163,-0.173,-0.069,0.135,0.034,0.108,0.039,0.095,-0.063,0.030,-0.152,-0.080,-0.127,-0.009,-0.113,-0.003,0.024,-0.025,0.210,-0.070,0.058,0.061,-0.075,-0.060,-0.012,-0.149,-0.312,-0.095,-0.092,-0.120,-0.093,0.075,-0.040,0.029,-0.046,0.001,0.023,0.023,0.037,-0.126,-0.070,-0.043,0.107,0.094,-0.178,-0.137,-0.117,0.050,0.129,0.055,0.214,0.199,0.128,0.060,0.147,0.134,-0.047,0.164,0.163,0.001,0.106,0.132,-0.068,-0.137,0.029,-0.109,-0.266,0.018,0.134,-0.028,0.028,-0.064,0.014,0.081,0.055,0.128,0.057,0.295,0.270,0.220,0.338,0.273,0.321,0.221,0.107,0.131,-0.029,0.142,0.045,0.174,0.045,0.078,-0.055,-0.063,-0.281,-0.098,0.040,0.049,0.039,-0.257,0.007,0.067,0.121,0.146,0.110,0.204,0.084,0.173,0.238,0.332,0.301,0.124,0.224,0.140,0.027,0.214,0.067,0.021,0.046,0.226,-0.055,-0.118,-0.059,-0.222,0.082,-0.081,-0.027,-0.033,0.085,-0.081,-0.096,-0.005,-0.003,0.057,0.030,0.075,0.180,0.295,0.015,0.140,0.168,0.230,0.175,0.040,0.120,0.030,0.098,-0.089,-0.146,-0.052,-0.224,0.014,0.201,0.068,-0.007,-0.077,-0.075,-0.039,0.063,-0.098,0.177,0.126,-0.061,0.216,0.078,-0.017,0.086,0.083,0.045,-0.174,0.055,0.130,0.141,0.074,-0.333,-0.205,0.004,0.029,-0.032,-0.191,-0.093,0.004,-0.027,-0.106,0.086,-0.009,0.074,0.107,0.048,0.009,-0.071,0.139,0.035,-0.059,-0.184,-0.066,0.007,-0.065,-0.111,-0.056,-0.055,-0.064,-0.184,-0.055,-0.066,-0.072,0.004,-0.029,-0.047,-0.039,0.105,-0.147,0.112,-0.075,0.142,0.051,0.134,0.121,-0.031,0.022,0.218,-0.030,-0.031,-0.079,-0.030,0.010,0.018,0.087,-0.158,-0.081,0.039,0.010,-0.006,0.074,-0.043,0.043,0.015,-0.092,0.035,-0.099,-0.097,0.047,0.131,0.008,0.079,-0.061,0.057,-0.065,-0.159,-0.002,-0.105,0.079,0.165,-0.143,0.013,-0.118,-0.010,-0.117,-0.113,-0.016,-0.020,-0.009,0.014,-0.002,0.018,0.128,-0.006
0.101,0.077,-0.045,-0.065,-0.069,-0.042,-0.029,-0.002,0.163,0.003,-0.022,-0.088,0.168,0.042,0.079,0.005,0.045,0.023,-0.080,0.103,0.102,0.078,-0.027,-0.215,0.148,0.046,-0.006,-0.007,-0.151,0.094,0.190,0.060,0.114,0.011,0.025,0.005,-0.026,0.050,0.079,-0.008,-0.117,0.080,-0.093,-0.036,0.114,-0.197,0.089,0.165,-0.021,0.131,0.067,0.020,0.120,-0.000,0.096,0.116,-0.011,-0.071,-0.256,0.133,0.122,-0.042,-0.077,0.120,0.087,-0.045,0.048,0.027,0.139,-0.095,-0.032,-0.137,-0.053,0.033,-0.114,0.093,0.014,0.068,0.021,0.066,-0.069,-0.148,-0.021,-0.098,0.167,0.119,0.052,0.068,0.048,0.035,-0.032,-0.093,0.109,0.009,-0.163,0.111,0.041,0.228,0.109,0.324,-0.033,0.146,0.072,0.126,0.097,0.102,0.175,0.059,0.008,-0.002,0.031,0.035,0.073,0.054,0.030,0.208,0.118,0.018,0.038,0.028,0.018,0.071,-0.122,0.079,0.171,0.138,0.219,0.040,0.223,0.228,0.213,0.095,0.135,0.113,0.033,0.198,-0.005,0.076,0.114,-0.031,0.080,0.096,0.079,-0.059,0.071,0.058,-0.078,-0.107,-0.073,0.093,-0.058,-0.087,-0.056,0.115,0.035,0.129,0.147,0.183,0.175,0.086,0.078,0.306,0.131,-0.042,0.125,0.170,-0.138,-0.002,0.003,0.022,0.015,-0.090,-0.326,0.033,-0.216,-0.223,-0.178,-0.112,-0.158,-0.020,-0.081,-0.085,-0.029,-0.126,-0.101,-0.108,-0.085,0.187,0.002,0.102,0.041,0.040,0.033,0.034,-0.020,0.079,0.063,0.068,0.043,-0.079,-0.161,-0.130,-0.202,-0.064,-0.154,-0.163,0.038,-0.061,-0.052,0.030,-0.069,0.017,-0.072,-0.162,-0.112,-0.190,0.169,0.010,0.225,0.251,0.157,-0.034,-0.033,0.125,-0.158,-0.069,-0.004,-0.090,-0.206,-0.129,-0.133,-0.059,-0.210,-0.017,0.025,-0.048,-0.085,-0.086,0.001,0.072,-0.027,-0.283,-0.225,-0.153,-0.142,-0.149,0.059,0.166,0.244,0.192,0.002,0.213,-0.061,-0.053,-0.050,-0.216,-0.291,-0.047,-0.119,-0.027,-0.021,-0.076,0.049,0.043,-0.015,0.000,-0.046,-0.186,-0.115,-0.172,-0.151,-0.208,-0.198,-0.016,0.013,0.197,0.077,0.072,0.077,0.135,-0.128,0.053,-0.031,-0.296,-0.171,-0.063,-0.184,0.122,0.215,0.202,0.123,-0.020,0.029,0.174,0.069,-0.083,-0.248,-0.261,-0.231,-0.216,-0.145,-0.032,0.016,0.141,0.164,0.108,-0.047,0.031,-0.090,-0.038,-0.029,-0.065,-0.100,-0.118,0.024,-0.057,0.183,0.013,0.061,0.107,-0.040,0.114,-0.102,-0.290,-0.374,-0.268,-0.187,-0.152,-0.188,-0.213,0.021,0.120,-0.009,0.248,0.044,0.182,0.079,0.052,-0.069,-0.085,0.093,0.022,0.209,0.186,0.079,0.061,-0.003,0.170,0.352,0.335,-0.304,-0.099,-0.266,-0.466,-0.295,-0.200,-0.094,0.034,-0.141,0.125,0.115,0.154,-0.004,-0.026,-0.171,-0.094,0.042,0.064,0.016,0.143,0.058,-0.068,0.047,0.177,-0.006,0.216,0.226,0.073,-0.139,-0.131,-0.306,-0.186,-0.362,-0.041,-0.145,-0.136,0.055,0.105,0.064,0.043,-0.084,0.038,0.072,0.138,0.171,-0.174,-0.012,0.068,0.119,0.066,0.021,0.148,-0.005,0.211,-0.086,0.045,-0.192,-0.201,-0.090,-0.215,-0.243,-0.039,-0.065,-0.017,0.030,-0.019,-0.041,-0.009,-0.171,-0.006,0.075,0.001,-0.109,-0.209,0.043,-0.087,0.131,0.084,0.121,0.146,0.195,0.276,0.022,0.013,-0.208,-0.097,-0.164,-0.327,-0.171,-0.125,-0.057,-0.076,-0.059,-0.121,0.138,0.249,0.107,-0.085,-0.034,-0.008,-0.056,0.048,0.022,0.071,0.105,0.077,0.164,0.181,0.226,0.184,0.237,0.140,0.092,-0.078,-0.219,-0.041,-0.112,0.049,0.049,-0.058,-0.217,0.156,0.062,0.000,-0.101,0.016,-0.000,0.085,-0.010,0.006,0.020,0.170,0.252,0.195,0.355,0.296,0.162,0.195,0.242,0.038,0.063,0.059,-0.079,-0.020,-0.090,0.049,-0.076,0.115,-0.012,0.155,0.014,0.256,-0.018,0.029,0.052,0.067,-0.081,-0.057,-0.046,0.140,0.249,0.229,0.395,0.201,0.351,0.172,0.367,0.107,0.244,0.072,0.020,0.146,0.002,0.113,0.101,-0.040,0.019,0.222,0.179,0.092,-0.055,0.102,-0.071,-0.069,0.187,-0.073,0.136,0.076,0.173,0.066,0.213,0.304,0.317,0.412,0.280,0.202,0.180,0.011,-0.055,0.146,0.091,0.115,0.246,0.062,0.021,0.154,0.086,0.048,0.022,0.046,0.090,0.062,-0.025,-0.157,0.008,0.147,0.108,0.208,0.227,0.161,0.262,0.126,0.160,0.252,0.272,0.139,0.076,0.122,0.166,0.094,0.035,0.072,0.107,0.259,0.093,0.109,0.171,-0.056,-0.096,-0.108,-0.034,-0.167,-0.064,-0.063,-0.017,0.187,0.154,0.125,0.133,0.153,0.280,0.156,0.123,0.180,0.132,-0.050,-0.024,-0.029,0.167,0.004,0.098,0.266,-0.011,0.019,0.101,0.057,0.037,0.115,-0.054,-0.083,-0.235,-0.121,0.024,-0.070,0.010,0.062,0.206,0.157,0.111,0.127,-0.002,-0.027,0.025,0.067,-0.131,0.086,0.115,0.103,-0.022,0.126,-0.060,0.088,0.056,0.082,-0.116,-0.057,-0.030,-0.190,-0.031,0.032,-0.074,-0.104,0.037,-0.192,0.122,0.020,0.122,-0.096,0.087,0.016,0.103,0.019,-0.155,-0.047,0.079,0.029,-0.038,0.051,-0.080,0.026,0.027,-0.041,0.003,-0.011,0.104,-0.086,0.067,-0.169,-0.025,-0.319,-0.133,-0.140,0.038,0.099,-0.075,0.120,0.039,0.037,-0.110,-0.019,0.061,-0.073,-0.173,-0.083,0.039,0.084,0.001,0.056,-0.058,0.022,-0.113,-0.085,0.122,-0.018,0.092,-0.096,-0.055,-0.229,-0.190,-0.219,-0.193,-0.268,-0.182,-0.148,0.001,0.006,-0.116,0.003,0.050,-0.023,-0.107,-0.105,-0.031,0.080,0.043,-0.026,-0.027,-0.122,0.030,0.152,0.040,-0.000,-0.092,0.050,-0.002,0.054,-0.139,-0.022,-0.099,-0.078,-0.095,0.032,0.014,-0.160,-0.001,0.007,0.186,0.026,0.099,0.096,-0.054,-0.022,0.067,0.136,-0.029,0.140,-0.087,-0.053,-0.066,0.035,0.049,0.020,-0.126,0.069,-0.135,0.036,-0.069,-0.022,-0.110,0.106,-0.174,0.138,0.024,0.045,-0.019,-0.049,0.213,-0.133,0.025,-0.046,0.021,-0.031,0.010,-0.084
-0.113,-0.085,-0.031,-0.061,-0.045,0.179,0.108,0.054,0.237,0.093,0.011,-0.072,-0.098,-0.061,-0.010,0.045,-0.003,0.028,-0.042,-0.131,0.026,-0.018,0.024,0.081,-0.187,-0.056,-0.133,-0.044,0.060,-0.024,-0.092,-0.030,0.161,-0.102,0.122,0.024,0.045,-0.033,-0.114,-0.050,0.028,0.175,-0.011,0.053,0.132,0.046,0.073,-0.026,0.048,-0.112,-0.089,0.124,-0.001,-0.041,0.007,0.084,0.024,0.027,-0.218,0.021,0.165,0.067,-0.108,-0.110,-0.010,0.049,0.057,0.052,0.044,0.055,-0.060,0.244,0.173,0.063,0.098,-0.024,0.050,0.055,0.031,0.004,-0.006,-0.124,-0.080,0.174,0.011,-0.030,0.009,0.015,0.020,0.052,0.078,0.073,0.050,-0.073,0.061,0.099,-0.008,0.044,0.203,0.051,-0.098,-0.038,0.011,0.129,-0.110,-0.114,0.183,-0.110,0.123,0.110,0.068,-0.030,0.135,0.007,-0.082,-0.092,-0.028,-0.074,0.057,0.081,-0.066,0.146,0.100,0.257,-0.047,0.096,0.130,-0.034,-0.002,-0.175,-0.199,-0.132,-0.067,-0.008,-0.061,0.090,0.026,0.040,0.076,-0.020,0.027,-0.169,0.059,-0.012,-0.125,0.083,-0.045,0.048,0.132,0.025,0.257,0.182,0.174,0.296,0.167,0.149,-0.116,-0.263,-0.146,-0.187,-0.200,-0.187,-0.037,0.142,0.064,-0.092,-0.019,-0.119,0.060,-0.099,-0.015,0.070,-0.007,0.033,-0.011,0.000,0.122,0.079,0.037,0.172,0.119,0.172,0.213,0.300,0.358,0.141,-0.242,-0.286,-0.304,-0.366,-0.297,-0.157,0.062,0.097,-0.071,0.089,-0.025,-0.077,-0.008,-0.022,-0.143,0.186,0.015,-0.081,0.105,-0.062,0.035,-0.096,-0.103,0.036,0.158,0.416,0.286,0.211,-0.027,-0.115,-0.351,-0.071,-0.239,-0.127,-0.054,0.050,0.053,-0.002,0.097,0.005,-0.152,0.139,-0.026,0.048,0.071,0.080,0.018,-0.142,-0.004,-0.073,-0.049,-0.048,0.174,0.262,0.305,0.187,-0.061,-0.116,-0.142,-0.390,-0.238,-0.109,-0.108,0.020,0.055,0.145,-0.103,-0.070,0.122,0.156,0.031,-0.009,0.036,0.076,-0.016,-0.007,0.099,-0.146,0.078,0.167,0.415,0.448,0.350,-0.125,-0.195,-0.165,-0.175,-0.281,-0.279,-0.224,0.025,0.192,-0.017,-0.059,0.050,-0.088,0.019,0.075,-0.044,-0.113,0.133,-0.043,-0.055,0.091,-0.022,0.186,-0.035,0.290,0.429,0.489,0.016,-0.233,-0.191,-0.188,-0.141,0.009,-0.094,0.112,-0.099,0.245,-0.019,-0.163,-0.006,0.166,-0.110,-0.052,0.012,-0.055,-0.054,-0.006,0.054,0.175,0.019,0.151,0.213,0.083,0.493,0.206,-0.089,-0.213,-0.142,-0.094,-0.129,0.023,-0.039,0.173,0.058,0.179,0.200,0.112,-0.134,0.069,-0.025,0.284,0.056,-0.009,0.056,0.064,0.117,0.064,0.140,0.041,-0.197,0.156,0.337,0.106,-0.115,-0.044,-0.181,-0.026,-0.038,0.087,0.043,0.093,0.285,0.194,0.095,-0.013,-0.048,-0.084,-0.026,0.120,-0.034,0.066,-0.083,0.011,0.059,-0.048,0.090,-0.172,-0.202,0.261,0.141,0.156,0.119,-0.187,-0.217,-0.057,-0.080,0.063,-0.113,-0.024,0.000,0.058,0.015,0.099,-0.068,-0.006,-0.103,-0.017,0.055,-0.139,0.100,0.145,-0.088,-0.030,-0.081,-0.036,-0.149,-0.004,-0.135,0.136,-0.102,-0.127,-0.070,0.074,0.053,0.114,-0.013,-0.020,0.043,0.177,-0.095,-0.002,-0.088,-0.014,-0.072,0.020,-0.034,0.100,0.156,0.028,-0.117,-0.123,-0.107,0.051,0.056,-0.060,-0.023,-0.085,0.032,-0.136,-0.076,-0.039,-0.040,0.030,-0.049,0.167,0.047,0.159,-0.024,-0.033,-0.004,-0.018,-0.170,-0.056,-0.152,0.027,0.022,-0.145,-0.072,-0.085,0.026,0.069,-0.068,-0.219,-0.057,0.017,0.118,0.116,0.055,0.061,-0.098,0.077,0.146,0.137,0.041,0.141,-0.023,0.139,0.035,0.072,0.013,-0.132,-0.129,0.039,0.031,-0.045,-0.158,-0.050,0.210,0.258,-0.113,-0.019,-0.061,0.129,0.149,0.046,0.013,0.005,0.060,-0.090,-0.092,0.159,0.094,-0.043,0.122,0.011,0.050,0.151,-0.017,0.036,-0.209,-0.137,-0.112,-0.057,-0.256,-0.126,0.116,0.024,-0.229,0.072,-0.060,0.017,0.186,0.207,0.051,0.094,-0.023,0.072,0.001,0.012,0.270,0.014,0.037,-0.002,-0.012,-0.001,-0.176,0.004,-0.054,-0.020,-0.144,-0.029,-0.241,-0.092,0.067,0.288,0.158,0.148,0.250,-0.123,0.169,0.288,0.213,0.098,0.178,0.126,-0.024,0.009,-0.004,0.025,0.078,0.227,-0.015,-0.107,0.033,0.141,0.058,-0.104,-0.189,-0.078,-0.114,-0.073,-0.042,0.037,0.149,0.229,-0.005,0.162,0.018,0.217,0.110,0.211,0.062,0.071,-0.073,0.079,0.049,0.065,-0.208,0.195,0.025,-0.157,-0.064,0.039,-0.044,-0.063,-0.122,-0.163,-0.056,-0.219,-0.051,0.014,-0.076,0.136,0.122,0.037,0.016,0.079,0.239,0.016,0.083,0.082,0.179,0.154,0.052,-0.053,0.067,0.014,0.153,0.103,-0.125,-0.170,0.027,-0.126,-0.013,-0.227,-0.042,0.035,-0.116,0.032,0.049,-0.111,0.200,0.097,-0.031,0.110,0.110,-0.059,-0.138,0.071,-0.023,0.084,0.059,-0.017,0.185,0.011,0.122,0.097,0.103,0.093,-0.019,-0.020,0.057,-0.031,-0.053,-0.015,-0.226,-0.354,0.001,-0.025,-0.053,-0.135,0.080,-0.127,-0.041,0.056,-0.002,0.066,0.205,0.116,-0.034,-0.104,-0.006,-0.048,0.013,0.037,-0.001,-0.003,-0.048,-0.030,-0.006,0.042,0.071,0.043,-0.003,-0.032,0.076,-0.036,-0.016,0.042,-0.030,0.034,0.062,0.062,0.167,0.275,0.053,-0.130,-0.160,-0.057,-0.148,0.119,-0.161,-0.095,-0.108,0.057,0.124,-0.009,0.169,0.094,0.093,0.443,0.229,0.092,0.058,0.102,-0.022,0.061,0.080,-0.026,0.150,0.237,0.040,0.105,-0.129,0.010,0.085,0.102,-0.105,-0.037,-0.254,-0.156,-0.143,0.001,-0.076,0.052,-0.007,-0.050,-0.093,0.043,0.059,0.000,0.073,0.143,0.266,0.202,0.234,0.244,-0.043,0.007,-0.012,0.071,0.061,0.040,0.144,0.212,0.020,0.082,0.028,-0.224,0.022,0.015,0.102,-0.055,-0.137,-0.011,0.048,0.026,0.048,-0.072,-0.006,0.040,0.072,0.074,0.013,0.078,0.169,-0.070,0.013,0.053,-0.003,-0.071,0.056,0.071,0.026,0.048
0.016,0.083,-0.025,-0.099,0.042,0.095,0.038,-0.035,-0.153,-0.035,0.106,-0.102,0.074,0.054,0.010,-0.042,-0.088,-0.101,-0.056,0.041,0.040,-0.017,-0.030,-0.055,0.029,-0.202,0.113,0.146,-0.137,-0.095,0.035,-0.017,-0.184,0.150,-0.075,-0.158,0.057,0.002,-0.035,0.023,-0.079,-0.190,-0.096,0.050,0.056,0.027,-0.065,-0.036,0.067,-0.019,0.007,-0.004,-0.066,-0.079,0.086,0.014,0.011,0.039,-0.051,-0.055,-0.079,0.054,-0.078,0.028,-0.112,0.013,-0.106,0.021,-0.031,-0.057,-0.033,-0.172,-0.140,0.012,0.127,-0.011,-0.092,-0.027,-0.145,0.103,-0.133,-0.069,0.055,-0.116,0.075,0.084,-0.215,0.064,-0.009,0.136,-0.141,-0.079,-0.015,0.057,-0.094,-0.022,-0.021,-0.084,0.023,-0.178,-0.101,-0.104,0.064,-0.112,-0.105,-0.076,0.095,0.052,0.026,-0.015,0.119,0.039,0.080,-0.020,0.005,-0.051,0.027,0.016,-0.093,-0.051,-0.126,-0.071,0.213,0.096,0.059,-0.093,0.038,-0.126,-0.013,-0.055,-0.109,0.102,-0.138,-0.075,-0.116,-0.087,0.109,-0.030,0.049,0.147,-0.133,0.041,-0.028,-0.066,-0.053,0.076,0.187,-0.010,-0.001,0.007,-0.046,-0.053,-0.102,0.013,0.005,0.079,-0.013,-0.033,-0.029,-0.042,-0.052,-0.025,-0.063,-0.002,-0.086,-0.088,0.058,-0.065,-0.073,-0.075,-0.018,0.052,0.082,0.191,0.157,-0.006,-0.060,0.113,-0.068,-0.071,-0.012,0.056,-0.055,0.121,0.067,0.211,0.045,-0.132,-0.044,-0.117,-0.056,-0.061,0.067,0.025,0.056,0.178,-0.070,0.015,0.164,0.145,-0.114,-0.024,-0.056,0.013,0.008,-0.196,0.015,-0.005,-0.176,0.091,-0.047,0.259,0.122,0.085,0.020,-0.101,0.026,-0.166,-0.105,-0.056,0.097,0.018,-0.067,0.043,-0.006,0.043,-0.071,0.101,-0.017,-0.040,-0.024,-0.062,0.039,-0.030,0.020,-0.093,0.008,0.129,0.291,0.036,0.069,0.074,0.016,0.046,0.069,-0.011,0.083,0.196,0.122,0.053,0.010,-0.024,-0.047,0.045,-0.029,-0.053,0.063,0.037,0.026,-0.020,0.046,0.092,-0.103,-0.132,-0.206,0.226,0.148,0.158,0.090,-0.077,0.074,0.048,0.101,0.065,0.087,0.145,0.035,0.023,0.090,-0.009,-0.040,-0.059,-0.049,-0.102,0.168,-0.044,0.020,-0.013,0.084,-0.125,-0.184,-0.162,-0.014,0.398,0.112,0.184,0.111,-0.012,-0.178,-0.026,0.035,0.215,0.199,-0.001,0.039,0.066,-0.007,-0.121,0.011,0.212,0.056,0.081,0.017,-0.198,0.092,0.127,-0.038,-0.139,-0.148,0.014,0.175,0.170,0.173,-0.022,-0.170,-0.125,-0.106,-0.098,-0.090,0.159,0.089,0.014,0.074,0.046,-0.033,0.020,0.095,0.023,-0.170,0.060,0.047,-0.071,0.196,0.123,0.068,-0.096,-0.156,0.095,0.214,0.238,0.128,-0.016,-0.030,0.002,-0.127,-0.120,0.007,-0.009,0.206,0.053,-0.016,-0.086,-0.061,-0.037,0.051,0.090,0.002,0.030,0.089,0.039,0.038,-0.000,-0.067,0.083,0.063,0.264,0.242,0.174,0.155,0.041,0.012,-0.077,0.014,-0.080,0.020,-0.137,0.062,0.172,-0.057,-0.020,0.062,-0.116,-0.018,0.063,-0.030,0.166,0.077,0.092,0.113,-0.005,-0.102,-0.029,0.064,0.055,0.377,0.035,0.263,0.017,-0.059,-0.129,0.157,-0.077,-0.148,-0.130,0.133,0.130,-0.039,-0.005,-0.132,-0.036,-0.159,0.054,0.071,0.051,-0.103,0.070,0.089,-0.228,-0.227,-0.166,-0.118,0.282,0.124,0.102,-0.001,0.088,0.164,-0.006,-0.043,-0.058,-0.041,-0.018,0.083,-0.008,0.006,-0.164,-0.100,-0.053,-0.045,-0.039,-0.062,0.089,0.055,0.281,-0.161,-0.213,-0.489,-0.605,-0.428,-0.173,-0.102,-0.099,-0.136,0.031,0.000,-0.092,-0.019,-0.042,0.026,-0.024,0.022,0.037,-0.099,-0.103,0.031,0.012,-0.033,0.036,-0.001,-0.025,-0.066,0.001,-0.152,-0.354,-0.482,-0.640,-0.755,-0.607,-0.596,-0.282,-0.058,-0.011,-0.049,0.068,-0.231,-0.208,-0.161,-0.104,-0.021,-0.021,-0.151,0.019,0.016,0.021,0.140,0.076,-0.083,0.157,-0.063,-0.014,-0.113,-0.232,-0.360,-0.472,-0.572,-0.574,-0.545,-0.324,-0.105,-0.007,-0.014,-0.038,-0.147,-0.146,-0.164,0.038,0.082,-0.182,-0.015,-0.049,-0.042,-0.061,0.150,0.129,0.100,0.072,0.213,-0.047,0.051,-0.193,-0.008,-0.331,-0.193,-0.372,-0.069,-0.137,0.002,-0.061,-0.213,-0.251,-0.170,-0.029,-0.103,-0.063,-0.156,-0.212,-0.055,0.072,-0.031,-0.031,-0.083,0.103,-0.042,0.153,0.017,-0.135,-0.103,-0.067,0.138,0.113,0.125,0.096,-0.089,-0.092,-0.014,-0.184,-0.052,-0.101,-0.187,-0.224,-0.081,0.031,-0.094,-0.232,-0.149,0.099,-0.020,0.073,-0.206,0.004,0.020,0.023,0.019,-0.081,0.074,0.043,0.121,0.149,0.257,0.205,0.091,0.079,-0.072,0.018,-0.081,-0.216,-0.266,-0.064,-0.075,-0.046,-0.111,0.044,0.011,-0.117,0.017,-0.008,-0.100,0.024,-0.150,-0.025,-0.165,0.097,0.182,-0.014,0.144,0.183,0.162,0.195,0.044,0.069,0.008,-0.018,-0.036,-0.136,-0.219,0.062,-0.089,-0.180,0.002,-0.115,-0.002,-0.073,0.040,-0.021,0.098,-0.024,-0.165,-0.122,0.152,0.213,0.064,0.107,0.090,0.080,0.203,0.118,0.047,0.051,0.129,0.029,0.013,-0.186,0.022,-0.107,-0.194,-0.020,-0.098,-0.024,-0.170,0.037,0.139,0.116,0.203,0.075,-0.099,-0.060,-0.065,0.075,0.035,0.079,0.114,0.047,0.118,-0.058,0.019,-0.121,0.013,0.019,0.064,0.005,-0.146,-0.087,-0.008,-0.310,-0.043,0.003,0.152,-0.094,0.089,0.169,-0.187,-0.062,0.040,-0.077,-0.008,0.215,0.044,0.043,0.015,0.127,0.142,-0.085,0.005,-0.051,-0.148,-0.072,-0.118,-0.211,-0.117,-0.101,-0.123,0.097,-0.064,-0.063,-0.036,-0.141,-0.061,-0.136,-0.072,-0.127,-0.128,-0.075,-0.036,0.169,-0.088,-0.036,0.062,-0.037,0.025,-0.180,-0.014,-0.105,-0.045,0.149,0.009,-0.111,-0.077,0.112,-0.082,0.003,-0.028,-0.047,-0.002,0.024,0.156,0.100,0.027,-0.119,0.111,-0.151,0.138,0.008,-0.042,-0.090,-0.041,-0.111,-0.013,0.024,-0.072,0.029,-0.007,-0.096,-0.114,0.164,-0.058,-0.100,0.018,-0.133,-0.015,0.017,-0.070,0.126,0.011,0.099
