0.103,0.078,-0.091,0.076,-0.110,0.094,-0.142,0.077,-0.022,-0.027,-0.160,-0.221,0.070,-0.082,-0.035,0.070,-0.052,-0.159,0.005,0.109,-0.017,-0.050,-0.051,0.145,-0.060,-0.083,-0.113,0.070,-0.107,0.051,0.012,-0.026,-0.163,-0.178,0.068,0.009,0.016,-0.006,0.037,-0.098,-0.056,0.019,-0.128,-0.002,-0.132,0.097,0.048,0.022,-0.126,0.148,-0.096,0.063,-0.067,-0.024,-0.052,-0.019,-0.038,0.069,-0.031,0.064,-0.080,-0.060,-0.141,0.009,0.100,0.098,0.036,-0.066,-0.050,0.093,0.058,-0.025,-0.025,-0.047,0.113,0.092,0.009,-0.162,-0.055,0.161,0.009,-0.073,-0.054,0.074,-0.012,0.045,-0.059,-0.024,-0.126,-0.095,0.037,0.028,-0.110,-0.154,-0.031,0.084,0.010,0.050,-0.116,-0.250,-0.101,-0.023,-0.033,-0.109,-0.172,0.086,0.034,-0.164,0.066,-0.181,-0.018,-0.012,-0.144,0.012,0.178,-0.006,0.016,-0.018,-0.133,-0.193,-0.049,-0.048,-0.318,-0.052,-0.214,-0.186,-0.186,-0.136,-0.098,-0.027,-0.194,-0.187,-0.083,0.035,-0.153,-0.146,0.106,-0.069,-0.124,-0.018,0.040,-0.111,-0.063,-0.130,-0.034,-0.001,-0.045,-0.072,-0.163,-0.278,-0.219,-0.417,-0.300,-0.405,-0.278,-0.081,-0.030,-0.037,-0.078,-0.161,-0.006,0.037,0.007,0.140,0.073,-0.005,0.088,0.100,0.005,-0.150,-0.115,-0.093,0.068,0.017,-0.084,-0.117,-0.073,-0.360,-0.345,-0.621,-0.521,-0.502,-0.204,0.295,0.299,0.229,0.074,-0.128,-0.145,-0.025,-0.110,-0.074,-0.048,0.030,-0.119,0.099,-0.110,0.014,-0.060,0.014,0.034,0.061,-0.163,-0.076,-0.083,-0.203,-0.281,-0.220,-0.453,-0.364,-0.147,0.323,0.438,0.387,-0.051,-0.069,-0.046,-0.106,-0.132,-0.130,-0.191,0.009,-0.095,0.115,0.027,-0.129,-0.020,0.055,0.120,-0.070,0.119,0.057,-0.012,0.023,0.095,-0.125,-0.207,-0.206,-0.003,0.171,0.117,-0.148,-0.153,-0.025,-0.119,-0.122,-0.036,-0.278,0.032,-0.204,-0.221,0.096,-0.004,-0.025,0.044,0.023,0.080,0.136,0.212,0.247,-0.015,0.249,0.247,0.076,-0.137,-0.217,-0.298,-0.007,0.050,-0.243,-0.500,-0.269,-0.066,-0.053,-0.085,-0.204,0.151,-0.113,-0.160,-0.082,0.056,-0.074,0.052,0.063,0.056,0.335,0.434,0.263,0.243,0.241,0.421,0.357,-0.005,-0.131,-0.447,-0.384,-0.051,-0.153,-0.499,-0.087,-0.088,0.011,0.027,0.055,0.188,-0.041,-0.033,-0.091,-0.031,0.022,0.116,0.061,0.097,0.320,0.289,0.381,0.403,0.574,0.582,0.606,0.146,-0.385,-0.202,-0.090,0.093,0.022,-0.079,-0.089,-0.193,0.042,0.034,-0.111,0.186,-0.071,-0.049,0.036,0.001,0.067,0.205,0.258,0.039,0.306,0.308,0.314,0.459,0.650,0.642,0.354,-0.287,-0.656,-0.269,0.075,0.166,0.038,-0.108,0.043,0.181,0.152,0.072,0.062,0.008,-0.009,0.105,0.072,-0.053,0.169,0.306,0.084,-0.030,0.094,0.099,0.214,0.358,0.423,0.091,-0.063,-0.609,-0.618,-0.432,0.048,-0.093,0.007,0.074,-0.056,0.057,-0.018,0.009,0.079,0.140,0.037,0.008,-0.010,0.007,0.039,0.108,-0.023,-0.135,0.043,0.134,0.070,0.014,-0.018,-0.038,-0.528,-0.865,-0.813,-0.498,-0.285,-0.303,-0.272,-0.025,0.143,0.058,-0.013,0.116,0.152,-0.018,-0.045,-0.061,0.078,0.031,-0.093,0.065,0.129,-0.013,-0.111,-0.043,-0.037,-0.134,0.112,-0.152,-0.397,-0.618,-0.527,-0.353,-0.175,-0.346,0.071,-0.078,0.028,0.079,0.154,0.053,0.119,0.002,-0.077,-0.020,0.020,-0.001,0.025,0.022,-0.133,-0.289,-0.154,-0.114,-0.036,-0.021,0.037,-0.385,-0.550,-0.533,-0.582,-0.162,-0.073,-0.111,0.013,0.043,0.124,0.021,0.090,-0.001,-0.016,0.136,0.082,-0.223,0.034,-0.010,0.019,-0.066,-0.000,-0.110,-0.313,-0.148,0.181,0.066,-0.024,-0.317,-0.547,-0.608,-0.364,-0.112,0.038,-0.074,-0.093,-0.069,-0.029,0.000,-0.058,-0.109,-0.180,-0.023,0.049,0.022,-0.019,0.031,-0.012,-0.178,-0.127,-0.187,0.004,-0.206,-0.209,-0.145,-0.103,-0.380,-0.606,-0.496,-0.385,0.040,0.160,0.032,-0.150,-0.101,-0.089,0.005,-0.092,-0.192,-0.330,-0.100,-0.148,0.024,-0.117,0.106,0.046,-0.052,-0.170,-0.143,-0.104,-0.050,-0.236,-0.124,-0.436,-0.429,-0.407,-0.453,-0.365,-0.077,0.043,-0.084,-0.096,-0.097,-0.010,-0.131,-0.108,-0.182,-0.077,-0.035,-0.006,-0.146,0.033,0.015,0.105,-0.082,-0.034,-0.112,-0.124,-0.287,-0.232,-0.316,-0.105,-0.241,-0.517,-0.022,-0.039,-0.110,-0.172,0.024,-0.081,0.036,-0.121,0.107,-0.057,0.138,-0.166,-0.027,0.056,0.105,-0.105,0.027,-0.101,-0.089,0.022,-0.042,-0.200,-0.149,-0.217,-0.283,-0.221,-0.180,-0.279,-0.296,-0.470,-0.111,0.045,0.148,0.080,0.144,0.157,-0.103,0.018,0.025,0.068,0.023,0.140,0.023,-0.109,-0.106,-0.095,0.045,-0.103,-0.048,0.078,0.022,0.048,-0.240,-0.397,-0.115,-0.228,-0.161,-0.205,-0.218,0.168,0.038,0.249,0.210,0.350,0.188,0.200,-0.160,-0.029,-0.107,-0.061,0.068,0.061,0.154,0.056,0.129,0.064,0.021,0.216,0.071,0.103,-0.226,-0.098,-0.374,-0.108,-0.077,-0.333,-0.127,-0.133,0.049,0.175,0.107,0.231,0.195,0.070,0.081,0.061,-0.126,-0.035,0.040,0.074,-0.025,0.126,0.015,0.042,0.040,0.065,0.009,0.005,0.024,-0.150,-0.067,-0.166,-0.060,-0.208,-0.174,-0.020,0.075,0.121,0.268,0.211,0.132,0.118,-0.141,0.028,0.057,0.011,-0.059,0.044,0.170,-0.146,0.054,0.082,-0.135,0.226,-0.088,-0.126,0.094,-0.249,0.104,0.072,-0.025,0.138,0.095,0.103,0.110,0.078,-0.002,-0.025,0.051,-0.097,-0.129,-0.001,-0.113,-0.065,-0.070,-0.097,0.046,-0.014,0.142,0.111,0.030,-0.105,0.005,-0.023,0.198,-0.015,-0.032,0.097,-0.008,-0.105,-0.154,0.012,-0.308,-0.190,-0.197,-0.100,-0.028,0.047,-0.113,0.005,-0.007,-0.102,-0.109,0.089,0.130,-0.091,-0.163,0.007,0.133,-0.029,0.052,-0.049,0.130,0.142,0.117,0.072,-0.050,-0.050,-0.110,-0.150,0.033,-0.248,0.165,0.039,-0.051,-0.087,0.134,-0.019,0.142,0.133,-0.084,-0.052
-0.022,0.173,0.007,-0.018,0.207,-0.114,0.099,0.104,-0.015,0.064,0.105,0.011,0.076,-0.066,0.120,0.190,-0.140,-0.033,0.026,-0.139,0.045,-0.186,-0.091,0.052,-0.046,-0.017,0.026,-0.089,0.040,-0.005,0.019,-0.006,-0.030,0.043,-0.141,0.035,-0.093,-0.039,0.112,0.059,0.025,0.060,0.178,0.095,0.020,-0.094,0.089,0.025,0.100,-0.045,0.111,-0.112,-0.022,-0.040,-0.026,-0.009,0.088,0.031,-0.113,0.170,-0.071,0.096,-0.076,-0.124,-0.020,-0.069,-0.117,-0.143,-0.037,-0.028,0.057,0.109,-0.028,0.023,-0.035,-0.069,-0.028,0.077,-0.034,-0.068,-0.062,0.021,-0.129,-0.104,0.026,-0.065,0.113,-0.064,0.018,0.026,0.066,-0.049,-0.043,-0.041,-0.019,-0.069,-0.065,0.073,0.012,0.018,-0.023,0.114,0.046,-0.031,0.161,-0.270,0.006,-0.071,0.103,-0.092,-0.118,0.194,0.119,-0.079,0.009,-0.037,-0.011,-0.031,-0.138,0.060,0.221,-0.023,-0.137,0.050,-0.020,0.081,-0.126,-0.080,-0.053,-0.082,-0.075,0.015,-0.036,0.065,0.087,0.102,0.046,-0.064,-0.005,-0.164,0.159,0.008,0.025,-0.062,0.178,0.170,-0.016,0.016,0.001,0.045,-0.016,0.098,0.082,-0.046,-0.090,-0.039,-0.088,0.095,-0.068,-0.247,0.065,-0.135,-0.130,0.198,-0.020,-0.074,0.022,-0.113,0.047,-0.044,-0.135,-0.036,0.046,0.057,-0.202,-0.045,0.131,-0.089,-0.036,-0.035,-0.223,-0.175,-0.223,-0.166,-0.123,0.009,-0.053,0.037,-0.092,-0.026,-0.196,0.054,-0.017,0.016,-0.083,-0.055,0.073,-0.082,0.006,0.061,0.031,-0.031,0.047,0.060,-0.080,-0.037,-0.011,0.003,-0.190,-0.160,-0.134,-0.128,0.052,-0.053,-0.225,-0.186,-0.007,0.087,0.054,-0.014,-0.096,-0.110,0.060,-0.044,0.008,0.024,0.008,-0.112,0.006,-0.086,0.056,-0.087,0.195,-0.122,-0.095,-0.174,-0.191,0.030,-0.309,0.003,0.054,-0.142,-0.022,-0.074,0.035,-0.085,0.040,0.156,0.159,-0.059,-0.016,-0.098,-0.040,-0.100,0.026,-0.080,-0.035,-0.104,0.167,-0.092,-0.002,-0.250,-0.133,-0.136,0.074,-0.126,-0.123,-0.113,-0.075,-0.104,-0.122,-0.101,-0.114,0.017,0.103,-0.121,-0.120,-0.008,0.063,0.257,0.013,0.108,-0.068,0.048,-0.024,-0.033,-0.169,-0.037,-0.158,-0.164,-0.049,-0.133,0.032,0.047,-0.203,-0.060,-0.157,-0.145,-0.093,-0.066,-0.184,0.149,0.026,-0.069,0.146,0.012,0.064,0.069,0.029,-0.036,-0.066,-0.062,-0.090,-0.114,-0.090,0.024,-0.254,-0.127,0.112,0.075,0.077,-0.071,-0.236,-0.307,-0.147,-0.085,-0.178,-0.164,-0.069,-0.146,-0.156,-0.150,0.043,-0.026,-0.101,0.070,-0.015,0.076,0.017,-0.052,-0.105,0.075,-0.065,-0.045,-0.247,-0.103,-0.031,0.076,-0.063,-0.023,-0.249,-0.218,-0.035,-0.056,-0.150,-0.224,-0.049,0.104,-0.031,-0.154,-0.266,0.061,-0.074,-0.268,-0.177,-0.016,0.052,0.039,0.067,-0.033,-0.007,0.116,-0.168,-0.111,0.130,-0.077,-0.099,-0.104,-0.256,-0.271,-0.161,-0.016,-0.113,-0.240,-0.094,-0.199,-0.145,-0.141,-0.086,0.076,-0.119,0.041,0.011,0.161,-0.038,0.037,0.165,0.110,0.070,0.086,-0.108,-0.079,-0.036,-0.001,-0.087,-0.344,-0.417,-0.183,-0.159,-0.090,-0.282,-0.129,0.005,-0.107,-0.093,-0.041,-0.072,0.026,-0.009,-0.139,0.035,-0.062,-0.049,0.057,0.188,0.093,-0.068,0.010,-0.293,-0.139,-0.100,-0.143,-0.017,-0.249,-0.355,-0.179,0.010,-0.045,-0.014,-0.088,0.102,0.046,0.005,-0.057,-0.039,0.023,0.019,-0.169,0.176,0.013,-0.022,-0.018,-0.152,-0.127,-0.107,-0.063,-0.140,-0.255,0.074,-0.119,-0.194,-0.165,-0.225,-0.090,-0.036,-0.156,-0.239,-0.228,-0.105,-0.208,-0.085,0.043,0.040,0.006,-0.114,0.009,-0.098,0.071,-0.134,-0.063,-0.106,0.069,-0.055,-0.155,-0.096,-0.087,-0.012,-0.127,-0.146,-0.330,-0.256,-0.141,0.005,0.063,0.049,-0.033,-0.151,0.015,0.127,-0.056,0.021,-0.202,0.023,0.012,0.057,-0.060,0.037,0.095,0.015,-0.035,0.069,-0.013,-0.012,-0.061,0.047,-0.159,-0.143,-0.005,-0.146,-0.149,-0.105,0.016,-0.008,-0.168,-0.001,-0.051,0.097,-0.078,-0.036,0.010,-0.085,0.081,-0.047,0.007,-0.013,0.022,0.098,-0.031,0.123,-0.046,0.001,-0.123,-0.017,-0.189,-0.104,-0.201,-0.011,-0.301,-0.187,-0.117,-0.094,-0.133,-0.129,-0.010,0.111,0.209,0.045,-0.054,-0.019,-0.020,0.032,-0.019,0.038,0.105,-0.090,-0.152,-0.117,-0.095,-0.203,-0.192,-0.013,-0.168,-0.042,0.033,-0.168,-0.113,-0.263,-0.094,0.007,-0.088,-0.178,0.079,-0.005,0.073,0.136,0.080,-0.042,-0.091,-0.078,0.038,-0.032,0.067,0.003,0.152,0.110,-0.170,0.105,-0.110,0.072,-0.034,-0.097,-0.128,-0.148,-0.111,-0.051,-0.210,-0.187,-0.074,-0.077,0.094,0.152,0.021,-0.254,-0.011,-0.115,0.052,0.171,0.094,0.002,-0.044,-0.029,-0.050,-0.054,-0.012,-0.089,-0.014,-0.224,0.007,-0.079,0.033,-0.060,0.223,-0.199,-0.174,-0.057,-0.053,-0.168,-0.008,-0.120,0.045,-0.030,-0.003,-0.028,0.071,-0.012,0.057,-0.067,-0.079,-0.216,0.156,-0.122,0.099,0.038,0.011,-0.222,-0.041,-0.223,-0.137,-0.215,-0.202,0.135,-0.018,-0.053,-0.044,0.146,0.079,-0.042,-0.035,0.203,0.117,0.070,0.005,-0.089,0.011,0.120,0.115,0.078,0.021,-0.042,-0.069,0.035,0.061,-0.098,-0.135,-0.121,0.053,-0.089,-0.040,-0.288,-0.044,-0.098,-0.053,0.058,0.009,-0.037,0.145,0.059,0.005,-0.144,0.110,-0.078,-0.064,0.023,-0.014,0.055,0.177,-0.056,0.034,-0.223,0.086,-0.070,0.143,-0.209,0.001,-0.180,0.004,0.018,-0.034,0.001,-0.005,0.101,-0.003,0.032,-0.071,-0.036,0.020,0.101,-0.055,-0.053,-0.052,-0.022,0.013,-0.061,0.049,0.024,0.021,-0.020,-0.011,-0.103,0.101,-0.014,-0.006,0.046,-0.173,0.060,0.020,-0.063,0.044,0.016,0.165,-0.062,-0.001,0.036,0.039,0.018,0.037,-0.007,-0.096,0.006,0.084,0.062,0.038,-0.149,0.134,0.069,-0.111,-0.040,-0.010,0.105,-0.042,0.115,0.022,-0.028,0.066,0.005,-0.058,-0.114,-0.005,-0.016,0.065,0.096,0.015,0.098,-0.203
-0.029,0.000,0.021,0.039,0.178,-0.010,0.023,-0.070,-0.039,0.080,-0.084,-0.075,-0.054,0.011,0.010,0.135,-0.064,-0.034,-0.045,0.078,-0.042,-0.083,-0.016,0.054,0.061,0.082,0.007,0.146,0.245,-0.029,0.126,0.077,-0.133,0.133,0.060,-0.026,0.103,-0.014,-0.020,0.205,-0.016,-0.024,-0.011,-0.017,0.045,0.044,-0.084,-0.121,-0.027,-0.147,-0.061,-0.056,0.098,-0.115,-0.123,0.040,0.123,0.101,-0.049,0.073,0.122,0.118,0.036,-0.065,0.137,-0.138,0.220,-0.113,0.137,-0.025,0.147,0.052,-0.051,-0.000,0.024,0.013,0.152,0.061,-0.097,0.069,0.130,0.001,0.041,0.175,-0.088,0.043,-0.033,0.084,-0.026,-0.003,0.088,0.154,-0.182,0.127,0.058,0.000,0.045,0.076,0.088,-0.138,0.179,-0.012,-0.001,0.004,0.107,0.117,0.220,0.056,-0.091,0.169,0.090,0.027,0.048,0.013,-0.212,-0.093,-0.142,0.205,-0.005,-0.031,0.132,-0.054,-0.123,-0.009,-0.301,-0.253,-0.187,-0.049,-0.003,-0.137,-0.106,0.026,0.034,0.340,0.238,-0.028,0.208,-0.007,0.037,0.009,0.185,-0.116,0.025,-0.018,0.039,0.062,0.081,0.066,0.069,0.082,-0.043,-0.108,-0.067,-0.099,-0.176,0.002,-0.220,-0.146,-0.169,-0.167,0.055,0.261,0.203,0.208,0.106,0.061,0.054,0.121,-0.023,0.009,0.193,0.108,0.056,-0.075,0.080,0.088,-0.076,-0.127,-0.271,-0.277,-0.251,-0.333,-0.072,-0.259,-0.229,-0.221,-0.113,-0.204,0.013,0.140,0.592,0.313,0.069,0.065,0.138,0.105,-0.029,-0.005,0.085,0.093,0.045,0.134,0.200,-0.170,0.002,-0.417,-0.280,-0.127,-0.099,-0.117,0.010,-0.197,-0.072,-0.292,-0.362,0.036,-0.216,0.331,0.465,0.499,-0.013,0.002,0.137,-0.012,0.009,0.067,-0.056,0.038,0.148,0.060,0.050,0.045,-0.032,-0.110,0.024,-0.051,0.501,0.478,0.552,0.202,-0.212,-0.308,-0.259,-0.296,0.029,0.069,0.407,0.551,0.365,0.150,0.051,-0.018,-0.122,-0.028,0.107,0.018,0.123,0.217,0.140,0.051,0.168,0.448,0.723,0.960,0.972,0.805,0.177,-0.116,-0.409,-0.278,-0.339,-0.078,-0.112,0.071,0.421,0.447,0.421,-0.129,0.009,0.158,0.080,0.066,0.115,0.160,0.076,0.082,0.018,0.320,0.448,0.811,0.803,0.631,0.459,-0.049,-0.293,-0.170,-0.420,-0.314,-0.499,-0.257,0.172,0.063,0.445,0.292,0.294,0.116,-0.037,-0.030,0.127,-0.123,0.025,0.109,0.006,0.106,0.159,0.207,0.356,0.508,0.175,0.037,-0.321,-0.645,-0.523,-0.373,-0.299,-0.350,-0.016,0.066,0.251,0.357,0.354,0.186,0.203,0.036,0.018,0.284,-0.041,0.075,0.013,-0.172,0.096,0.161,0.160,-0.156,-0.118,-0.340,-0.242,-0.244,-0.273,-0.420,-0.245,0.050,0.025,0.122,0.155,0.395,0.357,0.352,0.144,0.170,0.058,-0.023,-0.095,0.027,0.125,0.095,0.167,0.090,-0.054,-0.006,-0.138,-0.322,-0.284,-0.145,-0.090,-0.055,-0.216,-0.124,-0.129,-0.001,-0.046,0.124,0.453,0.365,0.419,0.350,0.262,0.215,0.005,0.033,0.067,0.016,-0.077,0.026,0.019,0.065,0.212,0.093,0.056,-0.045,-0.037,-0.019,0.306,0.106,-0.083,-0.104,0.132,0.105,0.123,0.306,0.420,0.217,-0.079,0.247,0.077,0.021,0.185,0.002,0.137,0.005,0.031,-0.039,0.172,0.067,-0.155,0.124,0.186,0.050,0.180,0.286,0.335,0.275,0.388,0.521,0.588,0.478,0.313,0.381,0.494,0.190,0.112,-0.076,-0.016,0.124,-0.056,0.089,-0.008,-0.093,0.104,0.082,0.006,0.035,0.188,0.005,0.320,0.373,0.452,0.387,0.506,0.455,0.518,0.482,0.548,0.253,0.194,0.088,0.008,0.044,-0.084,-0.004,-0.101,0.032,0.142,0.024,0.162,-0.083,0.099,0.217,-0.109,-0.139,0.150,0.172,0.230,0.354,0.299,0.482,0.573,0.683,0.653,0.519,0.309,0.079,-0.011,0.067,0.100,-0.014,-0.193,0.050,0.142,0.114,-0.045,-0.024,-0.016,0.055,0.025,0.221,-0.081,0.041,-0.039,-0.063,0.170,0.092,0.275,0.284,0.330,0.315,0.636,0.455,0.337,0.066,-0.130,-0.123,-0.200,-0.315,0.034,0.103,0.161,0.009,0.203,-0.027,0.114,-0.104,-0.049,0.018,0.037,0.079,0.063,0.104,0.005,0.054,-0.188,0.056,-0.024,0.149,0.165,0.381,0.217,-0.016,-0.234,-0.283,-0.124,0.092,0.056,0.004,0.134,0.169,-0.121,-0.032,-0.012,0.087,0.031,0.081,-0.035,-0.202,-0.044,0.111,-0.078,0.073,0.139,0.162,0.139,0.048,0.214,0.177,0.243,0.008,0.188,-0.159,-0.015,0.114,0.105,0.287,0.040,0.026,0.085,0.062,0.054,0.137,-0.063,0.048,-0.134,0.033,-0.010,-0.031,-0.115,0.044,-0.068,0.018,0.015,0.051,0.059,0.109,0.020,0.030,-0.223,-0.007,0.082,0.109,0.093,0.104,-0.070,0.026,-0.090,-0.054,0.071,0.048,-0.052,-0.104,0.157,-0.048,0.067,0.013,-0.175,0.071,0.027,0.046,0.082,0.099,0.114,0.159,0.152,-0.104,0.126,-0.029,-0.009,0.130,0.069,0.114,0.171,0.108,0.043,0.154,0.021,0.059,0.011,-0.041,0.058,0.169,0.041,0.083,0.097,-0.048,-0.042,0.064,0.112,0.034,0.034,0.094,0.022,-0.070,0.019,0.044,0.049,0.130,-0.056,0.001,0.275,-0.039,0.052,0.119,0.068,0.149,-0.120,-0.249,0.032,0.179,0.003,0.085,-0.097,-0.003,0.055,0.031,0.112,0.139,0.133,0.103,0.190,0.041,-0.065,-0.077,0.136,-0.027,-0.068,-0.034,0.083,-0.050,0.070,-0.177,0.018,0.067,-0.002,-0.085,0.135,-0.071,-0.062,-0.189,0.022,0.075,0.081,-0.010,0.167,0.094,0.067,-0.015,0.129,0.184,0.182,0.079,0.005,-0.186,-0.037,0.033,0.114,-0.101,0.048,-0.196,-0.043,0.068,0.036,-0.028,0.064,-0.031,0.142,-0.054,-0.047,0.234,0.105,0.124,0.104,0.126,0.196,0.156,0.151,0.091,0.032,0.024,0.025,0.156,0.059,0.060,0.062,-0.120,-0.012,-0.114,0.208,0.014,0.090,0.109,-0.081,0.054,0.012,-0.038,0.085,-0.004,-0.004,0.055,-0.103,0.157,0.221,0.118,0.083,-0.038,-0.153,-0.072,-0.027,0.102,-0.020,0.057,0.153,-0.032,0.076,0.128,-0.082,-0.011
0.073,-0.139,-0.013,0.052,0.076,0.103,-0.080,-0.004,-0.185,-0.080,0.099,0.101,-0.069,0.107,-0.077,0.092,0.019,-0.025,0.013,-0.117,-0.130,-0.036,0.008,-0.021,-0.061,0.117,-0.034,0.007,-0.046,-0.060,0.124,-0.029,-0.007,-0.018,-0.035,-0.009,-0.069,0.090,-0.039,0.054,-0.029,-0.037,0.081,0.113,0.085,-0.038,-0.002,0.244,0.015,0.024,0.034,-0.075,-0.067,-0.085,0.049,-0.045,-0.046,0.006,-0.119,0.072,-0.102,-0.010,-0.044,0.133,0.010,0.117,0.029,0.023,-0.073,0.031,-0.109,-0.146,-0.012,0.110,0.060,0.071,0.139,-0.002,0.120,-0.030,-0.099,0.001,0.004,0.156,-0.071,0.075,0.099,-0.089,0.086,0.140,0.032,-0.000,0.046,0.083,0.142,0.050,-0.037,-0.311,-0.209,-0.379,-0.347,-0.259,0.028,0.088,0.010,0.018,0.230,0.112,0.217,0.057,-0.015,0.098,0.030,0.100,0.079,0.019,0.122,0.031,-0.167,-0.039,-0.089,-0.023,0.167,0.131,0.142,-0.014,-0.066,-0.322,-0.293,-0.372,-0.188,-0.226,-0.158,0.027,0.012,0.338,0.042,0.088,-0.040,0.008,-0.046,0.008,-0.054,-0.020,-0.044,0.047,0.056,0.074,0.146,0.219,0.108,0.172,0.345,0.240,-0.033,-0.259,-0.433,-0.243,-0.111,-0.176,-0.034,-0.052,-0.129,0.150,0.176,0.008,-0.034,0.053,-0.163,0.055,0.108,0.024,0.102,0.154,0.160,0.194,0.192,0.138,0.338,0.381,0.310,0.179,0.006,-0.312,-0.351,-0.367,-0.404,-0.016,-0.125,-0.023,-0.178,0.098,0.090,0.289,0.047,0.125,0.040,-0.036,-0.047,0.024,0.055,0.384,0.299,0.190,0.245,0.084,0.178,0.216,0.244,0.439,0.166,-0.232,-0.263,-0.253,-0.175,-0.461,-0.108,-0.030,-0.081,0.037,0.279,0.000,0.075,0.064,-0.059,0.013,0.070,0.021,0.075,0.475,0.402,0.236,0.080,0.242,0.075,-0.020,0.230,0.784,0.446,-0.318,-0.292,-0.213,-0.282,-0.283,-0.165,-0.279,-0.247,-0.133,0.182,0.158,0.065,-0.026,0.027,0.036,-0.131,0.194,0.235,0.432,0.237,0.067,0.251,0.104,-0.108,-0.043,0.072,0.608,0.491,-0.249,-0.322,-0.110,-0.153,-0.428,-0.169,-0.215,-0.066,-0.157,0.224,0.266,0.207,-0.049,-0.026,0.008,0.017,0.090,0.472,0.228,0.330,0.063,-0.011,-0.122,0.095,0.002,0.008,0.498,0.332,-0.273,-0.222,-0.051,0.087,-0.171,-0.217,-0.239,-0.189,-0.075,0.209,0.629,0.121,0.051,0.019,-0.036,0.058,0.122,0.227,0.197,0.040,-0.026,-0.431,-0.402,-0.241,0.016,0.412,0.281,0.331,-0.383,-0.034,-0.116,0.035,-0.059,-0.129,-0.118,-0.107,-0.432,0.010,0.458,0.323,-0.096,0.083,0.030,-0.031,0.083,0.357,-0.094,-0.034,-0.245,-0.535,-0.262,-0.267,0.238,0.385,0.706,-0.020,-0.238,-0.093,0.149,0.006,0.100,0.008,-0.005,-0.122,-0.214,-0.076,0.338,0.129,-0.019,0.038,-0.063,0.103,0.125,0.230,-0.164,-0.121,-0.288,-0.244,-0.113,0.186,0.356,0.239,0.578,-0.231,-0.134,-0.021,0.239,-0.002,-0.036,0.141,0.093,0.018,-0.193,0.040,0.218,0.244,-0.078,0.002,-0.031,-0.049,0.165,-0.063,-0.107,-0.222,-0.117,-0.225,0.025,0.299,0.093,0.037,0.194,-0.160,-0.180,-0.006,-0.103,-0.105,-0.007,-0.093,0.008,-0.036,-0.165,0.012,0.203,-0.181,0.066,-0.005,-0.034,0.014,-0.222,0.050,-0.234,-0.021,-0.042,0.101,-0.114,0.115,0.140,0.167,0.034,0.032,0.064,-0.137,-0.140,-0.044,0.024,-0.120,0.115,0.121,0.119,0.118,0.117,0.164,0.087,0.049,-0.101,0.036,-0.079,0.097,0.014,0.157,0.008,0.040,-0.062,-0.003,0.284,0.242,-0.025,0.323,0.328,0.061,-0.138,-0.051,-0.113,0.015,0.147,-0.044,0.157,0.106,0.145,-0.117,0.039,0.070,0.049,-0.078,0.008,0.080,0.113,0.047,0.057,-0.209,0.030,0.051,0.057,-0.087,0.027,0.215,0.196,0.010,0.112,0.016,-0.002,0.062,0.035,-0.026,0.170,0.048,0.078,-0.055,0.106,0.050,-0.154,-0.078,0.053,0.202,-0.035,-0.063,0.130,0.013,-0.153,-0.019,-0.070,0.079,-0.012,0.038,0.159,-0.198,0.041,-0.127,0.135,0.017,0.144,0.095,0.087,0.136,-0.048,0.080,0.242,0.012,0.080,-0.132,0.016,-0.034,-0.041,-0.096,0.042,-0.171,-0.164,-0.126,0.001,0.097,0.033,0.201,0.180,-0.012,0.019,0.242,0.012,0.138,0.099,0.159,-0.003,0.112,0.112,0.011,-0.150,0.034,0.068,-0.137,-0.036,-0.075,-0.070,0.023,-0.058,0.131,-0.075,0.038,0.008,0.048,0.182,0.276,0.286,0.273,0.300,0.167,0.262,0.279,0.016,0.100,0.085,0.031,-0.025,0.078,-0.139,-0.026,-0.096,0.074,0.010,-0.025,-0.219,-0.022,0.004,-0.007,-0.049,0.039,-0.038,-0.066,-0.112,0.049,0.118,0.120,0.146,0.059,0.301,0.264,-0.118,0.039,0.113,0.094,0.119,0.085,-0.051,-0.039,-0.073,0.036,-0.129,-0.165,0.023,0.058,0.126,0.002,-0.007,0.010,-0.004,0.067,-0.238,-0.199,-0.153,-0.023,-0.090,-0.014,0.191,-0.126,0.245,0.099,0.229,-0.079,0.151,0.110,0.045,-0.053,0.007,-0.141,-0.163,0.075,-0.012,0.184,0.086,0.065,0.130,0.064,-0.048,0.122,0.192,0.004,0.136,-0.003,0.024,-0.174,0.022,0.039,0.071,-0.020,0.032,0.039,0.012,-0.110,0.045,0.004,-0.126,0.117,-0.105,-0.099,0.007,0.016,-0.068,-0.041,0.062,0.169,0.099,-0.151,-0.018,-0.081,-0.145,-0.098,-0.111,-0.004,0.182,0.078,-0.101,-0.028,0.046,0.099,-0.003,0.087,0.013,0.109,0.080,0.072,0.124,-0.101,0.040,0.098,0.145,0.016,0.073,0.114,-0.002,0.322,0.134,0.005,0.036,0.008,0.102,0.125,-0.012,0.013,-0.102,-0.086,0.131,0.104,-0.085,-0.061,0.141,0.060,-0.165,-0.062,-0.017,-0.003,-0.072,-0.001,-0.123,0.028,0.001,0.071,0.051,0.016,0.158,-0.017,0.009,-0.209,-0.139,-0.046,0.039,0.001,-0.120,-0.057,-0.134,-0.018,-0.088,0.004,0.013,-0.063,-0.017,0.094,-0.048,-0.037,-0.010,-0.055,0.082,-0.031,0.033,0.126,-0.020,-0.019,-0.041,-0.148,-0.065,0.065,0.009,-0.075,0.040,-0.026,0.012,-0.089,-0.071,0.044,0.137,0.020,0.056
0.034,-0.004,-0.113,0.070,-0.029,-0.019,0.070,0.049,-0.084,-0.009,-0.053,0.153,-0.085,-0.128,-0.093,0.083,0.082,-0.015,-0.105,-0.063,-0.031,0.050,0.254,0.197,0.071,0.026,0.095,0.107,0.015,0.023,-0.155,-0.094,0.027,0.067,-0.241,-0.187,0.075,-0.058,-0.033,-0.093,0.103,0.045,-0.131,0.021,0.066,-0.097,-0.099,-0.131,-0.007,-0.032,-0.001,0.069,-0.031,0.092,0.063,-0.067,-0.110,-0.047,-0.167,-0.073,0.014,-0.204,-0.006,-0.164,0.122,-0.113,-0.041,-0.026,-0.126,-0.039,-0.084,-0.019,-0.144,-0.077,-0.172,-0.127,-0.075,0.086,0.024,0.001,0.054,-0.100,-0.031,-0.069,0.043,-0.060,0.153,0.164,-0.037,0.028,0.050,-0.036,0.062,-0.019,-0.052,-0.148,-0.019,-0.028,-0.281,-0.112,-0.275,-0.144,-0.262,-0.158,0.289,0.098,0.164,0.150,0.147,-0.046,0.041,0.055,-0.117,-0.132,0.104,-0.093,-0.040,0.082,0.012,-0.044,-0.205,0.059,0.101,0.184,0.182,0.035,0.143,0.134,-0.060,0.005,-0.191,-0.195,-0.189,0.017,0.040,0.380,0.253,0.176,0.121,-0.007,-0.110,0.018,-0.010,0.079,-0.006,0.141,0.046,-0.004,-0.010,-0.003,0.024,0.086,0.099,0.169,0.161,0.140,0.078,-0.137,-0.146,-0.111,0.011,-0.062,0.042,0.256,0.136,0.078,0.043,-0.001,-0.135,-0.094,-0.110,-0.097,-0.085,0.263,0.215,-0.022,0.005,-0.058,-0.047,0.126,0.099,0.152,0.003,0.205,-0.041,-0.118,-0.232,-0.154,-0.034,0.029,0.066,0.161,0.111,0.089,0.006,-0.099,-0.007,0.043,-0.080,-0.035,0.182,-0.123,0.144,-0.113,-0.024,-0.145,-0.056,0.126,0.098,0.098,-0.012,-0.108,-0.031,-0.095,-0.051,0.017,-0.075,-0.071,0.077,-0.067,0.167,0.191,0.055,0.237,-0.017,-0.215,-0.179,0.177,0.041,0.320,0.130,-0.015,0.077,-0.033,-0.095,0.019,0.013,0.350,0.484,0.348,0.052,0.023,0.013,-0.140,-0.212,0.005,0.117,-0.117,-0.137,0.185,0.183,0.025,0.101,0.020,0.003,0.190,0.192,0.076,-0.079,-0.126,-0.141,-0.001,-0.003,0.012,0.084,0.197,0.497,0.332,0.022,-0.081,-0.005,0.142,-0.136,-0.125,-0.079,0.005,0.001,0.005,0.132,0.124,-0.006,0.027,0.045,0.002,0.037,0.054,-0.014,-0.067,0.052,0.006,-0.009,0.117,0.027,0.418,0.338,-0.200,-0.314,-0.023,0.127,-0.070,0.147,0.006,0.007,0.063,-0.015,0.142,0.080,0.171,0.166,0.003,0.192,-0.005,0.200,0.157,-0.038,0.255,-0.047,-0.007,0.070,0.015,0.009,0.070,-0.226,-0.474,-0.419,-0.247,0.050,0.017,0.156,0.069,0.027,0.251,-0.025,0.157,0.070,0.131,0.175,0.004,0.041,0.015,0.087,0.021,0.123,0.215,-0.053,0.168,0.021,-0.196,0.099,-0.074,-0.337,-0.359,-0.253,-0.439,-0.073,-0.012,0.105,0.011,0.272,0.152,0.066,0.197,0.095,0.176,-0.044,0.005,0.164,0.054,0.071,0.112,0.198,0.111,0.077,0.069,-0.096,-0.207,-0.126,-0.331,0.076,-0.201,-0.384,-0.354,-0.223,-0.068,0.103,0.009,0.106,0.249,0.133,-0.030,-0.047,0.055,-0.079,0.017,0.096,-0.089,-0.046,0.031,0.261,0.269,-0.050,-0.031,-0.042,-0.583,-0.153,-0.070,-0.055,0.011,-0.185,-0.456,-0.108,-0.079,-0.056,0.107,0.066,0.351,0.377,-0.235,-0.057,0.077,-0.072,-0.123,0.004,-0.070,0.010,-0.006,0.191,-0.074,-0.060,-0.022,0.110,-0.281,0.004,-0.150,-0.085,-0.197,-0.238,-0.431,-0.002,-0.132,-0.118,0.194,0.131,0.269,0.315,-0.185,-0.108,0.054,0.064,-0.042,0.122,-0.169,-0.184,-0.376,-0.246,-0.205,-0.257,-0.080,0.010,-0.041,0.181,0.193,0.161,-0.464,-0.333,-0.294,0.107,-0.021,0.134,0.178,0.212,0.065,0.056,-0.326,-0.047,-0.021,0.096,-0.255,0.046,-0.181,-0.504,-0.469,-0.724,-0.652,-0.557,-0.627,-0.486,-0.368,-0.271,-0.568,-0.850,-0.665,-0.256,0.063,0.282,0.239,0.108,0.047,0.098,-0.078,-0.040,-0.059,-0.124,0.020,0.134,0.015,0.132,-0.142,-0.366,-0.475,-0.770,-0.805,-0.864,-0.968,-1.341,-1.338,-1.364,-1.363,-0.583,-0.121,0.158,0.246,-0.182,-0.032,-0.014,0.177,-0.192,-0.117,0.010,-0.161,-0.083,0.013,0.064,-0.068,0.188,-0.100,-0.235,-0.340,-0.504,-0.516,-0.565,-0.419,-0.695,-0.768,-0.611,-0.101,0.401,0.335,0.175,-0.163,-0.063,-0.168,0.030,-0.138,-0.229,-0.028,-0.172,-0.106,-0.030,0.140,-0.159,0.063,-0.031,-0.023,-0.042,-0.052,-0.111,-0.137,-0.239,-0.074,-0.148,0.033,0.300,0.614,0.623,0.341,0.286,0.215,-0.140,-0.007,-0.127,-0.136,-0.200,-0.017,-0.096,-0.130,-0.067,0.003,0.016,-0.060,0.120,0.083,0.050,-0.120,0.005,0.125,0.176,-0.013,0.107,0.297,0.586,0.586,0.410,0.296,0.372,0.165,0.124,0.015,-0.040,0.120,-0.073,0.099,-0.208,-0.007,0.024,-0.033,0.119,0.062,-0.116,0.008,0.024,0.033,0.188,0.119,0.127,0.380,0.018,0.196,0.350,0.348,0.221,0.285,0.179,0.297,0.246,0.219,-0.041,-0.014,-0.132,0.078,-0.205,-0.050,0.228,-0.073,-0.026,0.002,-0.080,0.080,0.190,0.264,0.224,0.177,0.045,0.185,0.309,0.579,0.643,0.580,0.479,0.383,0.244,0.256,0.136,0.219,0.036,-0.210,-0.092,-0.150,-0.061,-0.062,-0.053,-0.000,-0.056,0.059,-0.016,0.000,0.158,0.129,0.220,0.133,0.223,0.231,0.359,0.183,0.238,0.233,0.130,0.130,0.025,-0.162,-0.102,-0.158,-0.003,-0.208,0.044,-0.083,0.073,0.129,0.129,-0.283,-0.230,0.025,-0.087,0.034,0.018,0.020,0.070,0.178,0.064,0.254,0.141,0.183,0.154,0.108,0.110,0.080,-0.121,-0.148,-0.049,-0.070,0.032,-0.006,-0.057,0.041,0.098,-0.056,-0.019,-0.073,-0.043,0.067,-0.134,0.077,-0.087,-0.005,-0.010,0.127,-0.002,0.080,0.021,0.121,-0.306,-0.088,-0.127,-0.148,-0.183,-0.009,-0.030,-0.145,0.031,-0.073,0.041,-0.038,-0.074,-0.068,0.032,-0.005,0.042,-0.070,-0.049,-0.100,-0.023,0.036,0.139,0.054,0.094,0.168,-0.048,-0.117,0.111,-0.028,0.052,-0.105,-0.066,0.017,-0.055,-0.125,-0.008,-0.008,0.016,0.029,-0.065,-0.034,-0.133,0.037
-0.132,-0.059,0.071,0.052,-0.055,-0.044,-0.010,-0.183,-0.094,-0.059,-0.058,-0.106,-0.032,-0.078,-0.146,-0.094,-0.120,-0.038,-0.019,-0.175,-0.085,0.076,0.037,-0.055,0.077,-0.018,0.011,0.095,-0.158,-0.215,-0.080,0.125,-0.066,-0.116,0.088,-0.057,0.024,0.080,-0.045,0.043,-0.214,-0.080,-0.032,-0.030,-0.020,-0.042,-0.069,0.034,-0.030,0.032,-0.068,-0.059,-0.098,0.067,-0.208,-0.007,0.030,-0.165,0.005,-0.140,-0.004,-0.009,-0.065,-0.008,0.170,0.030,0.027,-0.002,-0.042,-0.170,-0.197,-0.179,-0.179,-0.120,-0.039,0.016,-0.067,-0.170,-0.024,-0.020,0.015,-0.064,0.022,0.144,0.058,-0.068,-0.226,-0.046,-0.092,0.027,0.127,0.062,-0.030,0.021,0.055,-0.118,-0.133,-0.249,-0.147,-0.219,-0.134,-0.220,-0.000,-0.162,-0.127,-0.193,-0.165,-0.046,-0.058,0.047,0.115,-0.108,0.160,-0.026,0.093,-0.065,-0.055,-0.026,0.022,0.068,0.054,-0.192,-0.064,-0.174,-0.071,-0.195,-0.123,-0.263,-0.038,-0.062,-0.041,0.058,-0.138,-0.104,-0.097,0.194,-0.102,-0.029,-0.056,0.106,0.051,-0.192,0.023,0.035,-0.005,0.078,-0.123,-0.211,-0.093,0.003,0.257,0.251,0.166,-0.079,-0.243,-0.248,-0.185,-0.086,0.004,-0.092,-0.060,0.198,-0.025,0.125,-0.004,0.124,0.031,-0.076,-0.020,-0.073,0.063,0.007,-0.047,0.022,-0.171,-0.052,-0.104,0.062,0.512,0.486,0.360,0.063,0.039,-0.138,0.080,0.130,0.234,0.212,0.144,0.048,0.106,0.328,0.010,-0.111,-0.004,-0.163,-0.118,-0.143,-0.077,0.055,-0.030,-0.233,-0.194,-0.233,0.039,0.238,0.480,0.557,0.372,0.204,-0.062,-0.239,-0.253,-0.071,0.067,0.305,0.381,0.155,0.125,0.074,0.178,0.084,0.023,-0.062,0.026,-0.028,-0.170,-0.130,-0.324,-0.277,-0.107,0.139,-0.068,0.143,0.283,0.377,0.359,0.142,0.183,-0.115,-0.052,0.051,0.096,0.282,0.209,0.198,0.140,0.123,0.268,0.046,0.244,0.097,-0.123,-0.013,-0.062,-0.256,-0.106,-0.119,-0.039,-0.047,-0.170,-0.007,0.336,0.383,0.282,0.199,0.028,-0.011,0.266,0.215,0.286,0.205,0.241,0.321,0.221,0.185,0.095,0.100,0.108,0.056,0.043,-0.075,-0.183,-0.138,-0.097,-0.063,-0.022,-0.397,-0.299,-0.157,0.126,0.184,0.187,-0.054,-0.273,-0.293,0.142,0.242,0.114,0.215,0.123,0.224,0.055,0.162,0.170,0.201,0.075,-0.012,0.028,0.011,-0.128,-0.043,-0.088,0.118,-0.272,-0.255,-0.357,-0.286,-0.017,-0.315,-0.458,-0.576,-0.435,-0.195,0.057,0.356,-0.071,0.052,-0.075,0.120,-0.042,-0.151,-0.088,0.174,-0.002,0.010,-0.001,-0.011,-0.081,-0.067,-0.100,-0.120,-0.270,-0.150,-0.083,-0.301,-0.312,-0.343,-0.402,-0.234,0.113,-0.123,0.145,0.263,-0.023,0.013,0.097,-0.142,-0.147,-0.348,-0.038,0.085,0.141,-0.027,0.012,-0.058,-0.089,-0.207,0.013,-0.280,-0.429,-0.181,-0.302,-0.293,-0.030,-0.200,-0.127,0.382,0.575,-0.022,-0.028,0.134,-0.068,-0.075,0.161,-0.103,-0.209,-0.412,0.041,0.183,0.006,0.013,-0.071,0.019,-0.230,0.051,-0.041,-0.195,-0.322,-0.206,-0.253,-0.230,-0.263,-0.167,0.040,0.518,0.577,0.075,0.182,-0.043,-0.008,0.024,0.040,-0.144,-0.120,-0.293,-0.075,0.304,0.132,-0.045,-0.046,-0.070,0.168,0.005,-0.113,-0.222,-0.493,-0.278,-0.079,-0.217,-0.120,-0.363,0.036,0.756,0.728,0.116,0.100,-0.038,-0.131,-0.016,-0.128,-0.139,-0.200,-0.224,-0.064,0.342,0.291,-0.074,-0.010,0.023,0.008,0.091,0.066,-0.182,-0.267,-0.374,-0.068,-0.075,-0.229,-0.204,-0.056,0.427,0.495,0.114,0.123,0.156,0.159,-0.073,-0.110,0.010,-0.200,-0.238,0.248,0.205,0.134,-0.199,0.051,-0.147,0.155,0.292,0.201,-0.133,-0.215,-0.434,-0.217,0.025,-0.071,0.093,0.162,0.310,0.381,0.387,0.194,0.265,0.184,-0.290,-0.238,-0.110,-0.206,-0.081,0.227,0.317,0.062,-0.172,-0.080,0.253,-0.037,0.163,0.138,0.152,-0.067,-0.312,-0.311,-0.351,-0.089,-0.105,-0.059,0.031,0.338,0.349,0.081,-0.075,-0.215,-0.239,0.014,-0.090,0.006,-0.010,0.237,0.215,-0.078,-0.251,0.067,-0.073,0.132,0.221,0.138,0.008,0.086,0.135,-0.098,-0.339,-0.067,-0.258,-0.436,-0.193,0.112,0.060,-0.166,-0.288,-0.210,-0.051,-0.124,-0.163,-0.268,0.019,0.194,0.237,-0.060,-0.053,0.044,0.125,0.116,0.156,0.225,0.309,0.196,0.318,0.051,-0.005,0.137,-0.031,-0.210,-0.429,-0.235,-0.116,-0.046,-0.141,-0.037,-0.008,-0.066,-0.076,-0.124,0.036,-0.008,0.036,0.129,-0.025,-0.225,-0.152,0.060,0.210,0.091,0.104,0.128,0.170,0.207,0.242,0.076,0.001,-0.122,-0.138,-0.251,-0.238,-0.120,0.104,0.011,0.049,-0.049,-0.180,0.016,-0.153,0.144,0.013,0.035,0.064,0.070,-0.128,-0.101,-0.087,0.185,0.044,-0.060,-0.026,-0.102,-0.006,0.163,-0.125,-0.149,-0.255,-0.212,0.142,-0.076,-0.091,0.031,-0.097,-0.068,0.019,0.107,0.035,0.125,0.050,-0.035,-0.062,-0.033,-0.104,-0.076,0.039,0.085,0.049,0.078,-0.007,0.199,-0.054,-0.135,-0.131,-0.259,-0.312,-0.159,-0.190,-0.194,-0.410,-0.177,-0.302,-0.299,-0.021,0.075,-0.005,0.012,-0.036,-0.063,0.165,0.061,0.069,-0.093,-0.045,-0.008,0.101,0.097,0.134,0.090,0.249,0.172,0.122,0.073,-0.155,-0.156,-0.073,-0.098,-0.187,-0.447,-0.024,0.087,0.099,0.206,0.004,-0.021,-0.059,-0.012,-0.148,0.061,-0.105,-0.051,0.046,0.053,0.105,-0.090,0.036,0.076,0.109,0.270,0.181,0.419,0.392,0.402,0.301,0.162,0.021,-0.001,0.129,0.254,0.000,0.012,-0.008,-0.089,0.077,0.014,0.046,0.026,-0.091,-0.084,0.029,0.072,-0.061,-0.067,-0.016,-0.080,0.064,0.182,0.067,0.117,0.085,0.214,0.053,0.203,0.123,0.134,-0.169,0.102,0.051,-0.163,0.068,0.024,-0.097,-0.001,-0.117,-0.068,0.121,-0.000,0.098,-0.119,0.050,-0.011,0.045,0.012,0.030,-0.012,0.078,-0.153,-0.198,0.055,0.153,0.009,-0.120,0.134,0.052,0.022,-0.077,0.130,-0.089,0.006,0.068,0.068,-0.121
-0.033,-0.045,0.041,0.078,-0.197,0.093,0.053,-0.067,-0.022,-0.036,-0.011,-0.043,0.089,-0.040,0.144,0.014,0.088,0.003,0.042,0.175,0.077,0.042,0.091,0.006,-0.083,-0.063,0.120,0.070,-0.052,0.041,0.034,-0.068,0.047,0.024,-0.088,0.021,0.015,0.024,-0.144,-0.075,0.048,-0.044,-0.068,0.029,-0.104,-0.080,-0.003,-0.082,0.164,0.064,-0.147,0.107,0.118,0.178,0.074,0.117,-0.035,-0.019,0.022,0.072,-0.104,-0.164,0.041,-0.064,-0.067,0.039,0.109,0.213,0.151,0.207,-0.011,-0.042,0.026,-0.026,0.194,-0.003,-0.026,-0.001,0.145,0.057,0.135,0.140,-0.027,0.054,0.078,-0.012,0.196,0.057,-0.066,0.051,0.189,0.141,0.043,0.043,0.062,0.027,0.102,0.217,0.215,0.118,-0.052,-0.103,-0.080,-0.195,-0.217,-0.057,-0.030,-0.107,-0.001,0.148,-0.098,0.025,0.016,0.030,-0.080,-0.064,0.087,-0.021,-0.036,0.152,-0.071,0.140,0.036,0.075,0.153,-0.083,-0.151,-0.209,-0.139,-0.202,-0.238,-0.180,-0.077,-0.171,-0.106,-0.032,-0.044,0.128,-0.101,0.088,0.004,-0.073,-0.015,0.099,0.131,0.086,0.123,0.116,0.020,0.001,-0.170,0.071,-0.040,-0.100,-0.231,-0.630,-0.253,-0.407,-0.126,-0.051,-0.186,-0.015,-0.060,-0.123,-0.166,0.032,0.097,0.053,-0.011,0.053,0.005,0.052,0.168,0.048,-0.018,0.063,0.019,0.019,-0.111,-0.245,-0.101,-0.287,-0.137,-0.553,-0.274,-0.118,-0.054,-0.050,0.044,-0.074,0.015,-0.067,0.012,-0.073,0.030,0.085,-0.156,0.005,0.084,0.228,0.084,0.080,-0.009,-0.268,-0.166,-0.157,-0.050,-0.093,-0.091,-0.168,-0.318,-0.633,-0.317,-0.013,0.212,0.097,0.299,0.095,0.015,-0.121,-0.117,0.064,0.022,0.012,0.041,0.013,0.146,0.120,0.237,0.065,-0.002,-0.023,-0.006,-0.105,0.076,0.068,-0.040,-0.372,-0.323,-0.281,-0.274,0.049,0.111,0.095,0.360,0.137,0.160,-0.116,0.125,-0.074,0.083,-0.118,-0.065,-0.045,0.106,0.175,0.200,-0.011,0.250,0.176,0.206,0.346,-0.033,0.096,0.127,0.054,-0.102,-0.443,0.021,0.126,0.228,0.161,0.181,0.198,0.236,0.236,-0.022,0.106,-0.110,0.062,0.049,0.084,0.186,0.124,0.171,0.154,0.163,0.136,0.010,0.220,0.220,0.380,0.275,0.021,-0.479,-0.292,0.054,0.335,0.221,0.279,0.357,0.112,-0.022,0.103,0.102,0.086,-0.101,-0.004,-0.076,-0.077,0.095,0.327,0.283,0.131,0.215,0.184,0.035,0.218,0.384,0.322,0.059,-0.575,-0.825,-0.574,0.107,0.233,0.323,0.123,0.088,0.140,0.162,0.221,0.178,-0.077,-0.085,0.012,0.203,0.054,0.025,0.073,0.117,0.314,0.151,0.025,0.130,0.354,0.210,0.110,-0.327,-1.143,-0.746,0.128,0.188,0.383,0.334,0.150,0.140,0.173,0.138,0.203,0.159,0.033,-0.205,-0.230,0.023,0.118,0.110,-0.120,-0.014,0.106,0.138,0.243,0.234,-0.017,0.097,-0.143,-0.922,-1.338,-0.625,0.139,0.107,0.078,0.167,0.046,-0.051,0.031,-0.050,0.120,0.091,-0.159,0.064,0.038,-0.011,-0.003,0.139,-0.026,0.050,-0.077,-0.080,-0.221,-0.112,-0.021,-0.178,-0.666,-1.285,-1.343,-0.321,0.334,-0.061,0.166,0.088,0.039,0.214,0.001,0.080,0.029,0.157,-0.038,-0.082,0.014,-0.081,0.073,0.180,0.024,0.004,-0.048,0.090,0.010,-0.126,-0.065,-0.474,-0.895,-1.347,-0.932,0.074,0.097,-0.150,0.078,-0.055,-0.010,-0.081,-0.033,-0.083,-0.078,-0.030,-0.176,-0.124,0.173,-0.055,0.139,0.097,-0.260,-0.210,-0.151,-0.011,-0.119,-0.238,-0.333,-0.827,-1.138,-1.281,-0.466,0.030,0.283,0.096,0.087,0.131,-0.002,-0.191,0.021,-0.116,-0.047,-0.184,-0.053,-0.147,0.074,0.098,-0.018,-0.180,-0.056,-0.110,-0.361,0.023,-0.173,-0.240,-0.595,-0.767,-0.901,-0.744,-0.042,0.026,0.098,0.146,0.149,0.336,-0.164,-0.033,-0.048,-0.248,-0.190,-0.313,0.084,-0.016,-0.116,0.070,-0.091,0.024,-0.142,-0.258,-0.168,-0.275,-0.249,-0.413,-0.695,-0.806,-0.591,-0.047,0.090,0.273,0.239,0.141,0.336,0.185,-0.214,0.068,0.066,0.053,-0.193,-0.201,-0.036,0.088,0.078,0.112,0.115,0.039,-0.106,-0.199,-0.225,-0.348,-0.360,-0.506,-0.550,-0.554,-0.279,-0.283,-0.118,-0.070,0.048,0.143,0.031,-0.052,0.127,-0.124,-0.035,-0.193,-0.389,-0.014,0.007,-0.170,0.073,-0.108,0.081,-0.054,-0.101,-0.077,-0.332,-0.330,-0.526,-0.314,-0.290,-0.080,-0.161,-0.148,-0.047,-0.147,0.237,0.079,-0.020,0.073,0.062,0.055,-0.042,-0.284,-0.053,-0.187,-0.063,-0.152,0.058,-0.058,-0.069,0.034,0.033,-0.283,-0.300,-0.442,-0.315,-0.122,0.067,0.077,-0.177,-0.114,-0.124,-0.121,-0.012,0.080,0.102,0.059,0.018,0.068,-0.108,-0.278,-0.051,-0.111,-0.016,0.002,-0.035,-0.115,0.157,-0.037,-0.034,0.021,-0.054,-0.140,-0.154,0.088,0.017,-0.275,-0.116,-0.158,-0.032,-0.257,-0.103,0.021,-0.003,0.010,0.117,-0.197,-0.260,-0.167,-0.030,0.025,0.027,0.002,-0.027,0.107,-0.027,-0.114,0.001,-0.171,0.085,0.101,-0.030,0.031,0.016,-0.130,0.002,-0.138,-0.118,-0.109,-0.248,-0.066,-0.043,-0.019,-0.035,-0.142,-0.021,-0.037,0.020,0.028,-0.124,0.043,-0.047,-0.035,0.031,0.091,-0.074,-0.134,0.122,0.221,0.235,0.029,0.026,0.088,0.094,0.018,0.097,-0.016,-0.003,0.009,-0.104,-0.072,-0.007,0.118,0.023,0.058,0.060,0.002,-0.000,-0.019,-0.047,-0.007,-0.042,0.097,0.169,-0.087,0.098,0.105,0.047,0.030,-0.137,0.035,0.071,0.220,0.135,0.171,0.149,0.098,0.115,0.017,0.061,-0.057,0.012,0.205,0.135,0.003,-0.181,-0.053,0.030,-0.036,0.037,-0.022,0.021,0.086,-0.176,0.210,0.101,0.022,0.098,0.061,-0.010,-0.115,0.027,0.145,-0.055,0.016,-0.084,-0.190,-0.105,-0.017,0.071,-0.135,-0.108,0.030,-0.045,0.032,-0.108,0.023,0.038,0.014,0.060,0.130,-0.175,0.121,0.047,0.020,-0.118,0.167,0.112,-0.039,0.091,0.023,-0.159,-0.064,-0.075,-0.231,-0.116,0.018,-0.006,0.164,0.042,-0.031,-0.081,-0.097,-0.083
0.022,-0.042,0.051,0.216,-0.137,-0.140,0.028,-0.021,-0.017,0.034,-0.107,-0.133,-0.102,-0.025,-0.110,-0.100,0.004,-0.051,-0.042,-0.059,-0.216,-0.064,0.046,-0.053,0.022,0.041,-0.120,0.034,-0.049,0.047,0.105,0.000,0.080,-0.063,0.047,-0.117,0.051,0.159,-0.136,0.075,-0.067,0.003,-0.152,-0.049,0.001,0.007,-0.113,0.025,0.111,0.045,-0.054,0.017,0.207,0.057,-0.115,0.179,-0.015,-0.041,0.120,-0.062,0.049,0.022,-0.060,0.079,0.143,-0.009,-0.009,-0.024,0.017,-0.013,0.116,-0.074,-0.007,-0.146,-0.136,-0.016,-0.061,-0.055,-0.113,0.009,-0.022,0.147,-0.028,0.106,0.222,0.017,-0.067,0.159,-0.056,0.013,-0.015,0.139,0.067,-0.192,0.290,0.017,-0.029,0.072,-0.224,-0.256,-0.438,-0.302,-0.275,-0.229,0.067,0.127,-0.087,-0.046,-0.114,0.096,-0.025,0.059,0.029,0.153,-0.018,-0.093,-0.099,-0.100,-0.074,0.117,0.267,0.155,0.186,0.118,0.096,0.111,-0.022,-0.115,-0.219,-0.344,-0.305,-0.135,-0.011,0.115,0.017,-0.047,-0.095,-0.117,-0.076,0.006,-0.157,-0.099,-0.070,-0.095,0.104,0.215,0.006,0.185,0.211,0.082,0.282,-0.021,0.043,0.034,0.139,-0.094,-0.055,-0.087,-0.288,-0.199,-0.136,-0.233,0.011,0.166,-0.077,0.120,-0.056,0.009,-0.123,0.117,0.041,0.002,0.074,0.077,0.132,-0.006,0.006,-0.056,0.127,-0.024,0.138,0.060,-0.156,0.092,0.134,0.116,-0.266,-0.298,-0.487,-0.231,-0.124,0.039,-0.021,-0.127,0.012,-0.194,0.082,0.027,-0.033,-0.016,0.091,-0.047,0.016,-0.179,-0.005,-0.062,0.149,-0.091,-0.019,-0.059,0.012,-0.088,-0.096,0.142,-0.158,-0.370,-0.471,-0.389,-0.329,-0.189,-0.078,-0.045,-0.027,-0.051,-0.094,-0.009,0.064,0.279,0.255,0.127,-0.101,0.031,0.082,0.061,-0.366,-0.247,-0.245,0.022,0.202,0.190,0.317,0.290,-0.205,-0.458,-0.455,-0.472,-0.308,-0.059,-0.128,-0.052,-0.166,0.000,0.157,-0.084,0.078,0.153,0.195,0.131,-0.110,-0.046,-0.346,-0.577,-0.475,-0.269,0.113,0.319,0.394,0.531,0.511,-0.150,-0.647,-0.780,-0.674,-0.402,-0.036,-0.083,-0.141,-0.111,-0.056,0.039,0.008,0.035,0.019,-0.110,0.288,0.293,-0.068,-0.270,-0.445,-0.730,-0.236,0.143,0.342,0.469,0.408,0.283,0.029,-0.291,-0.549,-0.779,-0.392,-0.292,-0.319,-0.194,-0.031,-0.024,0.097,0.022,-0.005,-0.017,0.017,0.124,0.080,0.157,-0.160,-0.367,-0.547,-0.215,0.188,0.552,0.938,0.752,0.309,0.016,-0.587,-0.816,-0.687,-0.553,-0.253,-0.239,-0.306,-0.080,-0.260,-0.101,0.028,-0.177,0.006,-0.107,-0.079,0.082,0.203,-0.164,-0.244,-0.090,-0.075,0.244,0.240,0.611,0.564,0.104,-0.153,-0.283,-0.133,-0.320,-0.287,-0.179,-0.163,-0.076,-0.106,-0.014,-0.055,-0.105,-0.258,0.040,-0.004,-0.042,-0.071,0.126,-0.000,-0.061,-0.081,-0.108,-0.031,0.192,0.252,0.183,0.077,-0.102,-0.090,-0.008,0.170,-0.239,-0.227,-0.060,0.022,-0.008,0.031,0.029,-0.210,-0.110,-0.089,0.059,0.017,0.040,-0.065,0.018,-0.022,-0.116,-0.044,-0.033,-0.202,0.205,0.066,-0.128,-0.082,-0.262,-0.261,-0.262,-0.081,-0.012,-0.156,0.015,0.126,0.270,0.122,0.083,-0.005,-0.069,-0.144,0.022,0.017,0.079,-0.020,-0.011,0.003,-0.146,-0.083,-0.120,-0.024,0.203,-0.016,-0.161,-0.269,-0.282,-0.468,-0.051,0.015,0.159,0.023,0.082,0.255,0.170,0.264,0.178,0.036,-0.042,-0.216,-0.046,-0.134,-0.014,0.061,-0.065,-0.357,-0.225,-0.034,0.308,0.167,0.183,-0.169,-0.282,-0.337,-0.510,-0.199,-0.093,0.164,-0.043,-0.184,-0.016,0.164,0.120,0.425,0.250,-0.101,0.013,-0.054,0.206,-0.093,0.046,0.067,0.037,-0.091,-0.235,-0.066,0.038,0.063,0.075,0.124,-0.270,-0.354,-0.332,-0.366,-0.223,-0.094,-0.144,-0.059,-0.012,0.054,0.194,0.026,0.174,0.059,0.054,-0.106,-0.166,-0.012,-0.039,0.005,-0.215,-0.173,-0.165,-0.422,-0.282,0.037,0.113,-0.043,-0.359,-0.336,-0.422,-0.374,-0.354,-0.249,-0.160,-0.074,-0.086,0.093,-0.053,0.085,0.049,-0.107,-0.024,-0.113,-0.103,0.047,0.032,-0.061,-0.103,-0.177,-0.090,-0.140,-0.112,-0.047,0.111,0.070,-0.186,-0.217,-0.243,-0.338,-0.204,0.064,-0.144,-0.113,-0.001,0.019,0.275,-0.007,-0.024,-0.010,0.069,-0.104,0.019,0.155,0.076,-0.117,0.049,-0.137,-0.272,-0.151,-0.146,0.100,-0.064,-0.091,-0.064,-0.005,0.016,0.004,-0.077,-0.067,-0.133,-0.066,0.106,-0.116,0.026,-0.047,-0.110,0.017,-0.156,-0.103,0.009,-0.075,0.147,0.035,-0.084,-0.178,-0.184,-0.219,-0.127,0.156,-0.099,-0.015,-0.013,0.145,0.130,0.048,-0.040,-0.015,-0.047,-0.113,-0.163,-0.132,-0.041,0.027,-0.015,0.021,-0.090,0.096,-0.165,-0.119,0.106,-0.191,-0.098,-0.078,0.129,-0.027,-0.166,-0.112,-0.191,-0.043,0.033,-0.083,-0.077,-0.059,-0.157,-0.260,-0.126,-0.169,-0.035,-0.096,-0.065,-0.044,-0.001,-0.017,0.022,-0.090,0.078,-0.104,0.027,0.093,0.047,-0.065,0.050,-0.175,-0.090,-0.187,0.205,0.095,0.054,-0.075,-0.039,-0.185,-0.082,-0.044,-0.100,-0.047,-0.199,-0.185,-0.115,0.055,-0.049,-0.089,-0.040,0.030,0.028,0.088,-0.099,-0.069,-0.069,-0.123,-0.096,0.039,0.011,-0.049,-0.135,0.012,0.003,-0.005,-0.202,-0.054,-0.144,-0.006,-0.110,-0.192,0.012,-0.109,-0.206,0.131,-0.145,-0.151,-0.217,-0.008,-0.113,0.015,0.015,-0.168,-0.080,0.021,-0.105,-0.048,0.108,0.122,0.126,-0.074,-0.086,-0.002,-0.155,0.026,-0.167,-0.011,-0.003,-0.155,0.040,0.144,-0.028,-0.019,-0.044,-0.055,-0.063,-0.074,-0.045,-0.008,-0.074,0.039,-0.001,0.042,-0.076,0.165,0.062,0.078,-0.121,-0.012,0.065,-0.012,0.024,-0.035,-0.106,-0.110,-0.035,-0.039,0.072,0.051,-0.029,0.053,0.081,-0.161,0.087,-0.066,-0.091,0.024,0.000,-0.104,0.131,0.195,-0.042,0.041,-0.059,0.052,-0.170,-0.057,-0.007,-0.141,-0.126,-0.148,-0.018,-0.205,-0.181,-0.060,0.087,0.059,0.032,0.037,0.037,-0.094,-0.042,-0.113,0.063
-0.061,-0.182,0.014,0.028,0.055,-0.173,-0.201,0.081,0.153,-0.109,-0.063,-0.066,0.029,-0.015,0.079,-0.095,-0.123,-0.032,0.101,-0.105,-0.028,-0.028,-0.056,-0.045,0.021,-0.058,-0.012,-0.060,0.120,0.116,0.119,-0.153,0.032,0.097,-0.007,0.032,-0.057,-0.061,-0.013,-0.044,-0.055,-0.023,-0.086,0.060,-0.122,0.018,0.104,0.101,0.020,0.021,-0.167,-0.054,0.003,-0.028,0.063,0.027,-0.111,-0.056,-0.115,-0.035,0.082,-0.168,0.018,-0.096,-0.168,-0.183,-0.260,-0.051,-0.218,-0.031,-0.014,-0.064,-0.045,0.104,0.010,0.060,0.068,-0.026,0.027,0.031,0.167,0.013,0.088,0.014,-0.091,-0.114,0.042,-0.122,-0.028,-0.249,-0.141,-0.117,-0.336,-0.363,-0.319,-0.158,-0.235,0.125,0.056,0.037,0.038,0.159,0.252,0.022,0.292,0.072,0.091,0.058,-0.090,-0.023,0.104,0.102,0.007,0.052,-0.056,0.054,-0.117,-0.017,-0.184,-0.207,-0.310,-0.183,-0.288,0.028,-0.086,0.152,0.296,0.462,0.364,0.351,0.259,0.302,0.107,0.163,-0.051,-0.091,-0.057,0.002,-0.085,-0.109,-0.071,-0.208,-0.055,-0.182,-0.006,0.110,-0.018,0.127,-0.071,0.018,-0.083,-0.179,-0.355,-0.741,-0.059,-0.053,0.188,0.299,0.324,0.174,0.072,-0.003,-0.215,-0.173,0.172,-0.021,-0.175,-0.060,0.051,0.024,0.039,0.027,0.091,-0.044,-0.098,-0.021,0.202,-0.010,-0.260,-0.515,-0.903,-0.917,-0.553,-0.318,-0.180,-0.141,0.113,0.174,0.185,-0.027,-0.112,-0.172,-0.205,-0.159,-0.012,0.141,-0.097,-0.013,-0.109,-0.100,-0.023,-0.099,0.075,0.158,0.031,-0.072,-0.255,-0.430,-0.652,-0.760,-0.681,-0.151,-0.154,-0.127,-0.087,-0.138,0.030,-0.091,-0.161,-0.092,-0.052,-0.046,-0.068,-0.049,0.031,-0.117,-0.069,-0.152,0.058,0.023,-0.170,0.062,-0.144,-0.220,-0.149,-0.266,-0.537,-0.784,-0.501,0.049,0.022,-0.187,-0.065,-0.127,-0.120,-0.144,-0.093,-0.165,-0.196,0.085,-0.094,-0.014,-0.091,0.088,-0.062,-0.039,-0.183,-0.256,-0.128,-0.341,-0.248,-0.189,-0.122,-0.475,-0.687,-0.981,-0.790,-0.015,0.028,-0.085,-0.084,0.009,-0.191,-0.255,-0.358,-0.326,-0.092,0.026,0.109,0.008,0.014,0.033,-0.051,-0.081,-0.050,-0.119,-0.361,-0.175,0.009,-0.215,-0.202,-0.087,-0.744,-1.283,-0.746,-0.138,0.096,-0.239,-0.013,-0.106,-0.344,-0.170,-0.299,-0.231,0.069,0.069,0.028,-0.037,0.035,-0.055,-0.260,0.011,-0.158,-0.406,-0.501,-0.287,-0.202,-0.144,0.032,0.074,-0.498,-1.152,-0.758,-0.197,0.078,-0.283,-0.108,-0.014,-0.152,-0.158,-0.161,-0.010,0.012,-0.002,0.152,-0.027,0.126,0.096,0.005,-0.133,-0.163,-0.182,-0.155,-0.136,-0.104,0.049,0.431,0.532,0.049,-0.441,-0.701,0.002,0.101,-0.093,-0.068,-0.178,-0.194,-0.115,0.012,-0.019,-0.039,0.006,-0.084,-0.034,-0.034,0.030,-0.163,0.063,-0.066,0.133,0.339,0.075,0.386,0.476,0.798,1.080,0.631,-0.342,-0.634,0.105,-0.106,0.047,-0.164,-0.039,0.033,0.261,0.258,-0.118,-0.105,-0.002,-0.042,0.101,-0.050,-0.090,0.222,0.020,0.165,0.229,0.461,0.610,0.752,0.620,0.596,0.480,0.725,0.103,0.115,0.126,0.177,0.245,-0.224,-0.016,0.147,0.267,0.139,-0.026,-0.095,-0.005,-0.005,0.119,0.037,0.000,0.111,0.073,0.344,0.679,0.537,0.648,0.511,0.431,0.188,-0.317,0.239,0.293,0.407,0.269,0.482,0.369,0.129,0.349,0.285,0.127,0.319,-0.066,0.006,0.035,0.030,0.045,0.167,0.027,0.080,0.290,0.366,0.427,0.446,0.276,0.534,0.204,-0.156,-0.390,-0.286,0.269,0.401,0.565,0.469,0.378,0.221,0.221,0.054,-0.056,-0.142,-0.132,0.017,0.107,0.128,-0.083,-0.018,0.049,0.073,0.057,0.325,0.409,0.347,0.395,0.258,0.184,-0.120,-0.437,-0.457,0.195,0.743,0.429,0.253,0.062,0.035,0.071,-0.063,0.116,-0.261,-0.122,-0.088,0.074,0.025,-0.043,-0.108,-0.084,0.114,0.095,-0.010,0.200,0.011,-0.184,0.099,-0.167,-0.326,-0.605,-0.368,0.035,-0.121,-0.243,-0.129,-0.256,-0.253,-0.206,-0.057,0.057,-0.108,0.092,-0.209,-0.049,0.044,-0.093,0.209,-0.068,0.012,0.069,-0.179,-0.067,-0.252,-0.020,-0.409,-0.512,-0.669,-0.582,-0.627,-0.629,-0.288,-0.287,-0.292,-0.283,-0.236,-0.221,-0.126,-0.210,-0.188,0.055,-0.123,0.016,0.164,-0.031,-0.014,-0.067,0.050,0.001,-0.046,0.025,-0.039,-0.451,-0.656,-0.722,-0.590,-0.477,-0.369,-0.257,-0.145,-0.071,-0.032,-0.028,-0.138,-0.020,-0.080,-0.123,0.138,0.021,-0.142,0.025,0.125,0.028,0.121,0.034,0.093,-0.200,-0.108,0.028,-0.109,-0.240,-0.414,-0.417,-0.319,-0.159,0.111,0.102,0.158,-0.136,0.041,0.191,-0.066,0.105,0.176,0.244,0.189,0.039,-0.010,-0.042,0.060,0.006,-0.035,0.097,-0.032,0.045,-0.099,-0.245,0.097,0.026,0.035,-0.240,-0.064,-0.184,-0.093,0.007,-0.143,0.183,-0.176,0.031,0.153,-0.024,0.088,0.250,0.130,-0.097,-0.153,-0.080,-0.095,-0.089,-0.006,0.013,0.001,-0.091,-0.125,-0.016,-0.049,0.207,-0.046,-0.133,-0.169,-0.129,-0.218,0.076,-0.009,0.139,0.136,0.118,0.317,0.318,0.484,-0.061,-0.046,-0.110,-0.107,-0.068,-0.014,-0.113,-0.012,-0.013,0.083,-0.232,-0.171,-0.086,-0.265,-0.262,-0.334,-0.284,-0.181,-0.134,-0.248,-0.044,0.042,0.013,0.101,0.179,0.066,0.030,-0.000,-0.084,-0.136,-0.234,-0.074,0.101,0.142,-0.012,-0.161,-0.107,0.028,0.096,0.018,-0.095,-0.062,-0.191,-0.315,-0.440,-0.439,-0.496,-0.455,-0.294,-0.324,-0.045,-0.172,-0.091,-0.298,-0.320,-0.462,-0.212,-0.250,-0.083,0.037,-0.009,-0.057,-0.128,-0.076,0.072,-0.109,-0.042,0.126,0.050,0.043,-0.061,-0.095,-0.143,-0.405,-0.217,-0.439,-0.269,-0.412,-0.312,-0.322,-0.423,-0.206,-0.045,-0.124,-0.093,0.102,-0.078,0.005,-0.087,-0.136,-0.080,0.148,0.048,-0.070,-0.135,0.117,-0.225,0.196,-0.010,-0.152,0.120,0.109,-0.123,-0.036,-0.066,-0.111,-0.074,-0.095,-0.092,-0.144,-0.146,-0.091,-0.110,0.026,-0.098,-0.134,-0.015,0.200,-0.171
0.192,-0.067,-0.005,0.038,0.072,-0.170,-0.066,-0.050,-0.174,-0.141,0.041,-0.065,0.130,-0.093,0.131,0.055,-0.002,-0.105,-0.116,-0.045,-0.139,-0.004,-0.060,-0.123,0.051,0.014,-0.073,0.090,0.037,-0.072,-0.047,-0.079,-0.195,-0.109,0.037,0.018,0.025,0.028,-0.030,-0.108,-0.099,-0.114,0.064,-0.041,0.042,0.037,0.042,-0.020,0.120,-0.037,-0.037,-0.027,-0.012,-0.048,-0.074,0.052,-0.010,0.010,0.026,-0.112,0.004,-0.041,-0.004,-0.050,0.092,-0.051,-0.139,0.108,0.100,0.145,0.226,0.077,-0.001,0.125,-0.141,-0.090,-0.138,0.066,-0.051,0.063,0.164,-0.158,-0.055,0.063,0.041,-0.113,-0.001,0.041,0.093,0.061,-0.078,0.046,-0.112,0.036,0.003,0.091,0.256,0.365,0.318,0.300,0.227,0.038,-0.140,-0.077,-0.085,-0.235,-0.142,-0.053,-0.060,0.035,0.108,-0.058,0.154,-0.115,0.107,-0.076,0.022,0.002,0.083,0.017,0.051,-0.051,-0.050,0.172,0.273,0.158,0.260,0.173,0.210,0.054,-0.044,-0.044,-0.234,-0.337,-0.257,-0.121,-0.047,-0.018,-0.160,-0.079,-0.058,-0.078,-0.114,0.030,-0.110,0.186,-0.032,-0.040,-0.212,-0.165,-0.277,-0.048,-0.221,0.021,0.062,0.215,0.100,0.045,-0.123,-0.136,-0.181,-0.281,-0.303,-0.180,0.014,0.002,-0.325,0.106,-0.006,0.080,-0.038,-0.110,0.042,-0.065,-0.125,-0.192,-0.256,-0.143,-0.397,-0.197,-0.396,-0.112,-0.024,-0.071,0.207,0.094,0.162,-0.104,-0.071,-0.059,-0.264,-0.084,-0.213,-0.227,-0.089,-0.019,0.037,-0.088,-0.011,-0.184,-0.075,-0.118,-0.397,-0.468,-0.275,-0.361,-0.404,-0.344,-0.058,-0.127,-0.066,0.146,0.089,-0.034,0.004,-0.032,0.024,0.036,0.085,0.154,0.110,0.036,-0.148,0.054,-0.043,-0.004,-0.119,-0.166,-0.042,-0.222,-0.352,-0.374,-0.320,-0.371,-0.312,-0.223,0.017,0.014,0.233,0.199,0.275,0.140,-0.003,0.033,0.150,0.220,0.247,0.222,0.113,0.024,0.036,-0.028,-0.136,-0.050,0.061,-0.110,-0.227,-0.284,-0.164,-0.266,-0.317,-0.059,-0.055,0.012,-0.191,-0.120,0.242,0.071,0.173,0.478,0.313,0.171,0.436,0.257,0.134,0.088,0.042,0.043,0.161,-0.078,-0.025,0.196,0.029,-0.154,-0.124,-0.209,-0.217,-0.378,-0.229,-0.364,-0.226,-0.224,-0.344,-0.172,-0.118,0.038,0.161,0.024,0.124,0.198,0.115,0.195,0.158,-0.003,0.367,0.111,0.251,-0.024,-0.033,-0.036,-0.120,0.080,-0.245,-0.266,-0.292,-0.369,-0.240,-0.339,-0.431,-0.503,-0.735,-0.551,-0.269,-0.276,-0.257,0.011,-0.064,-0.120,-0.135,0.014,-0.072,0.085,0.096,0.147,0.207,-0.065,-0.172,-0.045,-0.101,-0.054,-0.047,-0.324,-0.282,-0.300,-0.151,-0.233,-0.372,-0.377,-0.533,-0.212,-0.071,-0.049,-0.190,-0.230,-0.273,-0.319,-0.248,-0.020,-0.148,0.047,0.112,0.169,0.157,0.095,0.042,0.097,-0.010,0.080,-0.080,-0.209,-0.087,0.123,0.003,-0.077,0.033,0.132,0.315,0.338,0.079,-0.054,0.069,-0.182,-0.352,-0.331,-0.235,0.044,0.099,-0.122,0.068,0.161,0.179,0.091,0.036,-0.145,-0.001,-0.218,0.061,0.120,0.313,0.249,0.353,0.203,0.152,0.429,0.740,0.257,-0.015,-0.133,-0.060,-0.286,-0.326,-0.268,-0.222,-0.294,-0.391,-0.056,0.000,0.111,0.042,0.038,0.046,0.019,-0.093,-0.024,0.194,0.144,0.384,0.274,0.153,0.394,0.180,0.353,0.162,-0.108,-0.323,-0.161,-0.205,-0.213,-0.034,-0.187,-0.361,-0.168,-0.266,-0.099,-0.045,0.122,0.234,0.053,0.141,-0.085,0.066,0.059,0.012,0.257,0.399,0.439,0.276,0.408,0.186,0.083,0.065,-0.011,-0.131,0.179,-0.055,-0.236,-0.570,-0.291,-0.453,-0.167,-0.152,-0.102,0.073,0.112,0.210,0.017,-0.050,-0.102,-0.003,0.220,0.091,0.133,0.510,0.301,0.227,0.362,0.179,0.199,-0.111,-0.229,0.021,-0.055,-0.273,-0.491,-0.329,-0.412,-0.108,-0.167,-0.185,-0.135,-0.001,0.195,-0.052,0.009,-0.022,-0.047,0.094,-0.026,-0.094,0.192,0.222,0.372,0.329,0.171,0.096,0.049,-0.060,0.121,-0.296,-0.358,-0.397,-0.380,-0.131,-0.299,-0.008,-0.166,-0.156,-0.102,0.094,-0.047,0.022,-0.184,-0.118,0.039,0.079,-0.010,0.075,-0.007,0.296,0.138,0.110,0.130,0.089,0.107,0.206,-0.072,-0.257,-0.406,-0.246,-0.228,-0.203,-0.152,-0.277,-0.191,-0.170,-0.173,-0.089,-0.012,0.149,0.140,0.036,0.011,-0.029,-0.052,0.085,0.026,-0.048,-0.207,-0.087,-0.040,-0.162,-0.185,-0.244,-0.250,-0.147,-0.253,-0.210,-0.090,-0.039,-0.155,-0.220,-0.071,0.024,-0.098,0.068,-0.115,0.068,0.050,-0.173,-0.013,-0.085,0.105,0.045,-0.142,-0.095,-0.229,-0.155,-0.404,-0.383,-0.289,-0.074,-0.090,-0.087,-0.062,-0.149,-0.069,-0.194,-0.112,-0.132,-0.096,-0.070,-0.016,-0.054,-0.009,0.005,-0.086,-0.052,0.046,-0.076,-0.028,-0.063,-0.189,-0.152,-0.214,-0.263,-0.195,-0.347,-0.254,-0.037,0.002,0.015,-0.113,-0.062,-0.067,-0.128,-0.259,-0.033,0.062,-0.174,-0.037,-0.018,0.175,0.178,0.131,-0.078,-0.039,-0.063,-0.187,-0.113,-0.161,-0.045,-0.108,-0.136,-0.281,-0.230,-0.263,-0.146,-0.290,-0.032,-0.053,0.065,-0.052,-0.063,0.052,-0.049,0.017,0.069,0.124,0.072,0.071,-0.117,-0.062,-0.013,0.018,-0.036,-0.129,-0.045,-0.090,-0.063,-0.044,0.057,0.036,-0.117,-0.163,-0.226,-0.162,-0.031,0.198,-0.068,0.041,0.078,0.048,-0.065,-0.005,0.081,-0.118,0.109,0.048,0.215,-0.053,-0.016,-0.036,-0.148,-0.047,-0.063,0.045,0.022,-0.051,-0.045,-0.030,0.018,-0.081,0.137,0.021,0.050,-0.037,0.071,-0.015,0.014,0.173,0.159,-0.053,-0.070,-0.039,-0.096,-0.059,0.008,0.053,0.103,0.075,-0.017,-0.119,0.187,-0.150,0.031,-0.181,-0.026,-0.012,-0.054,0.017,-0.019,0.002,-0.050,0.073,0.010,0.032,-0.023,0.062,-0.155,0.065,-0.033,0.019,-0.094,0.064,-0.002,-0.158,0.070,-0.041,0.151,0.045,-0.145,0.001,-0.084,-0.024,0.121,0.072,0.006,0.030,0.039,-0.004,0.043,-0.194,0.019,-0.060,-0.034,-0.253,-0.101,-0.143,-0.125,-0.055,0.091,-0.064,-0.035,-0.020
-0.056,-0.122,-0.046,-0.001,-0.111,-0.059,-0.071,0.003,0.133,-0.241,-0.010,0.006,0.008,0.105,-0.072,-0.059,0.070,-0.042,-0.038,0.031,0.085,0.071,-0.126,-0.088,-0.138,0.089,-0.121,0.054,-0.246,0.082,-0.040,0.044,0.118,0.099,0.050,0.095,-0.059,0.094,0.074,0.063,-0.008,-0.060,0.176,-0.104,-0.042,-0.074,-0.070,-0.119,-0.034,-0.008,-0.066,-0.109,0.075,0.012,-0.205,-0.151,-0.052,-0.016,0.093,0.117,-0.022,-0.194,0.091,-0.021,-0.192,0.061,0.082,-0.026,0.064,0.065,-0.075,-0.043,-0.112,0.015,-0.030,-0.176,-0.044,-0.108,-0.012,0.110,0.070,-0.073,-0.093,-0.088,-0.097,0.022,-0.005,-0.077,-0.040,-0.084,-0.051,-0.033,-0.011,-0.201,-0.088,-0.085,-0.034,0.040,-0.071,-0.083,0.033,-0.130,-0.034,-0.122,0.087,-0.069,-0.136,0.064,0.008,-0.017,-0.006,-0.021,-0.082,-0.027,0.048,0.031,-0.162,0.030,-0.002,-0.157,-0.005,0.066,0.029,-0.135,-0.293,-0.334,-0.384,-0.385,-0.408,-0.493,-0.341,-0.228,-0.197,-0.352,0.184,-0.032,0.079,-0.120,0.092,-0.196,-0.119,-0.103,0.043,0.030,0.024,0.071,0.119,0.067,-0.043,-0.068,-0.080,-0.267,-0.331,-0.451,-0.584,-0.757,-0.888,-0.928,-1.022,-0.770,-0.521,-0.333,-0.225,-0.083,0.030,-0.050,0.078,0.034,0.242,0.034,0.085,-0.003,0.103,0.121,-0.075,-0.004,-0.094,-0.098,-0.018,0.170,0.202,-0.002,-0.189,-0.455,-0.677,-0.592,-0.796,-0.954,-0.798,-0.425,-0.287,-0.383,-0.117,-0.016,-0.021,0.095,-0.029,-0.010,-0.077,-0.026,-0.002,-0.210,-0.121,-0.075,-0.041,0.030,0.303,0.417,0.124,0.068,-0.028,0.044,0.038,-0.049,0.091,0.054,-0.233,-0.266,-0.287,-0.140,-0.092,-0.044,0.194,-0.317,-0.043,0.048,-0.136,-0.096,-0.020,-0.164,-0.185,-0.062,-0.177,-0.109,0.006,-0.170,-0.176,-0.093,-0.130,0.133,0.376,0.494,0.413,0.477,0.230,0.263,0.157,-0.051,-0.009,0.095,-0.022,-0.006,0.040,-0.108,-0.154,0.007,-0.157,-0.188,-0.035,0.026,-0.126,-0.019,-0.200,-0.132,0.026,0.284,0.284,0.256,0.553,0.860,0.746,0.652,0.562,0.432,0.258,0.209,0.255,0.225,-0.109,-0.085,-0.070,-0.158,-0.050,0.108,0.019,-0.052,0.070,-0.045,0.206,0.082,-0.129,0.070,0.205,0.214,0.482,0.461,0.531,0.462,0.648,0.506,0.440,0.336,0.244,0.178,0.355,0.232,0.119,-0.106,-0.036,-0.088,0.144,-0.096,0.023,0.092,0.003,0.080,0.266,0.089,0.069,0.359,0.406,0.306,0.413,0.203,0.015,-0.277,-0.039,0.055,0.000,0.183,0.064,-0.098,0.006,0.143,0.112,0.021,0.003,0.091,0.182,0.020,0.121,-0.021,-0.033,0.207,0.067,-0.013,0.163,0.261,-0.086,-0.142,-0.229,-0.169,-0.386,-0.560,-0.264,-0.190,-0.217,-0.008,-0.259,-0.257,-0.144,0.394,0.066,0.012,0.114,-0.028,0.027,0.122,0.049,-0.191,-0.121,0.018,-0.109,-0.047,-0.188,0.035,-0.023,-0.358,-0.344,-0.037,-0.097,-0.227,-0.222,-0.132,-0.127,-0.105,-0.225,-0.498,-0.480,0.043,0.037,-0.029,-0.005,0.106,0.013,0.112,0.087,0.095,-0.006,-0.107,-0.121,-0.118,-0.007,0.006,-0.214,-0.410,-0.253,-0.185,-0.215,-0.302,-0.002,0.177,-0.026,-0.028,-0.250,-0.505,-0.354,-0.061,-0.033,-0.031,0.204,-0.131,0.030,-0.042,-0.091,-0.135,-0.070,-0.109,0.012,-0.023,0.001,-0.020,-0.476,-0.382,-0.074,0.013,-0.337,-0.223,-0.067,0.245,0.160,0.046,-0.307,-0.530,-0.555,-0.078,-0.066,-0.100,0.218,-0.080,-0.010,-0.300,-0.307,-0.080,0.082,0.157,0.062,-0.140,-0.125,-0.440,-0.123,-0.366,-0.324,-0.336,-0.169,-0.028,-0.010,0.144,0.067,0.055,-0.315,-0.453,-0.405,-0.269,0.020,-0.098,-0.078,0.021,-0.018,-0.148,-0.438,-0.298,-0.082,0.292,0.142,0.011,-0.072,-0.304,-0.180,-0.106,-0.086,0.071,-0.157,-0.224,0.028,0.045,-0.067,-0.106,-0.361,-0.264,-0.296,-0.166,-0.203,-0.055,-0.070,-0.097,-0.127,-0.366,-0.453,-0.475,-0.144,-0.095,-0.020,0.013,-0.188,0.035,-0.116,0.047,-0.078,-0.122,-0.170,-0.099,-0.014,-0.022,-0.129,-0.226,-0.497,-0.362,-0.232,0.001,0.022,0.124,-0.090,-0.041,-0.157,-0.196,-0.425,-0.508,-0.622,-0.317,-0.307,-0.086,-0.142,-0.160,-0.176,-0.220,-0.184,-0.149,-0.037,0.049,0.068,-0.063,-0.139,-0.159,-0.169,-0.172,-0.015,0.054,0.039,-0.057,-0.022,0.061,-0.162,-0.292,-0.465,-0.454,-0.396,-0.433,-0.061,-0.416,-0.322,-0.069,-0.108,-0.035,-0.117,-0.149,-0.164,-0.161,-0.129,-0.255,-0.194,-0.246,-0.272,-0.002,0.152,0.126,-0.030,0.060,0.130,-0.170,-0.082,-0.195,-0.138,-0.198,-0.296,-0.056,-0.151,-0.109,0.043,-0.017,-0.023,-0.187,-0.083,-0.212,-0.254,-0.325,-0.325,-0.138,-0.165,-0.106,0.050,0.059,0.049,0.209,-0.015,0.053,-0.066,0.060,-0.053,0.172,0.171,0.116,-0.046,-0.256,-0.061,-0.094,0.002,-0.107,-0.151,-0.133,-0.119,-0.415,-0.342,-0.321,-0.096,-0.218,-0.127,0.101,0.135,0.240,0.074,-0.017,0.030,0.078,0.039,-0.100,0.053,0.176,0.284,0.267,0.209,0.018,-0.016,-0.109,-0.027,-0.140,-0.271,-0.315,-0.261,-0.355,-0.276,-0.269,-0.208,0.012,0.051,0.137,0.173,0.342,0.179,-0.023,-0.018,-0.091,-0.075,-0.030,-0.053,0.013,0.171,0.405,0.324,0.114,0.180,0.133,0.073,-0.124,-0.041,-0.440,-0.408,-0.318,-0.363,-0.136,0.053,-0.110,0.021,0.222,0.326,0.133,-0.071,0.136,-0.308,-0.005,-0.048,-0.059,-0.035,-0.008,-0.005,-0.004,-0.038,0.114,0.043,0.113,0.203,0.171,0.059,-0.105,-0.178,-0.105,-0.151,-0.043,-0.128,-0.100,0.044,-0.024,0.053,0.150,-0.034,0.020,0.116,0.137,0.080,0.078,-0.143,-0.234,0.035,0.063,-0.001,0.166,0.128,0.064,0.063,-0.028,0.069,-0.016,0.064,-0.068,-0.000,-0.063,-0.091,0.036,0.030,-0.054,-0.126,-0.105,0.008,-0.115,-0.040,-0.027,0.021,-0.182,0.012,-0.021,-0.002,-0.181,-0.118,-0.014,0.126,-0.011,0.139,-0.237,-0.067,-0.114,-0.014,0.031,-0.187,-0.063,0.076,0.003,-0.124,-0.115,-0.092,0.092,-0.044,0.026,0.047,-0.110
-0.135,-0.056,-0.032,0.051,-0.060,-0.007,0.103,0.142,0.055,0.030,0.032,0.145,0.053,-0.021,0.102,0.036,0.024,-0.020,0.090,-0.048,-0.041,0.024,0.084,-0.026,0.049,0.099,0.094,0.096,0.383,0.015,0.091,-0.033,-0.068,0.125,-0.039,0.034,-0.027,0.127,0.191,-0.076,-0.069,-0.012,0.008,0.087,-0.036,0.077,0.069,-0.041,0.099,-0.001,-0.170,0.160,0.054,-0.021,-0.009,0.052,-0.046,0.065,0.061,-0.035,-0.036,-0.127,0.104,0.071,0.135,-0.072,0.031,0.163,0.046,-0.125,0.163,0.225,0.239,0.059,0.095,0.087,-0.171,0.201,0.007,0.044,-0.014,0.112,0.102,0.103,0.251,0.050,0.004,-0.040,0.026,0.032,0.268,0.019,0.053,0.074,-0.106,-0.358,-0.206,-0.108,-0.122,-0.052,0.285,0.426,0.190,0.134,0.062,0.053,0.179,0.182,-0.046,0.082,-0.009,0.007,0.038,0.039,0.156,0.053,-0.117,-0.082,0.051,-0.003,0.088,-0.031,0.017,-0.211,0.078,-0.131,-0.039,0.177,0.109,0.239,0.130,0.114,-0.002,0.054,0.012,0.037,0.140,0.225,-0.012,0.174,-0.055,0.112,0.031,-0.025,0.034,-0.254,-0.038,-0.056,0.260,0.182,0.293,0.064,-0.056,0.014,-0.066,-0.148,0.031,0.151,0.159,0.011,-0.266,0.012,0.124,0.187,0.003,0.069,-0.022,0.131,-0.053,-0.001,-0.184,0.020,0.019,-0.068,-0.241,0.134,0.353,0.300,0.316,0.070,0.218,-0.118,-0.160,-0.145,-0.047,-0.000,-0.007,-0.058,-0.056,0.102,0.007,0.225,-0.027,0.064,0.088,-0.131,-0.132,-0.167,0.048,0.040,-0.048,0.013,0.010,0.127,-0.033,0.109,0.338,0.230,0.178,-0.409,-0.676,-0.245,0.086,-0.113,-0.073,-0.059,-0.113,-0.056,0.055,0.136,0.004,0.170,0.116,-0.022,0.283,0.012,-0.009,0.080,0.061,0.055,0.107,0.083,0.015,-0.009,0.520,0.514,0.136,-0.754,-0.770,-0.215,0.084,-0.120,-0.179,-0.262,-0.203,-0.106,-0.352,-0.085,0.245,0.088,-0.040,0.008,0.036,0.045,0.263,-0.256,-0.135,-0.056,-0.116,-0.063,0.073,0.265,0.699,0.885,0.182,-0.537,-0.548,-0.205,-0.224,-0.046,-0.004,-0.078,-0.030,-0.069,0.065,-0.152,0.017,0.072,-0.095,-0.015,-0.093,0.036,-0.053,-0.037,-0.093,0.025,0.021,0.358,0.157,0.463,0.798,0.764,0.345,-0.327,-0.522,-0.164,-0.076,-0.261,0.056,-0.095,-0.004,-0.097,-0.034,-0.097,-0.062,0.047,0.042,0.091,-0.053,-0.062,0.009,-0.227,-0.016,0.211,0.236,0.446,0.339,0.642,0.730,0.416,0.090,-0.098,-0.042,0.036,0.147,0.324,0.008,0.251,0.151,0.049,0.002,-0.029,-0.042,0.145,0.233,-0.073,-0.029,-0.061,0.083,-0.003,0.170,0.467,0.552,0.480,0.367,0.468,0.248,0.084,-0.414,-0.204,0.002,0.082,-0.097,0.213,0.427,0.190,0.026,-0.123,0.321,0.189,0.114,-0.048,-0.173,0.003,0.019,0.181,0.132,0.087,0.147,0.197,0.366,0.203,0.022,0.198,0.032,0.104,-0.084,-0.112,-0.130,0.029,0.073,-0.038,0.087,0.325,0.095,0.030,0.305,0.193,0.105,-0.024,-0.036,-0.057,0.071,0.182,0.012,0.013,0.078,0.041,0.119,-0.112,0.073,0.350,0.045,0.073,0.000,0.207,0.017,-0.329,-0.211,0.199,0.345,0.380,0.127,0.057,0.170,0.187,0.222,-0.118,-0.126,-0.112,0.025,0.092,-0.007,-0.250,-0.172,-0.146,0.044,0.073,-0.002,0.144,0.218,0.242,0.282,0.051,-0.360,-0.147,-0.054,0.254,0.401,0.303,0.051,0.029,0.130,0.094,0.082,-0.110,-0.128,-0.046,0.081,-0.098,0.015,-0.170,-0.237,-0.181,-0.010,0.039,0.349,0.075,0.161,0.071,0.123,-0.034,-0.064,0.114,0.460,0.548,0.464,0.128,0.088,0.095,0.077,-0.032,-0.027,-0.149,-0.091,-0.019,0.138,0.058,-0.015,-0.349,-0.004,-0.126,-0.149,0.154,0.194,0.373,0.177,0.326,0.171,0.073,0.025,0.157,0.425,0.270,0.104,0.140,0.020,0.031,0.074,0.163,-0.042,-0.025,-0.017,0.049,0.018,0.003,-0.181,-0.077,0.097,-0.076,-0.109,0.243,-0.060,0.084,0.102,0.253,0.363,0.217,0.053,0.354,0.260,0.030,0.080,0.017,0.048,-0.107,-0.138,-0.103,0.211,-0.251,-0.221,-0.065,-0.080,-0.120,-0.101,-0.094,-0.060,0.008,-0.170,0.001,0.100,0.025,-0.122,0.266,0.269,0.285,-0.122,-0.092,-0.301,-0.140,-0.195,-0.118,-0.185,-0.023,0.087,0.025,-0.127,-0.040,0.076,0.025,-0.061,-0.076,-0.232,-0.075,-0.110,-0.008,-0.178,-0.238,-0.115,-0.103,-0.026,-0.061,0.184,0.005,-0.089,-0.378,-0.328,-0.338,-0.379,-0.091,-0.301,-0.290,-0.094,-0.265,-0.115,-0.173,-0.225,0.004,-0.107,-0.110,0.013,-0.104,-0.184,0.048,-0.026,-0.184,-0.200,-0.178,-0.262,-0.135,-0.033,-0.011,-0.148,-0.310,-0.225,-0.223,-0.203,-0.382,-0.118,0.004,-0.153,-0.136,-0.215,-0.163,0.040,0.153,0.154,0.165,0.111,0.099,0.182,-0.030,0.064,0.119,-0.196,-0.393,-0.394,-0.290,-0.327,-0.135,-0.208,0.022,-0.126,-0.095,-0.277,-0.202,-0.255,-0.321,-0.075,-0.283,-0.055,-0.041,0.006,0.242,0.093,0.089,0.059,0.017,-0.166,0.118,-0.058,-0.102,0.055,-0.232,-0.302,-0.426,-0.121,-0.199,0.198,-0.027,-0.243,-0.251,-0.111,-0.185,-0.254,-0.190,0.105,-0.065,-0.072,0.076,0.029,0.115,0.171,0.137,0.056,0.009,0.050,-0.030,-0.158,0.116,-0.227,-0.286,-0.256,-0.225,-0.138,-0.248,-0.184,-0.136,-0.027,-0.181,-0.172,-0.081,-0.042,-0.016,-0.239,-0.071,0.006,0.023,-0.124,0.061,0.075,0.065,0.004,0.126,0.065,-0.002,-0.069,-0.026,-0.151,-0.050,-0.129,-0.003,-0.004,-0.015,-0.029,0.121,-0.024,0.062,-0.139,-0.058,-0.089,-0.012,-0.054,-0.103,0.058,0.077,0.116,-0.028,0.009,-0.063,-0.015,-0.038,0.046,0.025,0.006,0.146,0.089,-0.000,0.002,0.055,0.071,0.002,0.081,0.069,-0.039,0.171,-0.010,-0.023,-0.126,0.125,-0.165,0.034,-0.167,0.088,0.228,-0.104,-0.155,0.094,0.122,0.049,0.006,0.084,0.091,0.031,-0.112,0.187,-0.036,-0.040,0.019,0.138,0.076,-0.148,0.004,-0.013,0.106,-0.003,0.124,0.031,-0.032,-0.062,-0.191,-0.036,-0.031,0.086
-0.092,0.024,0.166,0.025,0.070,0.086,0.096,-0.011,-0.072,0.111,0.020,0.143,0.046,0.126,0.112,-0.004,-0.084,0.060,0.087,0.169,0.085,-0.107,0.095,0.018,-0.160,0.069,0.118,0.054,0.110,-0.007,-0.150,0.152,-0.135,0.065,0.166,-0.006,-0.034,0.069,-0.200,0.025,-0.065,0.017,0.134,0.078,-0.079,-0.000,0.041,0.009,0.096,0.088,0.010,0.109,0.267,0.000,-0.041,-0.033,0.031,0.035,0.109,-0.093,0.012,0.092,-0.065,-0.117,-0.041,-0.174,-0.094,-0.322,-0.253,-0.135,-0.039,-0.000,-0.103,-0.105,-0.111,0.097,-0.102,0.037,0.091,-0.073,-0.033,-0.030,0.140,0.074,-0.074,-0.023,0.029,0.085,-0.112,-0.017,-0.072,0.052,-0.007,0.003,-0.294,-0.186,-0.205,-0.364,-0.443,-0.380,-0.296,-0.109,-0.012,-0.054,0.006,-0.057,0.042,-0.189,-0.062,0.028,0.138,0.055,-0.096,-0.078,-0.121,-0.038,-0.070,0.023,0.107,0.067,-0.070,-0.012,0.005,0.040,-0.208,-0.130,-0.047,-0.089,-0.064,-0.217,-0.157,-0.053,-0.048,-0.009,-0.112,-0.049,-0.116,0.025,-0.125,-0.037,-0.007,-0.003,0.038,0.104,-0.047,-0.085,-0.022,-0.009,0.038,0.150,0.086,0.162,-0.087,-0.163,-0.041,-0.082,0.106,-0.192,-0.187,-0.213,-0.055,0.099,0.014,-0.036,0.046,-0.138,0.054,0.105,-0.026,0.018,0.246,-0.056,-0.018,-0.010,0.113,0.212,0.098,0.114,0.089,-0.012,-0.239,-0.047,-0.051,-0.066,0.039,-0.004,0.103,-0.249,-0.205,-0.198,-0.086,-0.055,-0.073,-0.144,0.039,0.054,0.064,0.057,0.033,0.057,0.006,0.129,0.169,0.217,0.075,-0.040,0.056,-0.017,0.008,0.044,-0.050,0.003,-0.098,0.056,-0.037,0.051,0.070,-0.129,-0.167,-0.159,0.077,0.056,0.092,-0.058,0.026,0.056,0.024,-0.023,0.140,0.158,0.026,0.158,0.213,-0.091,-0.091,-0.230,-0.092,-0.190,-0.041,-0.222,-0.248,-0.016,-0.076,-0.144,-0.159,-0.022,0.024,-0.042,0.047,-0.029,-0.097,-0.008,-0.026,-0.235,0.021,0.138,-0.092,0.049,0.150,0.157,-0.136,-0.057,-0.002,0.111,0.073,0.193,0.088,-0.201,-0.127,-0.278,0.041,-0.088,-0.179,-0.190,-0.084,-0.143,-0.116,0.057,-0.150,0.011,-0.067,-0.003,0.116,0.098,0.106,-0.035,0.040,0.058,-0.012,0.039,-0.076,0.223,0.140,0.062,-0.189,0.163,0.441,-0.023,-0.107,-0.058,-0.126,-0.014,-0.383,0.011,-0.045,-0.063,-0.013,0.012,-0.044,0.028,0.024,0.001,-0.010,-0.003,0.050,-0.073,0.137,0.010,-0.243,-0.127,-0.332,-0.194,0.356,0.395,0.391,0.330,0.004,-0.026,-0.066,-0.280,-0.161,-0.283,-0.322,-0.262,-0.267,-0.083,-0.195,-0.025,0.040,0.014,-0.059,0.000,0.106,0.215,0.129,0.011,-0.096,-0.286,0.196,0.538,0.738,0.220,0.343,0.344,0.223,-0.013,-0.216,0.041,-0.354,-0.543,-0.346,-0.210,-0.291,0.018,-0.185,0.050,0.090,0.001,0.007,-0.221,0.043,0.318,0.096,0.129,-0.003,-0.175,0.609,0.738,0.483,0.197,0.318,0.141,0.222,0.220,0.085,0.096,-0.154,-0.406,-0.533,-0.104,-0.015,0.042,0.035,0.123,-0.007,0.079,0.115,0.022,0.237,0.388,0.125,0.069,0.023,0.064,0.504,0.656,0.046,0.235,0.299,0.292,0.340,0.407,0.365,-0.002,-0.296,-0.464,-0.379,-0.037,-0.072,-0.011,0.052,0.019,-0.104,0.237,0.120,0.229,0.256,0.285,0.026,-0.141,0.035,0.400,0.670,0.262,0.275,0.221,0.360,0.440,0.485,0.298,-0.018,-0.155,-0.314,-0.446,-0.185,-0.102,0.083,-0.016,0.010,0.010,0.058,0.145,0.126,0.206,0.234,0.055,0.013,0.059,-0.078,0.446,0.800,0.535,0.719,0.636,0.508,0.347,0.157,0.039,-0.552,-0.398,-0.370,-0.104,-0.074,0.061,0.113,0.027,-0.071,-0.012,0.074,-0.041,0.175,-0.256,-0.154,-0.076,0.034,0.247,0.350,0.528,0.966,0.794,0.541,0.522,0.670,0.401,0.056,-0.241,-0.481,-0.201,-0.208,-0.235,-0.215,-0.171,-0.090,0.092,0.048,0.197,0.198,0.168,-0.141,-0.471,-0.705,-0.648,-0.581,-0.507,-0.392,0.137,0.467,0.540,0.462,0.383,0.106,-0.078,-0.373,-0.484,-0.386,-0.407,-0.225,-0.448,-0.334,-0.302,-0.048,0.056,0.061,0.091,0.193,0.195,-0.172,-0.563,-0.996,-1.020,-1.342,-1.279,-1.164,-1.003,-0.768,-0.558,-0.438,-0.450,-0.540,-0.617,-0.525,-0.575,-0.497,-0.397,-0.550,-0.508,-0.251,-0.092,0.101,-0.149,0.110,-0.008,0.013,0.183,-0.001,-0.312,-0.278,-0.705,-0.906,-1.019,-1.144,-1.150,-1.080,-0.940,-0.856,-0.766,-0.761,-0.699,-0.724,-0.472,-0.495,-0.664,-0.558,-0.513,-0.133,-0.101,0.052,0.032,-0.134,-0.018,0.176,0.058,0.282,0.013,-0.011,0.074,-0.051,-0.239,-0.243,-0.350,-0.522,-0.602,-0.732,-0.534,-0.623,-0.398,-0.329,-0.492,-0.418,-0.227,-0.482,-0.367,-0.183,-0.003,0.060,-0.059,-0.048,0.150,0.135,-0.038,0.247,0.418,0.355,0.114,0.238,-0.078,0.085,-0.115,-0.167,-0.328,-0.244,-0.262,-0.191,-0.292,-0.423,-0.445,-0.180,-0.334,-0.292,-0.043,0.099,0.035,0.053,-0.001,0.103,-0.080,0.167,0.301,0.172,0.188,0.195,0.002,-0.008,0.027,-0.200,-0.059,-0.085,-0.003,-0.177,-0.159,-0.313,-0.274,-0.128,0.003,-0.281,-0.225,0.018,0.070,0.040,-0.077,0.055,0.054,0.154,-0.044,0.114,0.218,0.112,0.176,0.114,0.184,-0.049,-0.001,-0.251,-0.286,-0.440,-0.312,-0.241,-0.134,-0.203,-0.077,-0.228,-0.168,-0.102,-0.094,-0.047,0.099,0.133,-0.053,0.085,0.092,-0.124,0.087,0.040,0.198,0.036,0.127,0.060,0.107,0.122,-0.041,-0.039,-0.144,-0.130,-0.194,-0.179,-0.124,-0.064,-0.169,-0.037,-0.061,-0.084,0.076,-0.019,0.007,0.017,-0.163,0.066,-0.099,-0.026,0.163,-0.136,-0.047,-0.010,-0.032,0.041,0.171,-0.002,-0.038,-0.046,-0.177,-0.244,-0.280,-0.157,-0.291,0.009,-0.022,-0.081,0.062,-0.133,0.223,0.010,-0.077,-0.172,-0.081,-0.078,0.068,0.061,-0.067,0.052,0.033,-0.199,-0.081,-0.058,0.082,0.095,0.037,-0.058,-0.068,-0.125,0.066,-0.139,0.133,-0.094,0.010,0.068,-0.078,0.012,0.146,-0.151,0.309,-0.019,0.050,-0.069,0.005
-0.022,-0.015,0.165,-0.108,-0.111,-0.078,-0.125,-0.222,-0.074,-0.035,-0.049,-0.055,0.000,0.358,-0.032,0.137,-0.082,0.035,-0.152,0.098,0.024,0.076,0.038,0.021,0.008,-0.026,0.044,0.019,0.081,0.063,0.150,-0.028,0.012,-0.034,0.071,0.002,-0.024,-0.001,0.135,0.085,0.039,0.021,0.058,-0.071,-0.110,0.092,-0.073,0.218,0.088,-0.039,-0.076,0.041,0.067,-0.003,-0.031,0.022,0.061,0.023,-0.088,0.148,0.074,-0.032,-0.031,-0.032,0.014,-0.113,-0.022,0.048,0.008,-0.016,-0.003,-0.011,0.009,0.059,0.021,0.068,0.005,-0.099,0.050,-0.010,0.052,-0.041,0.014,0.136,-0.039,0.089,-0.016,0.028,0.145,0.120,-0.061,-0.044,-0.020,0.029,-0.053,0.128,0.023,0.046,0.013,0.044,-0.193,-0.046,0.079,0.077,0.093,0.018,0.004,-0.240,-0.130,-0.001,0.072,0.004,0.058,-0.055,-0.118,0.108,0.038,-0.046,-0.154,0.014,-0.072,-0.003,-0.007,-0.121,0.035,0.031,0.035,0.005,0.001,-0.106,-0.086,-0.159,-0.036,0.083,0.084,0.018,-0.125,-0.022,0.108,-0.068,0.040,0.033,-0.064,-0.008,0.097,-0.021,0.036,-0.032,-0.017,-0.204,-0.169,-0.029,0.027,0.126,0.058,-0.132,-0.135,0.023,-0.011,-0.074,0.046,0.032,-0.082,-0.038,0.062,-0.017,0.047,0.099,0.050,0.174,0.153,-0.082,0.019,0.075,-0.092,-0.003,-0.091,-0.062,-0.167,-0.085,0.064,0.208,0.261,0.165,0.045,-0.231,-0.004,-0.041,-0.069,0.273,0.024,0.101,-0.113,0.152,-0.076,-0.090,0.003,0.219,0.178,0.138,-0.055,0.075,-0.012,0.008,0.085,-0.121,0.155,0.120,0.357,0.584,0.341,0.381,0.076,0.138,-0.020,0.135,0.133,0.027,0.093,0.056,0.089,0.101,0.074,0.049,0.029,0.147,-0.099,0.002,0.066,-0.035,0.023,0.253,-0.020,0.113,-0.080,0.112,0.507,0.394,0.364,0.382,0.191,0.199,0.160,0.072,0.177,0.121,0.079,0.179,-0.074,0.050,0.050,0.056,0.034,0.069,-0.071,0.119,-0.008,-0.057,0.024,0.182,0.131,0.013,-0.069,0.100,0.117,0.305,0.298,0.313,0.128,0.024,0.023,0.189,0.193,0.034,-0.079,0.089,-0.078,0.116,-0.008,0.175,-0.142,-0.044,0.135,0.069,0.034,0.062,-0.095,0.172,0.116,-0.153,-0.123,-0.206,-0.055,0.111,0.208,0.044,0.026,-0.024,-0.083,0.034,0.166,-0.034,0.075,-0.023,-0.196,-0.042,0.007,-0.021,0.034,0.083,-0.029,-0.016,-0.051,-0.050,-0.193,-0.219,-0.285,-0.101,-0.157,-0.256,0.075,0.057,0.022,-0.081,0.072,0.174,-0.044,-0.088,-0.063,-0.012,-0.082,0.026,-0.185,-0.307,0.009,-0.015,-0.072,0.021,0.017,-0.151,0.195,-0.082,-0.145,-0.142,-0.258,-0.331,-0.218,-0.182,0.099,0.085,-0.047,-0.047,0.249,0.113,-0.079,-0.103,-0.067,-0.106,0.040,-0.026,-0.118,-0.332,-0.066,-0.095,0.203,0.031,0.033,0.011,-0.156,-0.100,-0.143,-0.396,-0.494,-0.534,-0.272,-0.089,-0.053,0.123,0.296,0.008,0.067,-0.334,-0.318,-0.038,-0.167,-0.082,0.064,0.112,-0.125,-0.180,-0.225,-0.093,0.091,0.093,-0.135,0.035,0.004,0.003,-0.269,-0.353,-0.446,-0.674,-0.665,-0.329,-0.266,-0.136,0.036,0.025,-0.340,-0.306,-0.442,-0.236,-0.079,0.020,0.022,0.080,-0.144,0.097,-0.056,-0.048,0.055,-0.100,-0.108,-0.053,0.031,-0.068,0.134,-0.123,-0.170,-0.537,-0.624,-0.486,-0.325,-0.199,-0.247,-0.204,-0.237,-0.377,-0.305,-0.158,-0.048,0.057,0.036,0.217,-0.170,-0.109,-0.026,-0.003,0.226,0.012,0.041,-0.126,-0.040,-0.354,-0.061,0.197,0.378,0.168,0.007,0.111,-0.144,-0.313,-0.351,-0.201,-0.086,-0.334,-0.101,-0.059,-0.004,0.003,0.155,0.133,0.013,0.036,-0.057,-0.028,0.052,0.206,-0.176,-0.010,-0.042,-0.041,0.075,0.286,0.604,0.687,0.408,0.487,0.339,-0.021,-0.038,-0.164,-0.066,-0.203,-0.168,0.118,0.076,0.066,0.121,0.075,-0.070,-0.068,-0.070,0.135,0.119,-0.081,0.064,0.039,0.109,0.043,0.110,0.287,0.460,0.384,0.186,0.110,0.217,0.144,-0.007,-0.168,-0.129,-0.054,0.233,0.068,0.149,-0.062,0.199,0.024,0.003,0.037,0.046,-0.080,0.085,0.028,0.012,0.034,0.057,0.107,0.203,0.073,0.088,0.300,0.185,0.212,0.151,0.118,0.029,-0.022,-0.131,0.130,-0.003,0.009,0.179,0.172,0.002,0.084,-0.130,-0.084,-0.063,0.069,0.011,-0.115,-0.114,0.024,0.186,0.093,0.210,0.055,-0.067,0.111,0.242,0.145,0.127,0.209,0.203,0.253,0.305,0.253,0.212,0.264,0.228,0.047,-0.073,0.106,-0.035,-0.157,0.105,0.044,-0.031,-0.021,-0.023,0.075,0.170,0.163,0.153,-0.046,0.114,0.150,0.035,0.054,0.165,0.253,0.111,-0.005,0.108,0.232,0.192,0.000,-0.097,0.138,0.085,-0.068,0.117,-0.160,-0.159,0.152,-0.032,-0.016,0.066,-0.091,-0.052,0.039,0.107,0.166,0.023,0.098,-0.001,0.204,-0.023,-0.102,-0.115,-0.076,0.092,-0.010,0.155,0.171,0.201,0.111,0.107,0.037,0.064,0.119,0.007,-0.050,-0.084,0.048,-0.003,0.006,0.036,-0.057,0.074,0.223,0.386,0.269,0.113,-0.083,-0.002,-0.160,-0.091,0.072,-0.138,0.063,0.304,-0.027,0.064,0.047,-0.010,-0.049,-0.187,-0.059,0.005,0.212,0.073,-0.151,0.098,0.226,-0.015,-0.005,0.054,0.055,0.204,0.279,0.121,0.350,0.074,0.090,-0.218,0.007,-0.029,-0.084,0.086,0.039,0.024,-0.051,-0.077,0.066,-0.068,0.009,0.029,0.061,-0.017,-0.045,-0.053,-0.034,0.020,-0.057,0.129,-0.084,0.130,0.041,0.216,0.185,0.194,0.102,-0.016,-0.066,-0.116,-0.054,0.005,-0.132,0.002,0.099,0.118,0.027,0.045,0.142,0.042,0.106,0.183,0.017,0.054,-0.035,-0.044,-0.121,0.073,-0.031,-0.032,0.067,0.015,-0.032,-0.083,0.000,-0.015,0.040,0.087,0.125,0.192,0.206,0.076,-0.039,0.201,-0.027,0.196,0.070,-0.020,0.037,0.118,-0.167,0.151,0.049,0.026,0.066,0.106,-0.048,0.083,-0.049,-0.010,0.200,0.000,-0.103,0.156,0.172,-0.049,0.101,0.035,-0.032,0.029,0.019,-0.044,0.056,0.303,0.100,0.023,0.037
0.051,-0.069,0.030,-0.024,0.013,0.066,0.046,-0.062,-0.107,0.013,-0.016,0.039,-0.153,0.134,-0.066,0.190,-0.007,0.083,0.089,-0.131,0.006,-0.194,-0.204,-0.171,-0.093,0.039,0.052,0.064,-0.027,-0.013,-0.143,0.023,-0.042,-0.016,-0.017,0.017,0.108,0.060,-0.017,0.012,0.153,-0.001,0.013,-0.155,-0.061,-0.092,-0.002,0.022,-0.006,-0.126,0.143,-0.053,0.041,-0.065,0.185,-0.026,0.079,-0.056,0.040,0.026,-0.073,-0.022,-0.022,0.035,-0.065,0.098,-0.134,0.003,-0.142,-0.131,0.084,0.045,-0.010,0.126,0.056,-0.099,-0.036,0.064,0.138,0.100,0.089,-0.024,-0.009,-0.046,0.063,0.016,0.056,-0.027,0.055,-0.053,0.078,-0.046,0.233,-0.218,0.004,-0.062,0.007,-0.044,0.052,-0.095,-0.009,0.036,-0.035,0.033,0.105,0.024,0.097,-0.081,0.095,0.161,-0.021,-0.027,0.015,-0.029,-0.133,-0.076,0.108,-0.163,-0.004,0.127,0.058,0.021,0.050,-0.123,0.015,-0.139,0.229,0.207,0.101,0.133,0.113,0.018,-0.019,0.095,0.176,0.172,0.168,0.041,-0.026,0.121,-0.142,-0.009,-0.010,0.031,-0.018,0.071,0.084,0.024,0.027,0.076,-0.130,-0.241,-0.082,-0.203,-0.022,-0.058,0.081,-0.010,-0.106,-0.024,-0.051,-0.088,0.026,0.043,0.194,0.090,-0.024,0.026,0.117,0.048,0.087,-0.010,-0.077,-0.068,-0.103,0.042,0.046,0.028,-0.041,-0.194,0.071,0.123,-0.230,-0.091,-0.156,-0.213,-0.226,-0.185,-0.119,-0.117,-0.085,-0.048,0.070,-0.106,0.143,-0.015,0.201,-0.028,0.014,-0.140,-0.098,0.018,0.091,0.004,-0.080,0.092,-0.184,-0.065,-0.233,-0.146,-0.180,-0.114,-0.272,-0.263,-0.228,-0.071,-0.249,-0.006,-0.078,0.082,-0.053,0.040,0.024,0.032,0.008,0.144,-0.146,-0.027,-0.010,0.050,-0.055,-0.032,0.189,0.023,-0.108,-0.335,-0.251,-0.306,-0.409,-0.211,-0.425,-0.318,-0.284,-0.337,-0.155,-0.214,-0.056,0.061,0.085,-0.132,-0.043,-0.000,-0.046,0.070,0.025,-0.048,-0.142,-0.182,0.091,0.125,-0.101,-0.204,-0.055,-0.272,-0.230,-0.209,-0.302,-0.106,-0.193,-0.032,-0.082,-0.159,-0.314,-0.099,-0.176,-0.052,0.119,0.068,0.076,0.198,-0.048,-0.052,-0.111,-0.005,0.050,-0.050,-0.000,-0.063,-0.152,-0.273,-0.095,-0.025,0.058,0.016,-0.018,0.208,0.195,0.198,0.311,0.371,0.201,0.162,0.044,-0.000,0.050,0.209,0.069,-0.156,0.054,-0.036,-0.033,0.047,-0.066,-0.176,0.165,-0.051,-0.070,0.006,0.136,0.180,0.345,0.415,0.088,0.214,0.300,0.239,0.309,0.457,0.325,0.388,0.268,0.192,0.380,0.275,0.130,-0.154,0.054,0.033,0.077,-0.132,-0.068,0.078,-0.086,0.082,0.153,0.232,0.208,0.367,0.410,0.263,-0.031,-0.204,-0.175,0.023,-0.046,0.359,0.408,0.295,0.304,0.206,0.166,0.289,0.075,0.085,0.095,-0.202,-0.000,0.153,0.038,0.029,-0.095,-0.067,0.186,0.172,0.316,0.529,0.344,-0.092,-0.679,-0.559,-0.410,-0.613,-0.147,-0.247,-0.016,-0.157,0.142,-0.033,0.040,0.061,0.098,-0.006,0.004,-0.066,0.024,0.163,0.060,-0.122,-0.151,-0.168,0.140,0.258,0.228,0.192,0.010,-0.404,-0.587,-0.460,-0.196,-0.427,-0.256,-0.199,-0.248,-0.068,-0.182,0.009,-0.096,0.113,-0.040,0.101,0.014,0.081,-0.011,0.032,0.008,-0.123,-0.178,-0.276,-0.261,0.087,0.164,0.062,-0.024,-0.328,-0.319,-0.299,-0.290,-0.252,-0.412,-0.399,-0.290,-0.169,-0.148,-0.181,-0.047,-0.015,-0.054,0.064,-0.053,-0.104,-0.048,-0.041,-0.235,-0.119,-0.328,-0.095,-0.127,-0.004,-0.107,-0.289,-0.126,-0.558,-0.306,-0.134,-0.119,-0.411,-0.430,-0.427,-0.249,-0.159,-0.089,0.031,-0.050,0.143,-0.050,0.028,-0.093,0.064,-0.032,0.020,-0.050,-0.173,-0.289,-0.137,-0.088,-0.027,0.002,-0.067,-0.032,-0.226,-0.098,-0.122,-0.149,-0.530,-0.368,-0.445,-0.353,-0.154,-0.075,-0.065,-0.013,0.084,0.266,0.005,0.079,-0.004,-0.025,-0.072,-0.312,-0.219,-0.141,-0.012,-0.333,-0.177,-0.111,-0.105,0.033,0.021,0.003,-0.106,-0.230,-0.286,-0.426,-0.291,-0.097,-0.144,-0.107,-0.172,-0.070,0.027,-0.104,-0.059,-0.019,-0.086,0.010,0.046,-0.084,-0.087,-0.180,-0.179,-0.024,-0.031,0.058,-0.050,0.097,-0.081,-0.024,-0.059,-0.140,-0.188,-0.211,-0.204,-0.084,0.088,0.049,-0.009,0.099,-0.079,-0.016,0.021,-0.005,-0.114,-0.180,-0.059,-0.112,-0.166,-0.220,-0.079,-0.043,0.033,0.119,-0.025,0.050,-0.230,0.022,0.161,-0.057,-0.218,-0.138,-0.149,0.097,0.048,0.144,0.203,-0.016,0.009,0.142,-0.063,0.060,0.079,0.063,-0.014,-0.149,-0.120,-0.069,-0.225,-0.077,-0.063,0.299,0.102,0.007,0.087,0.072,0.009,-0.219,-0.211,-0.184,0.025,-0.012,0.177,0.107,0.100,-0.086,0.125,0.028,0.102,-0.177,-0.060,-0.052,-0.092,-0.106,0.007,-0.015,-0.024,0.007,0.185,0.063,0.176,0.244,0.183,0.043,0.206,-0.117,-0.054,-0.092,0.112,0.021,0.107,0.096,-0.051,-0.110,-0.075,-0.095,0.147,-0.017,-0.138,0.059,0.103,-0.038,0.052,-0.057,0.073,0.178,0.259,0.062,0.120,0.076,0.058,-0.024,0.010,-0.181,-0.065,0.064,-0.077,-0.172,-0.034,-0.057,0.011,0.002,0.045,0.001,-0.007,0.001,0.090,-0.105,0.065,-0.102,-0.131,-0.029,-0.133,0.106,0.035,0.306,0.192,0.107,0.042,-0.141,-0.184,-0.017,0.092,-0.063,0.069,0.194,-0.046,0.041,0.080,-0.052,-0.012,-0.091,0.081,0.177,-0.053,-0.095,0.090,0.048,-0.039,0.069,-0.127,0.042,-0.048,0.178,0.183,0.095,0.147,0.076,-0.038,-0.044,-0.140,-0.117,0.053,0.018,0.022,-0.067,0.074,0.166,-0.025,-0.058,-0.080,0.069,-0.056,-0.084,0.012,0.081,-0.205,-0.063,-0.214,0.086,-0.102,-0.051,0.086,0.087,0.202,-0.064,0.073,-0.172,-0.093,-0.111,0.057,0.201,0.047,-0.128,0.108,0.009,-0.031,0.031,-0.109,-0.142,0.080,0.010,-0.168,-0.011,0.138,0.051,-0.005,0.174,0.180,0.120,0.099,-0.062,0.047,0.065,0.065,-0.059,-0.016,-0.070,-0.076,-0.000,-0.094,0.010,0.108,0.006,0.021,-0.052,0.259
-0.145,0.009,0.011,0.100,-0.004,-0.058,0.034,0.127,-0.114,-0.039,-0.064,-0.119,0.001,0.177,0.057,-0.186,0.082,0.184,0.106,-0.026,0.214,0.064,-0.077,0.048,-0.098,0.069,0.239,-0.011,-0.101,-0.143,0.036,0.166,0.134,0.010,-0.044,0.023,0.035,-0.110,0.038,0.053,-0.015,-0.041,-0.028,-0.100,0.062,-0.077,0.143,-0.007,-0.006,-0.141,0.002,0.179,-0.058,0.000,0.169,0.002,-0.024,0.047,-0.077,0.055,-0.016,0.075,-0.050,0.141,0.069,-0.139,-0.032,0.114,-0.013,0.037,0.095,-0.062,-0.087,-0.140,-0.076,0.004,0.074,0.255,0.204,0.022,0.031,0.113,0.206,0.009,0.118,0.026,0.049,0.110,0.059,0.110,0.050,-0.100,-0.025,-0.048,-0.144,-0.034,-0.101,-0.112,-0.076,-0.094,-0.356,-0.002,-0.153,-0.126,-0.159,-0.020,0.059,-0.049,-0.018,0.070,0.098,-0.134,-0.075,0.056,0.121,0.014,0.186,0.025,0.075,-0.080,-0.344,-0.134,-0.314,-0.153,-0.067,-0.203,-0.144,-0.243,-0.206,-0.129,0.094,-0.112,-0.178,-0.058,0.074,-0.092,0.002,0.013,-0.018,-0.150,0.110,0.122,0.222,-0.017,-0.093,0.156,-0.074,-0.223,-0.189,-0.341,-0.207,-0.432,-0.443,-0.170,-0.194,-0.211,-0.310,-0.332,-0.209,-0.171,0.020,-0.055,-0.086,0.075,-0.020,-0.097,-0.037,-0.091,-0.016,0.046,0.075,-0.035,0.042,0.048,-0.049,-0.263,-0.317,-0.300,-0.405,-0.228,-0.352,-0.371,-0.438,-0.301,-0.456,-0.285,-0.214,-0.135,-0.161,0.134,-0.135,-0.008,-0.153,-0.118,-0.053,0.056,-0.010,0.133,0.008,0.002,-0.065,-0.154,-0.251,-0.234,-0.434,-0.430,-0.382,-0.149,-0.509,-0.197,-0.303,-0.338,-0.263,-0.362,-0.285,-0.109,-0.004,-0.148,-0.152,-0.077,-0.142,-0.199,-0.080,-0.239,-0.085,-0.032,-0.015,0.034,0.017,-0.461,-0.252,-0.453,-0.478,-0.429,-0.097,-0.136,-0.109,0.022,0.142,-0.103,-0.243,-0.027,-0.127,-0.071,0.115,0.017,-0.056,-0.109,0.006,0.029,-0.033,0.037,0.007,0.034,0.222,-0.093,-0.034,-0.214,-0.324,-0.354,-0.211,0.004,0.197,0.317,0.239,0.461,0.345,0.404,0.000,-0.180,0.071,-0.058,0.007,-0.250,0.008,-0.038,0.100,0.011,0.008,0.093,0.015,-0.133,0.066,-0.089,-0.150,-0.234,-0.197,-0.259,-0.112,0.039,0.279,0.471,0.581,0.600,0.792,0.466,0.157,-0.046,-0.224,-0.099,-0.095,0.063,0.145,0.103,0.269,0.409,0.031,0.141,0.035,0.059,0.042,-0.108,-0.283,-0.316,-0.235,-0.061,-0.070,0.146,0.390,0.405,0.386,0.196,0.305,0.464,0.306,-0.169,-0.587,-0.641,-0.307,0.054,0.069,0.145,0.133,0.337,0.012,-0.001,0.067,-0.004,0.021,-0.108,-0.020,-0.211,-0.280,-0.215,0.094,0.076,0.446,0.781,0.414,0.098,0.374,0.516,0.426,-0.097,-0.699,-0.725,-0.383,-0.109,-0.012,0.051,0.202,0.371,0.231,0.037,-0.061,0.026,0.062,-0.041,-0.124,-0.086,-0.310,-0.135,-0.086,0.144,0.369,0.303,0.347,0.006,0.419,0.409,0.502,0.067,-0.649,-0.751,-0.334,-0.282,-0.163,-0.117,-0.000,0.115,0.094,0.213,0.127,0.034,0.038,-0.057,-0.038,0.005,-0.393,-0.115,-0.130,0.071,0.366,0.152,0.269,0.091,0.334,0.273,0.294,-0.200,-0.549,-0.422,-0.292,-0.087,-0.126,-0.070,0.039,0.089,-0.006,0.111,0.002,0.181,-0.126,0.051,0.071,-0.043,-0.216,-0.259,-0.399,-0.278,0.025,0.185,0.234,0.295,0.167,0.148,0.317,-0.518,-0.416,-0.488,-0.322,-0.183,-0.075,-0.106,0.106,0.104,0.016,-0.150,0.103,0.073,-0.006,0.022,-0.123,-0.080,-0.325,-0.467,-0.559,-0.540,-0.429,-0.058,-0.174,-0.069,0.302,0.175,-0.266,-0.607,-0.512,-0.465,-0.369,-0.068,0.026,0.106,-0.094,0.196,-0.023,0.074,-0.058,0.099,0.042,-0.029,-0.022,-0.132,-0.200,-0.585,-0.456,-0.527,-0.332,-0.384,0.009,0.261,0.384,0.011,-0.493,-0.411,-0.270,-0.073,-0.047,0.023,-0.158,-0.035,0.019,0.062,0.021,0.101,-0.112,0.091,0.064,-0.216,-0.087,-0.203,-0.400,-0.432,-0.378,-0.314,-0.169,-0.102,-0.083,0.163,0.143,-0.277,-0.376,-0.310,-0.146,-0.352,-0.081,-0.119,-0.126,-0.053,0.104,-0.107,-0.063,-0.065,-0.058,-0.049,-0.053,0.008,-0.145,-0.329,-0.370,-0.327,-0.217,-0.089,0.246,0.083,0.109,0.151,0.145,-0.184,0.024,0.229,-0.004,0.033,0.007,0.013,-0.030,-0.121,0.137,0.059,0.082,-0.025,-0.001,-0.065,-0.058,-0.010,-0.312,-0.283,-0.318,-0.117,0.156,0.034,-0.034,0.207,0.224,0.091,-0.120,-0.029,0.014,-0.186,0.195,-0.003,0.028,-0.072,-0.007,-0.174,0.101,-0.070,-0.004,0.070,-0.045,0.062,-0.062,-0.087,-0.247,-0.263,-0.118,0.142,0.251,0.041,-0.008,-0.208,-0.153,-0.229,-0.312,-0.067,0.017,-0.175,-0.103,0.114,-0.040,0.004,-0.052,0.035,-0.011,0.138,0.131,0.006,-0.071,0.044,0.117,-0.009,0.024,-0.067,0.123,0.211,0.385,0.084,-0.034,-0.119,-0.180,-0.187,-0.172,-0.162,-0.094,0.011,0.175,0.126,0.031,-0.110,-0.091,0.084,-0.059,0.051,0.043,0.147,0.012,-0.012,-0.023,0.034,-0.008,0.068,0.085,0.048,0.073,0.050,0.126,0.089,-0.202,-0.085,-0.032,-0.136,-0.273,-0.086,0.005,-0.174,-0.109,-0.254,0.182,-0.139,0.019,0.158,0.030,-0.043,-0.067,0.015,-0.052,-0.055,-0.073,0.062,0.025,-0.011,-0.165,-0.079,-0.216,-0.240,-0.211,-0.413,-0.354,-0.311,-0.393,-0.160,-0.233,-0.133,-0.116,0.026,-0.076,-0.013,-0.042,-0.061,0.011,0.065,0.101,0.037,-0.016,0.054,0.029,-0.005,0.005,0.052,-0.118,-0.051,-0.148,-0.201,-0.097,-0.177,-0.249,-0.288,-0.214,-0.177,-0.067,-0.041,-0.120,0.021,0.019,0.090,0.064,0.013,0.066,0.099,0.020,0.020,-0.038,0.050,-0.077,-0.166,0.100,-0.066,-0.037,0.014,-0.048,-0.091,0.065,-0.025,-0.193,-0.049,-0.062,-0.027,-0.061,-0.126,-0.081,0.123,-0.067,0.103,-0.083,-0.292,-0.012,-0.199,0.181,-0.007,-0.074,-0.235,0.157,-0.119,-0.143,0.075,0.116,0.055,-0.042,-0.039,0.174,-0.063,0.062,-0.022,0.021,-0.029,0.075,0.011,0.049,0.089,0.146,0.051,-0.027,0.029,-0.085,-0.051
-0.032,0.023,0.012,0.077,0.151,0.013,-0.111,0.118,0.095,-0.038,0.081,-0.059,0.010,0.012,-0.026,-0.016,0.015,0.097,-0.003,0.042,-0.076,0.098,-0.064,0.156,-0.010,0.084,-0.085,0.138,0.111,-0.006,0.026,0.076,0.024,0.084,0.060,-0.188,-0.113,-0.192,0.003,-0.015,0.084,-0.025,-0.151,-0.120,-0.095,0.085,-0.011,0.104,0.005,0.089,0.028,0.136,-0.179,-0.039,-0.056,-0.189,0.086,-0.025,0.023,0.014,0.072,-0.192,-0.075,0.066,-0.141,-0.019,0.005,0.133,-0.091,-0.082,-0.191,0.039,-0.093,-0.153,-0.006,-0.092,-0.022,0.004,0.044,-0.150,0.099,-0.051,-0.179,0.068,0.047,0.044,0.080,-0.041,-0.015,-0.048,0.084,-0.069,0.012,-0.035,-0.051,-0.013,0.011,-0.055,-0.174,-0.098,0.076,0.023,-0.082,0.253,-0.182,-0.007,0.182,0.165,0.008,0.162,0.018,0.113,-0.101,-0.010,0.073,-0.050,-0.014,-0.149,-0.023,0.171,0.053,-0.034,-0.056,-0.184,-0.032,-0.112,-0.048,0.046,0.040,-0.117,0.076,-0.125,-0.126,-0.007,-0.011,0.137,0.061,0.155,0.017,0.071,-0.074,0.161,-0.003,-0.087,0.142,-0.041,-0.010,0.076,0.108,0.042,0.001,0.061,-0.193,0.048,-0.100,-0.011,0.023,-0.056,-0.039,-0.171,-0.143,-0.063,-0.061,-0.141,0.000,-0.067,-0.029,0.267,0.075,0.061,-0.124,0.044,0.138,0.065,-0.136,-0.018,-0.066,0.051,-0.154,-0.076,-0.249,-0.056,-0.104,-0.018,-0.251,-0.306,-0.058,-0.336,0.080,0.002,-0.064,0.098,0.086,-0.123,-0.082,-0.119,0.104,0.015,0.099,0.081,0.116,-0.011,-0.070,-0.040,-0.156,0.027,-0.352,-0.138,-0.172,-0.244,-0.253,-0.219,-0.188,-0.092,-0.135,-0.109,-0.046,-0.148,-0.055,-0.064,0.160,-0.136,0.022,0.042,0.027,-0.126,0.242,-0.132,0.155,0.005,0.092,-0.089,-0.217,-0.065,-0.347,-0.338,-0.099,-0.319,-0.183,-0.236,-0.166,-0.106,-0.164,-0.238,-0.157,0.155,0.017,-0.064,-0.024,-0.053,0.022,0.010,-0.053,-0.030,-0.016,-0.038,-0.119,-0.031,0.015,-0.125,-0.049,-0.093,-0.009,-0.120,-0.171,-0.208,-0.179,-0.151,-0.020,-0.191,-0.055,-0.176,0.003,-0.068,-0.004,0.001,0.016,0.089,0.149,-0.069,0.081,0.068,-0.288,0.002,0.045,-0.019,-0.115,0.014,-0.136,-0.019,-0.166,-0.006,-0.036,-0.046,0.046,-0.093,-0.099,-0.059,0.061,0.158,-0.036,0.008,0.014,0.129,-0.109,0.058,0.046,-0.107,0.083,-0.027,0.031,-0.071,-0.009,0.177,-0.067,-0.080,-0.032,0.042,0.037,0.253,0.108,0.290,0.156,0.127,0.225,0.126,0.074,0.118,0.153,0.138,0.194,0.082,0.047,0.263,0.195,-0.041,0.128,-0.116,0.053,0.110,0.049,-0.081,0.024,0.071,-0.010,0.141,0.112,0.289,0.158,0.335,0.110,0.113,0.106,0.002,0.066,0.096,0.217,0.276,0.311,0.060,0.106,0.299,0.009,-0.168,0.042,-0.053,-0.060,-0.031,-0.011,-0.018,0.111,-0.002,0.177,0.057,0.083,0.241,0.240,0.116,-0.044,-0.078,-0.024,-0.062,-0.056,-0.052,0.027,0.073,0.074,-0.024,0.118,0.100,0.186,0.138,-0.130,0.080,-0.069,0.206,0.036,-0.090,-0.037,-0.002,-0.088,0.167,0.026,0.019,-0.032,-0.068,-0.179,-0.246,-0.204,-0.155,-0.088,0.022,0.006,-0.106,-0.166,-0.084,-0.106,-0.118,0.020,-0.025,-0.147,-0.034,-0.005,0.009,0.137,0.106,0.105,-0.202,-0.060,-0.055,-0.099,-0.115,-0.173,-0.233,-0.162,-0.157,-0.165,-0.136,0.053,-0.011,0.022,-0.020,-0.111,0.098,0.018,0.075,-0.063,-0.018,-0.095,-0.012,0.125,-0.024,0.076,0.011,0.053,0.034,-0.142,-0.089,-0.246,-0.303,-0.200,-0.210,-0.086,0.007,-0.182,0.041,-0.137,0.053,0.076,-0.044,-0.170,0.029,0.122,-0.035,0.016,0.051,-0.081,0.172,0.097,0.096,-0.123,0.162,0.180,0.082,0.142,-0.029,-0.186,-0.115,-0.163,-0.132,-0.046,-0.211,-0.122,-0.127,-0.140,-0.014,-0.135,-0.123,-0.086,0.083,-0.112,0.143,0.032,0.125,0.041,0.015,0.017,-0.036,0.082,-0.024,0.085,-0.001,-0.061,-0.099,-0.153,-0.125,-0.135,-0.089,-0.116,-0.102,0.039,-0.057,0.073,-0.175,0.007,-0.083,-0.091,0.043,-0.029,-0.098,0.146,-0.007,0.020,-0.190,0.098,-0.011,0.084,-0.056,0.115,0.037,0.119,-0.038,0.017,-0.201,-0.152,-0.034,-0.197,-0.173,-0.291,-0.125,-0.246,-0.055,-0.064,-0.072,0.069,0.136,0.009,0.055,0.125,-0.033,0.031,0.010,-0.056,-0.002,-0.011,-0.175,-0.192,-0.146,0.010,0.008,0.020,-0.158,0.109,-0.300,-0.161,-0.172,-0.103,-0.134,-0.147,-0.060,0.109,-0.069,0.230,0.005,-0.172,-0.102,-0.003,0.073,0.015,0.046,0.111,-0.004,-0.036,-0.025,-0.006,-0.080,-0.161,0.050,-0.008,-0.165,-0.188,-0.204,-0.192,-0.219,-0.225,-0.158,-0.243,-0.043,-0.203,-0.039,-0.007,0.050,-0.258,-0.008,0.040,0.051,0.118,-0.093,-0.172,-0.147,0.050,0.019,-0.020,-0.019,-0.080,-0.044,-0.142,-0.089,-0.123,-0.060,-0.128,-0.031,-0.000,-0.163,-0.086,0.092,0.002,0.004,0.057,-0.087,0.006,0.023,0.050,0.151,0.030,0.158,-0.052,0.046,-0.020,-0.215,-0.027,0.043,-0.066,-0.080,-0.063,-0.132,-0.096,-0.232,-0.159,-0.014,0.013,-0.079,0.146,-0.063,-0.073,0.049,-0.175,0.068,0.063,-0.058,-0.123,-0.025,0.038,-0.081,-0.000,-0.006,-0.102,-0.041,-0.071,-0.075,0.039,-0.031,-0.037,-0.128,-0.051,-0.103,-0.181,-0.130,-0.060,0.022,0.115,0.002,-0.091,-0.013,-0.063,-0.121,0.144,0.087,-0.103,0.096,0.053,-0.105,0.120,0.148,-0.019,0.102,-0.059,-0.106,0.071,-0.013,-0.047,0.127,0.002,-0.162,-0.101,0.082,-0.019,-0.075,0.036,-0.074,0.076,0.026,-0.057,0.036,-0.078,-0.036,0.008,-0.047,0.123,0.015,0.017,0.007,-0.024,-0.062,-0.044,0.018,-0.097,0.100,-0.112,0.122,-0.174,-0.246,0.065,0.084,0.115,-0.085,0.064,0.074,0.037,-0.189,-0.032,0.097,0.053,0.041,0.030,0.139,-0.052,-0.040,0.080,0.041,-0.005,-0.003,-0.076,0.060,-0.077,0.215,-0.023,-0.023,0.145,-0.066,0.013,0.015,-0.038,0.071,0.047,-0.033,-0.001,-0.001,0.096,-0.035,0.017,0.060,-0.026,0.049
0.105,-0.092,0.021,0.025,-0.059,-0.055,0.069,0.047,-0.079,0.043,-0.058,-0.107,0.026,-0.126,-0.093,-0.093,-0.014,0.125,-0.053,-0.215,-0.018,-0.007,-0.141,0.218,-0.101,0.012,0.027,0.173,0.080,-0.076,-0.046,-0.029,-0.117,0.018,-0.099,0.003,-0.095,-0.036,0.156,-0.031,-0.002,-0.050,0.095,-0.141,-0.156,0.025,0.015,0.128,0.066,-0.144,-0.070,0.034,-0.090,-0.028,0.017,-0.161,0.139,0.059,0.123,0.126,0.110,-0.118,-0.026,-0.077,0.123,0.075,0.102,0.035,-0.118,-0.215,-0.235,-0.205,-0.193,-0.142,0.011,0.173,-0.103,-0.133,-0.029,-0.053,-0.013,0.102,-0.109,0.098,0.053,0.025,-0.051,-0.006,-0.175,-0.003,-0.209,-0.009,-0.119,-0.065,-0.037,-0.205,-0.170,-0.072,-0.249,-0.087,-0.162,-0.166,-0.120,-0.079,0.045,0.002,-0.031,-0.206,0.131,-0.094,-0.096,0.035,0.014,0.022,0.014,0.036,-0.107,-0.227,-0.044,0.012,-0.023,-0.164,-0.077,0.031,-0.100,-0.150,-0.260,-0.007,-0.233,-0.113,-0.173,-0.126,-0.019,0.013,-0.124,-0.146,-0.317,-0.337,0.018,0.131,0.015,-0.004,0.161,-0.026,-0.152,0.056,-0.110,0.080,-0.122,0.042,-0.139,-0.156,-0.078,0.160,0.158,0.184,0.128,0.165,-0.073,-0.124,-0.164,-0.052,-0.155,-0.090,0.020,-0.080,-0.064,0.042,-0.041,-0.071,-0.057,-0.038,0.011,-0.110,0.015,-0.123,-0.137,-0.230,-0.386,-0.114,-0.144,-0.136,-0.010,0.024,0.177,0.204,0.158,0.074,-0.009,0.056,0.066,-0.379,-0.190,-0.168,-0.089,0.084,-0.067,0.057,-0.047,-0.011,0.004,0.008,-0.053,-0.143,-0.298,-0.253,0.011,-0.041,-0.047,0.026,-0.037,-0.087,-0.086,0.014,0.010,0.208,0.066,0.075,0.017,0.112,0.045,-0.193,-0.248,0.019,-0.081,-0.068,-0.088,-0.126,0.007,-0.234,-0.076,-0.273,-0.275,-0.142,-0.175,-0.107,-0.309,0.031,0.137,0.272,0.030,0.360,0.234,0.245,0.140,0.034,0.082,0.145,-0.154,-0.115,-0.210,-0.092,0.064,-0.076,0.052,-0.037,-0.172,0.030,-0.167,-0.105,-0.072,-0.019,-0.105,-0.352,-0.286,-0.041,-0.138,-0.201,-0.149,0.197,0.580,0.248,0.187,0.194,0.062,-0.024,-0.018,-0.152,-0.047,-0.134,-0.015,0.011,0.113,0.020,-0.066,-0.039,-0.032,0.026,-0.030,0.043,-0.170,-0.247,-0.128,-0.290,-0.063,-0.152,-0.285,0.242,0.425,0.381,0.234,-0.004,0.150,0.175,0.239,-0.231,-0.061,-0.023,0.103,-0.141,-0.000,-0.055,0.071,-0.007,0.226,0.219,-0.106,0.105,-0.029,0.036,-0.330,-0.142,-0.249,-0.691,-0.721,-0.004,0.330,0.110,0.087,0.140,0.061,0.134,0.141,-0.245,-0.185,-0.124,0.044,-0.016,-0.063,0.141,0.116,0.196,0.290,0.116,0.041,-0.059,0.026,-0.221,0.152,0.092,-0.574,-0.895,-1.159,-0.482,0.280,0.086,-0.051,0.120,0.010,0.065,0.076,-0.176,-0.088,-0.050,0.075,-0.126,-0.012,-0.075,0.061,0.392,0.323,0.111,0.157,0.198,0.354,-0.014,0.076,-0.297,-0.742,-1.260,-1.123,-0.172,0.325,0.137,0.061,-0.066,-0.012,0.092,0.001,-0.167,-0.116,-0.127,0.045,-0.157,-0.069,-0.036,-0.013,0.279,0.171,0.249,0.140,0.178,0.305,0.215,0.055,-0.309,-1.012,-1.147,-0.854,-0.214,0.117,0.056,0.174,0.008,0.087,0.061,-0.093,-0.104,0.070,-0.058,-0.037,0.055,-0.016,-0.037,0.062,0.104,0.249,0.462,0.200,0.089,0.367,0.133,-0.158,-0.603,-1.088,-0.788,-0.452,-0.351,0.094,-0.088,0.116,-0.107,0.239,-0.000,0.091,-0.232,-0.034,0.228,-0.022,0.080,0.056,-0.152,-0.073,0.031,0.166,0.320,0.324,0.175,0.496,0.149,-0.804,-1.125,-0.784,-0.548,-0.366,-0.084,0.051,-0.103,0.107,-0.047,0.272,0.077,0.044,-0.012,-0.058,-0.133,0.039,-0.046,-0.153,-0.114,0.119,0.109,0.157,0.171,0.207,0.471,0.547,0.182,-0.661,-0.907,-0.363,-0.173,-0.339,-0.216,-0.087,-0.040,0.027,0.174,0.324,0.171,0.112,-0.103,0.056,-0.023,0.058,0.042,0.024,-0.100,0.230,0.086,0.126,0.283,0.333,0.482,0.729,0.195,-0.574,-0.635,-0.344,0.048,-0.015,-0.100,-0.008,0.121,0.184,0.134,0.219,-0.043,-0.163,-0.121,-0.115,-0.276,-0.005,-0.022,0.007,-0.198,0.048,0.151,0.028,0.111,0.310,0.596,0.614,0.242,-0.430,-0.718,-0.420,-0.382,-0.246,-0.323,-0.118,-0.108,0.088,0.083,0.369,0.027,-0.118,-0.037,-0.171,0.147,-0.163,-0.017,0.153,-0.086,0.074,0.167,0.046,0.051,0.143,0.379,0.525,0.230,-0.204,-0.336,-0.325,-0.244,-0.198,-0.097,-0.064,-0.017,0.176,0.291,-0.055,-0.044,0.038,-0.074,0.203,0.021,-0.072,-0.178,-0.178,0.067,-0.050,0.113,0.065,0.191,0.109,0.124,0.354,0.167,0.001,-0.170,-0.275,-0.052,-0.351,-0.256,-0.206,-0.104,0.203,0.143,-0.063,0.070,-0.053,-0.086,-0.147,-0.015,0.038,0.184,0.074,0.050,-0.069,0.016,0.156,-0.015,0.195,0.335,0.153,0.034,-0.057,-0.063,-0.219,-0.293,-0.369,-0.300,-0.168,0.091,0.171,-0.071,-0.058,-0.002,-0.146,-0.172,0.171,0.005,0.128,-0.170,0.006,-0.015,-0.080,-0.169,0.018,0.108,0.141,0.270,0.158,0.099,-0.080,-0.015,-0.103,-0.242,-0.484,-0.306,-0.240,-0.018,-0.189,-0.183,0.169,-0.026,-0.070,-0.014,0.095,0.063,-0.014,0.094,0.129,-0.030,-0.124,-0.048,-0.171,-0.173,0.058,0.216,0.045,0.191,0.110,-0.280,-0.121,-0.333,-0.492,-0.613,-0.427,-0.417,-0.168,-0.272,-0.219,0.009,0.007,-0.172,-0.082,-0.025,-0.041,-0.003,-0.023,0.127,-0.179,-0.135,-0.301,-0.126,0.027,-0.091,-0.358,-0.255,-0.235,-0.372,-0.424,-0.675,-0.338,-0.254,-0.132,-0.216,-0.005,-0.231,-0.205,-0.331,0.104,-0.118,-0.002,0.018,0.011,-0.102,0.042,-0.010,-0.006,-0.165,-0.042,-0.217,0.036,-0.133,-0.147,-0.221,-0.263,-0.144,-0.099,-0.286,-0.174,-0.166,-0.009,0.014,-0.092,-0.132,-0.116,-0.140,-0.018,0.037,0.021,0.041,-0.067,0.157,-0.038,-0.056,0.081,-0.134,0.036,0.045,0.009,0.148,-0.116,-0.082,-0.048,-0.007,-0.056,0.006,-0.001,-0.070,-0.089,-0.111,-0.022,0.036,0.149,-0.079,-0.138,-0.011,-0.017,0.050
-0.055,-0.030,-0.002,-0.025,-0.168,-0.255,0.090,-0.080,-0.028,-0.028,-0.097,-0.028,0.103,0.012,-0.089,-0.055,-0.009,-0.014,0.152,-0.067,0.105,0.036,-0.194,0.058,0.042,0.019,0.039,-0.056,-0.010,-0.188,0.028,0.181,0.040,-0.018,0.038,0.006,0.076,0.046,0.119,-0.096,0.029,0.063,0.005,-0.009,0.231,0.029,0.074,0.075,0.017,-0.169,0.106,-0.073,0.033,0.128,0.043,-0.223,0.090,-0.019,0.054,0.058,0.171,-0.101,-0.018,-0.071,0.063,0.078,-0.087,-0.005,-0.029,0.051,-0.060,-0.003,-0.013,0.037,-0.059,0.082,0.039,-0.143,-0.018,0.006,-0.040,0.017,-0.049,-0.056,0.092,0.008,0.074,0.047,-0.002,-0.004,0.088,0.064,0.033,0.064,0.049,0.101,0.138,0.012,-0.047,0.104,0.026,0.048,-0.030,0.172,-0.099,-0.110,-0.087,0.072,0.157,-0.022,-0.022,0.037,0.063,-0.016,-0.011,0.022,0.090,0.006,-0.026,0.143,0.074,-0.150,-0.233,-0.077,-0.150,-0.011,0.107,-0.027,-0.077,0.151,0.052,-0.098,-0.178,-0.187,-0.063,-0.148,-0.109,0.110,0.119,0.111,-0.002,-0.004,0.018,-0.223,0.149,0.272,-0.043,0.060,0.010,0.044,-0.111,-0.098,-0.126,-0.259,-0.209,-0.218,-0.130,-0.245,-0.010,-0.093,-0.195,-0.107,0.018,-0.178,0.043,0.080,0.026,-0.153,-0.081,-0.165,-0.012,-0.257,0.126,-0.045,0.019,-0.175,-0.184,0.000,-0.145,-0.116,-0.037,-0.139,-0.197,-0.097,-0.219,-0.157,-0.131,-0.071,-0.101,-0.164,-0.174,-0.094,-0.132,-0.046,0.051,0.108,0.060,0.086,0.004,-0.047,0.005,-0.166,-0.112,-0.047,-0.111,-0.013,-0.031,-0.046,-0.289,-0.019,-0.138,-0.176,-0.146,-0.228,-0.103,-0.092,-0.149,-0.017,-0.166,-0.029,-0.115,0.056,0.037,-0.139,-0.028,-0.042,0.194,-0.187,-0.042,0.072,0.007,-0.165,-0.101,-0.154,-0.068,-0.058,-0.023,-0.147,-0.075,-0.180,-0.235,-0.156,-0.102,-0.197,-0.088,0.002,-0.109,0.019,-0.077,0.016,-0.011,-0.113,-0.014,0.053,-0.005,0.019,0.061,-0.123,-0.056,-0.231,-0.063,-0.228,0.036,0.033,0.179,-0.066,-0.004,-0.032,-0.131,-0.161,-0.215,-0.198,0.053,0.052,-0.009,-0.062,-0.228,0.096,-0.113,0.024,0.109,-0.021,0.025,-0.091,-0.025,0.067,-0.053,0.026,-0.192,-0.037,0.120,0.100,0.052,0.016,-0.253,-0.024,-0.059,-0.173,-0.147,-0.144,-0.114,-0.022,0.158,0.182,0.168,0.141,-0.008,-0.046,0.007,-0.012,-0.104,0.089,0.013,0.011,-0.104,0.053,-0.108,-0.124,0.027,-0.041,0.219,0.133,-0.072,0.074,-0.132,-0.170,-0.184,-0.041,-0.012,0.006,-0.062,-0.009,0.241,0.092,0.007,0.153,-0.136,-0.067,0.044,0.016,-0.054,-0.046,-0.023,-0.043,-0.118,-0.004,-0.081,0.154,-0.074,0.109,-0.277,-0.198,0.014,-0.180,-0.166,-0.108,-0.082,0.024,-0.034,0.040,0.067,0.058,-0.095,-0.022,0.009,0.116,-0.092,0.001,-0.125,0.051,-0.010,-0.070,0.048,0.030,0.036,0.164,0.054,-0.091,-0.099,-0.110,-0.004,-0.068,-0.035,-0.165,-0.094,-0.100,-0.067,0.060,0.081,-0.090,-0.049,-0.125,0.001,0.051,0.048,-0.095,-0.005,-0.163,0.021,-0.068,-0.015,-0.003,0.129,0.031,0.049,-0.031,-0.228,-0.247,-0.049,-0.175,-0.131,0.041,-0.220,-0.130,0.003,0.060,-0.105,0.086,0.156,-0.080,0.211,-0.093,-0.050,0.198,-0.227,0.029,-0.056,-0.068,-0.125,0.026,-0.072,-0.098,-0.191,-0.089,-0.154,-0.100,0.025,-0.009,-0.195,-0.189,-0.041,0.108,0.106,0.077,0.117,0.155,0.100,-0.054,-0.055,0.055,-0.050,0.132,0.124,-0.098,0.036,0.012,0.055,-0.120,0.025,0.131,-0.218,-0.130,-0.220,0.055,-0.015,0.023,0.010,-0.062,-0.126,0.078,0.077,-0.053,0.118,0.072,0.033,0.067,0.022,-0.044,0.102,-0.031,0.022,0.007,-0.062,-0.335,-0.049,-0.054,-0.170,-0.129,-0.143,-0.101,-0.156,0.061,-0.162,0.019,-0.039,-0.078,-0.015,-0.105,0.014,0.079,-0.029,0.086,-0.000,0.090,-0.102,0.097,0.159,0.072,0.011,0.028,-0.150,-0.203,-0.190,-0.047,-0.079,0.021,-0.118,-0.201,0.087,-0.234,-0.294,-0.108,-0.063,-0.051,-0.146,-0.060,-0.126,0.094,0.170,-0.027,0.068,0.200,0.133,-0.092,-0.046,-0.015,-0.042,0.039,0.066,-0.031,-0.096,0.029,0.050,-0.104,-0.023,-0.064,-0.138,-0.123,-0.099,-0.046,-0.091,-0.127,-0.026,-0.109,-0.098,-0.096,0.051,-0.022,-0.076,0.050,-0.026,-0.118,-0.002,-0.164,-0.007,-0.051,-0.022,-0.174,-0.086,-0.061,-0.050,-0.076,-0.167,-0.144,-0.210,-0.175,-0.166,-0.189,-0.072,-0.229,-0.234,-0.109,0.000,-0.091,-0.125,-0.002,-0.136,0.035,0.057,0.011,0.046,0.125,0.065,0.071,-0.095,-0.079,-0.121,-0.038,-0.155,-0.188,-0.070,-0.249,-0.261,-0.206,-0.197,-0.172,-0.078,-0.250,-0.242,-0.149,-0.096,-0.067,-0.033,-0.096,0.213,0.126,0.032,0.143,-0.013,-0.080,-0.028,-0.171,-0.091,-0.061,-0.089,-0.247,-0.119,-0.093,-0.267,-0.213,-0.197,-0.134,-0.128,-0.162,-0.166,-0.116,0.025,-0.163,0.162,-0.016,-0.037,0.023,0.037,0.056,0.016,-0.005,-0.070,0.068,0.079,-0.001,0.043,-0.116,0.052,-0.124,-0.003,0.023,-0.282,-0.104,-0.180,-0.007,-0.148,-0.165,-0.029,-0.101,0.015,-0.014,-0.026,-0.108,-0.036,-0.055,0.028,-0.058,-0.033,-0.060,0.089,0.094,0.324,0.081,-0.196,0.013,0.018,0.127,-0.154,-0.067,0.067,-0.209,-0.015,-0.121,-0.111,-0.069,-0.028,0.000,0.053,0.046,-0.032,0.077,-0.003,-0.104,0.113,-0.094,0.031,-0.171,0.016,0.070,-0.110,0.038,-0.210,-0.022,-0.040,0.073,0.002,0.145,0.005,0.033,-0.069,-0.027,0.101,0.048,-0.089,0.067,0.006,-0.117,0.050,0.084,-0.055,-0.127,-0.060,-0.076,0.090,-0.034,-0.074,0.001,0.037,-0.047,0.015,-0.118,0.032,-0.094,0.008,-0.003,0.099,-0.030,0.025,-0.044,-0.064,-0.005,-0.042,0.029,0.047,0.110,-0.106,0.044,-0.073,-0.054,-0.087,-0.111,-0.035,-0.068,-0.071,0.032,0.041,-0.158,-0.058,-0.092,-0.017,-0.204,-0.099,-0.009,-0.048,-0.024,-0.018,0.049,0.000,-0.021,0.047,-0.026,0.102,0.043,0.027,0.081,0.056,-0.071,0.050,0.044
